layers 10
layer 0 Dense
2 128
[ 0.76598642  0.6764098   1.17139805 -1.3033404  -0.53489232  0.3750359
 -1.54302475 -1.71398202 -1.02577581 -0.89143413 -2.03758342  0.23824439
  1.32542616  0.14923757 -0.42109525 -1.72317953  0.77649946 -0.61438175
  1.92370131 -1.58560726  1.27970672  2.01956782  0.18536336  1.02406567
  1.03368224  1.31207258  1.24173832 -0.79069765  1.10913064 -1.93844684
  0.90218349 -1.97372383  0.42894552  0.63970679 -0.2248448   0.42331046
  0.03336157 -1.14743909 -1.94910296  0.23030331  0.13542594  1.03264513
 -0.87326819  0.63219256 -0.41967119  0.50347532  0.641926   -1.05650773
  1.35812666 -1.75938029  0.83423726 -0.40762984 -0.12386792 -1.27420341
  0.11884318 -2.06884432 -0.16069052  0.86221123 -0.53479679 -1.32899506
 -0.64286517 -0.49930783 -1.06345525  1.04704977 -1.22274084  0.2657744
 -1.75758399 -0.71655799 -0.9235372   0.55619433 -0.06247285 -1.18315728
 -0.7205795   0.44275191 -0.02350015  0.44941771 -1.40003698  0.21866058
 -0.79935335 -2.07982203  0.51548606  0.24614845 -2.16135749  0.09266074
  1.36091505  0.76912061  0.97085976  1.71331715 -0.46904571 -0.8464191
  0.39662437 -0.77120993 -0.01008318  0.66113339  0.8901923   0.19059174
 -0.03680223 -1.90857733 -0.49056011 -2.05778827 -1.31933279  1.03931984
  0.29362058  0.90819295 -1.5725454  -0.05642326 -0.94693923  2.24128854
 -0.69227186  0.72364604  1.66002583 -1.29919908 -1.29407361  0.60635702
  0.32592634 -0.58285704 -0.01637161  1.1536069  -0.04853923  1.62216869
 -0.61019019  1.15713661 -0.08061575 -1.42998935 -0.7361634  -1.39271905
  0.13333381 -1.0134528 ]
[-0.66287366 -0.92665894  0.93102596  1.49757632 -2.02302231  1.28385798
 -1.03040899 -0.57690728  0.72881142  1.03659704 -0.32213959 -1.42139291
 -0.68201531 -0.5868284  -1.76546546 -0.8222584  -0.2470387  -0.32875449
  0.32519662  0.14382094  0.21613341  0.18842532 -0.43555026  0.83809635
 -0.79869763  0.38689918  1.13831581  0.13589263 -1.6527738   0.28041118
  0.37935533 -0.28096457  0.9822189  -0.23085297  1.11326039  0.07895528
 -1.90190049  0.40786609  1.73044541  1.00730238 -0.65058775  0.03796774
  1.00296356  2.15012742  0.33106464 -0.53789867  0.00891448  0.31268749
 -0.29796795 -1.04674855 -1.19638776  1.35440904  1.08495439  0.3885366
 -0.71586733 -0.18947631 -0.91601445 -0.57305318 -0.19091    -1.6574158
 -0.06324589  0.52634155 -0.22916142  0.6407937  -0.22370119 -0.8797079
 -1.35846928 -0.29457477  0.8304804  -0.89140759 -0.19726716  1.00967339
  0.69717068 -0.35121375 -0.87630859  0.61262849 -1.39153704  1.53441448
  0.13219292  0.2124981  -0.21417823 -0.84797043  1.1082709   1.27903139
 -1.36928101  0.25848744  0.22338881  0.69194521 -0.39311363 -1.04361662
  0.82525383 -1.02578719  0.02794656 -0.00492478  0.18126209 -0.46424635
 -1.17770733  0.64640507 -0.33734815 -1.24720366 -0.77969155  0.2101977
 -1.3015797   1.17931991 -0.88646146 -1.05814715  0.84518179  1.90650713
 -1.04957229  1.40644211 -0.76397616  0.29659434  0.06600781  0.59740123
  0.31034909  0.04790243 -1.35412587 -0.85869991 -1.42511673  0.44998665
  1.6263874  -1.10542626 -0.71143949  1.26212778  1.20371651  1.10622652
 -0.45134969  0.03165507]
[-2.83616646e-08 -1.04366630e-03  7.22004474e-05  0.00000000e+00
  0.00000000e+00  1.18606529e-07  0.00000000e+00  0.00000000e+00
  0.00000000e+00  0.00000000e+00  0.00000000e+00  2.94355059e-08
  2.96137528e-03 -2.85075993e-08  0.00000000e+00  0.00000000e+00
  3.98214517e-03  0.00000000e+00  1.37848683e-04  0.00000000e+00
 -2.42645695e-08 -3.73591981e-04 -1.78134887e-08 -7.59183954e-04
  3.86148220e-08  1.23322118e-03  1.53490162e-07  0.00000000e+00
  3.20244460e-03  0.00000000e+00  3.81549624e-08  0.00000000e+00
  1.36050951e-07 -5.65345142e-08 -7.92232595e-08  4.95601023e-04
  0.00000000e+00  0.00000000e+00  0.00000000e+00  1.51686216e-05
  1.58366154e-08  4.86838126e-04  0.00000000e+00  1.20947673e-08
  0.00000000e+00  8.62073024e-08  1.33259448e-03  0.00000000e+00
  7.69660551e-10  0.00000000e+00  1.08642319e-07 -5.83754579e-08
  1.17452693e-07  0.00000000e+00  8.95018934e-08  0.00000000e+00
  0.00000000e+00  1.13454033e-03  0.00000000e+00  0.00000000e+00
  0.00000000e+00  0.00000000e+00  0.00000000e+00  6.13079900e-08
  0.00000000e+00  5.85819197e-08  0.00000000e+00  0.00000000e+00
  0.00000000e+00  2.73804655e-08  0.00000000e+00  0.00000000e+00
  0.00000000e+00  1.05314023e-07  0.00000000e+00 -1.34806182e-07
  0.00000000e+00  4.44821308e-08  0.00000000e+00  0.00000000e+00
 -3.48108758e-08  3.12173061e-08  0.00000000e+00  6.49686897e-05
  2.21332543e-03  6.13765928e-04  2.77065056e-08 -3.21783986e-08
  0.00000000e+00  0.00000000e+00 -8.58510036e-04  0.00000000e+00
  2.27759261e-08 -3.47898320e-08 -8.29570691e-05 -4.01281490e-03
  0.00000000e+00  0.00000000e+00  0.00000000e+00  0.00000000e+00
  0.00000000e+00  6.33171752e-08 -1.66118395e-07  9.37458901e-08
  0.00000000e+00  0.00000000e+00  0.00000000e+00 -5.29139158e-08
  0.00000000e+00 -4.87123552e-03 -2.66991655e-04  0.00000000e+00
  0.00000000e+00 -1.10638325e-08  2.14712133e-08  0.00000000e+00
  0.00000000e+00  4.03027544e-03  0.00000000e+00  9.03339220e-08
 -1.08679858e-08  1.66094883e-03  0.00000000e+00  0.00000000e+00
 -2.85425336e-08  0.00000000e+00 -1.64310140e-08  0.00000000e+00]
layer 1 Activation
relu
layer 2 Dense
128 128
[ 0.09566202  0.08453368  0.14640524 -0.16291755 -0.06686154  0.04686285
 -0.1928781  -0.21412488 -0.12830961 -0.11165254 -0.25469793  0.02978125
  0.16554136  0.01864298 -0.05262773 -0.21525789  0.09701711 -0.07654079
  0.24044664 -0.19821013  0.16002326  0.25246828  0.02317662  0.12806434
  0.12903827  0.16398089  0.15521523 -0.09872909  0.13860034 -0.24230585
  0.11281861 -0.24671548  0.05346579  0.07995957 -0.02808573  0.05289596
  0.00428466 -0.14355369 -0.24350783  0.02888846  0.01690301  0.12905878
 -0.10937108  0.07905653 -0.05248931  0.0629509   0.08021514 -0.13187618
  0.16976967 -0.21992254  0.10435299 -0.05095267 -0.01548837 -0.15931703
  0.01492347 -0.25874885 -0.02004103  0.10774889 -0.0668496  -0.16612438
 -0.08029996 -0.06243287 -0.13305404  0.13083749 -0.15281963  0.03322764
 -0.21969576 -0.08956975 -0.11542886  0.06951065 -0.00772978 -0.14789466
 -0.09007244  0.05533684 -0.00278775  0.0561189  -0.17485898  0.02756201
 -0.09993599 -0.25991651  0.06443107  0.03077621 -0.27022397  0.01158234
  0.17008072  0.09632953  0.12119796  0.21417919 -0.05863071 -0.10580239
  0.049711   -0.09640124 -0.00121658  0.08251043  0.11142519  0.02379029
 -0.00447446 -0.23857217 -0.06128125 -0.2572768  -0.16501864  0.12991742
  0.03685208  0.11352219 -0.19656818 -0.0069195  -0.11836763  0.28016846
 -0.08650124  0.09053603  0.20752351 -0.16239989 -0.16171942  0.07580736
  0.04085079 -0.07281814 -0.00201997  0.14415468 -0.00590199  0.20276856
 -0.07627497  0.14461194 -0.01007375 -0.17874867 -0.0920204  -0.17408988
  0.01666023 -0.12671257]
[-0.08292485 -0.11585755  0.11637381  0.18719704 -0.25287779  0.1604787
 -0.12880113 -0.07202238  0.09103749  0.12940927 -0.04026745 -0.17767401
 -0.08533289 -0.07335605 -0.22067731 -0.10267897 -0.03089018 -0.04090381
  0.04064635  0.01797068  0.02706414  0.02355845 -0.05444273  0.10479047
 -0.09995832  0.0483558   0.1422892   0.01706607 -0.2066061   0.0350514
  0.04746216 -0.03512057  0.12267204 -0.02885739  0.13916243  0.00986586
 -0.23765205  0.05089106  0.21640198  0.12599638 -0.08133751  0.00474097
  0.12521286  0.26879639  0.04136061 -0.06722182  0.00110858  0.0392252
 -0.03724493 -0.13084357 -0.14949081  0.16930156  0.13561833  0.04853596
 -0.0894326  -0.02378994 -0.11446845 -0.07163817 -0.02386375 -0.20717698
 -0.00786208  0.06577872 -0.02873581  0.08006516 -0.02794501 -0.10996208
 -0.16980775 -0.03682185  0.10382069 -0.11142902 -0.02459994  0.12620917
  0.08714633 -0.04390312 -0.1094281   0.07652803 -0.17383367  0.19197539
  0.01651174  0.02660786 -0.02677332 -0.10599475  0.13849328  0.15988717
 -0.1711676   0.03246204  0.02780767  0.08649617 -0.0491392  -0.13045208
  0.10324378 -0.1282234   0.00352637 -0.00071381  0.02275961 -0.05808044
 -0.14712083  0.08080063 -0.04214117 -0.1559396  -0.09753776  0.02627506
 -0.16259176  0.14741451 -0.11080768 -0.13216906  0.10564763  0.23831488
 -0.13117219  0.17583801 -0.09549243  0.03707429  0.0082806   0.07467901
  0.0388701   0.00601644 -0.16924641 -0.10734807 -0.17801706  0.05624714
  0.20329785 -0.13818522 -0.08892789  0.15776597  0.15046458  0.13827832
 -0.05642044  0.00393397]
[-0.24611628  0.13395265  0.25230849 -0.010933   -0.09608141  0.13266234
 -0.00362915 -0.01315921  0.1445414  -0.03503319  0.07724044  0.07173821
  0.21970069 -0.04978113  0.05351113  0.12097089  0.06052641  0.10258181
 -0.01525155 -0.02545111  0.02522726 -0.08524593  0.1861225   0.04577982
 -0.03697186 -0.28367743 -0.05851915  0.0224342  -0.1168538   0.01641805
  0.09518244 -0.09904374  0.04918291  0.22294803 -0.13888642 -0.07580732
  0.27347538  0.06792761  0.1145748   0.11152272  0.15502412 -0.01999685
 -0.07410358  0.01067643  0.11768932  0.0747102  -0.09471476 -0.1569971
  0.10956666 -0.07042041 -0.11278686 -0.09597842  0.26789697  0.20899708
  0.05180201  0.21111346  0.02826029 -0.12815936 -0.04866623  0.27869668
 -0.06196563  0.10447121 -0.00314051 -0.05223927 -0.13299658 -0.2171336
 -0.11867419 -0.05308596 -0.0681706  -0.09775748 -0.12754519  0.00587717
 -0.21120649 -0.15679371 -0.12229498 -0.22778585 -0.03456004 -0.09053165
  0.09711124 -0.06283109 -0.09210697  0.19462876  0.01076323  0.17251659
  0.19085823  0.24552041 -0.04646409 -0.0435351   0.01299092  0.16142602
  0.0507235  -0.06620019  0.14160106  0.04608222 -0.04803545  0.03559953
  0.05647301 -0.20306128  0.01769692  0.19635294 -0.05349293 -0.01363929
 -0.07266961  0.06923733  0.00340313  0.19636296  0.07026104 -0.07287592
  0.13044104  0.08909937 -0.01015348 -0.08411063 -0.01514949  0.21512878
  0.21875507 -0.09285439 -0.16291874 -0.28066159  0.08033256  0.07429615
 -0.17081288  0.01994899 -0.0890101  -0.04378138 -0.03883147  0.14275892
  0.15595501 -0.13603516]
[ 0.09287581 -0.04478659  0.06458628  0.06407153 -0.19424055 -0.21789928
  0.17651533  0.11973481  0.01758931 -0.19077918 -0.00698752  0.1865944
  0.0024614   0.14326444 -0.06412253  0.11255403  0.22577784  0.02546942
 -0.09324764 -0.0873136   0.14499523  0.0303206   0.11310563  0.08879988
 -0.15926537  0.079061   -0.02296106 -0.05395396 -0.09776248  0.13599273
 -0.00255163  0.1713623   0.07724802 -0.2671383   0.0483644   0.23156109
 -0.09123454 -0.0125672   0.02528101 -0.04680064  0.03853745  0.09942484
 -0.03012404 -0.07519106  0.16808875 -0.1240854   0.04702201  0.08732548
 -0.00435765 -0.14750963 -0.2791096   0.02548781 -0.15931926  0.13959095
  0.26649635 -0.1028315  -0.09735563  0.12048265  0.03900873  0.21962548
 -0.06991422 -0.16668888 -0.01717817 -0.08230299 -0.18129911  0.00609568
 -0.20350458 -0.09694527 -0.13620358  0.1892329  -0.14404095  0.21752752
 -0.10725954  0.05020274  0.15534132  0.05340398 -0.12253529 -0.02972417
  0.00763583  0.00783318  0.18858131  0.11229262  0.1979086   0.24485459
  0.02304159 -0.20821549  0.0248665  -0.03370659  0.15388718 -0.09908203
 -0.25476444 -0.0999033  -0.04801853 -0.12952171  0.09114136  0.15439208
 -0.21509362  0.22307432 -0.02045983 -0.07720088 -0.0043279  -0.00865825
 -0.06038232  0.04060216 -0.13776836 -0.18257483  0.14696477 -0.00225713
  0.00881582  0.08441805 -0.16970797 -0.03507457 -0.09094398 -0.03228743
  0.07378995  0.02440148 -0.11022508  0.28353077  0.13168419  0.17025528
  0.04396083 -0.04114907 -0.04788619  0.11379095  0.01894768  0.00610166
  0.17911746 -0.09673131]
[-0.03972689 -0.04298745  0.11171344 -0.03464121 -0.11125951  0.08528457
  0.01390071 -0.08550007  0.20184982 -0.01714098 -0.16242935  0.16086349
  0.00596389 -0.03036033 -0.06766372 -0.00984115 -0.18270753 -0.12431912
 -0.1860487   0.08210727 -0.18676669 -0.18563728 -0.01460405 -0.02492029
  0.09829644 -0.14912976 -0.13528226 -0.2040096   0.00939416 -0.16528136
  0.2571084   0.01227959  0.19624142  0.1499416  -0.16737329 -0.18242785
 -0.00849214 -0.07256226 -0.06485776  0.03529827 -0.01131443 -0.04748507
 -0.22760016 -0.02807773  0.13879992  0.03193723  0.04965089 -0.09530071
 -0.01135138 -0.15470067 -0.07241139 -0.13459711 -0.08448471 -0.0411939
 -0.23400439  0.18643392 -0.18199278 -0.11463103  0.16234192  0.12639962
 -0.09107533 -0.22537998  0.14798206  0.15799781  0.0108428  -0.26663613
 -0.10235121  0.11659614  0.23580504  0.15685953 -0.17003729  0.24432115
  0.06629298  0.20673023  0.07262769 -0.168812    0.0139785  -0.14850454
 -0.12705307  0.14540778 -0.02563593  0.01670519  0.27738645 -0.18637792
 -0.16363435  0.18607832  0.15753921 -0.02379968 -0.03764131  0.19505286
 -0.05915369  0.00571383 -0.24780291 -0.09305527 -0.11718698  0.06869568
 -0.27274072 -0.03096757  0.05791271  0.14065062  0.14274644 -0.0694095
  0.02962669  0.09551094 -0.10542871 -0.08890633 -0.04488982 -0.11610406
  0.16232517  0.01338347  0.16372174 -0.06189267  0.17888089  0.05634338
 -0.07488906 -0.18710083 -0.0042352   0.0302023  -0.05680773 -0.05617365
  0.2174554  -0.17911436 -0.06395373 -0.06827097 -0.01861332 -0.01844689
  0.0614638  -0.14085501]
[ 0.07518657 -0.13501909  0.11013259 -0.12648184  0.10120165  0.04331946
  0.11200506  0.10078817  0.18597573 -0.09171879 -0.03575007  0.00728995
  0.09008344 -0.05742254  0.01749182  0.02718153 -0.24898831  0.06599111
  0.15326598 -0.12545484  0.00962458  0.22632138  0.05814063  0.04784152
  0.27768261  0.19192878  0.07253384  0.01452665  0.19049028 -0.10002241
 -0.17579471  0.20414186 -0.04984155 -0.03301893  0.0232787   0.1814104
 -0.0622885  -0.28260949 -0.16863966  0.0796508  -0.03674589  0.12461955
 -0.09630956  0.02867265  0.1855957   0.09912125  0.15512864 -0.06751996
 -0.13232103  0.03917385  0.15966431  0.12778611 -0.17893802 -0.01104006
 -0.06108928 -0.07568415 -0.0733361   0.045978   -0.12056429  0.04388691
  0.04780126  0.01376567  0.10083976 -0.05272827  0.00074837  0.00037959
 -0.12041891 -0.09800255  0.26117776  0.07228156  0.13252198  0.22492609
  0.05501596 -0.03215085 -0.08469992 -0.05907402  0.06577277 -0.04700884
  0.16151766  0.0661701  -0.25661352  0.17664268 -0.19482289  0.055888
 -0.16719322 -0.11582333 -0.26312548  0.08839963  0.0663853  -0.04738008
  0.19840338  0.04894896 -0.02100748  0.05229061 -0.227683   -0.01852835
 -0.16817933  0.13499824  0.00562653  0.02735857 -0.01062163  0.10229094
  0.12433477  0.05702764 -0.10880897  0.13710581 -0.05638275  0.17280538
 -0.11162494  0.05836396 -0.00122775  0.16121089  0.01751883  0.00626004
  0.10959473  0.04223087  0.06339875  0.03599092  0.08795746 -0.12088187
 -0.15739757 -0.01267945  0.16144085  0.15639504 -0.15211455  0.26461733
  0.18183212 -0.26448452]
[-0.10435754  0.00054636 -0.05518191  0.07467268  0.10078197  0.05142479
 -0.03969252 -0.04381902 -0.00117158 -0.1091926   0.11724153  0.04369887
 -0.18074263  0.24934403  0.16072578 -0.28393266  0.0752263   0.07877585
  0.18689924 -0.13704624 -0.18408704  0.07611977 -0.13888077 -0.10334516
 -0.01537194 -0.01237366 -0.04527113 -0.13172039  0.02447628  0.15660581
 -0.04467653 -0.09136923 -0.26779863  0.10036458  0.13312407 -0.0872996
  0.14060797  0.11833421 -0.21256974 -0.16976396  0.01459395 -0.16537937
 -0.0857834  -0.13876007 -0.08564002 -0.1661017   0.0615649   0.00128451
  0.03846423 -0.16046105 -0.25318859 -0.02236148 -0.27650976 -0.02476393
  0.14569604 -0.00137005  0.11581687 -0.03550183 -0.04914464  0.00725622
 -0.0082283  -0.09028208 -0.22667556  0.16577017  0.10074347 -0.09820366
  0.14011549 -0.07926707  0.07272246 -0.0985796  -0.23791849  0.09360206
  0.07163023  0.12597242  0.06185845 -0.10272007 -0.04202423  0.06754705
  0.02398439 -0.11429172  0.05299788  0.00349052 -0.03460062 -0.1150204
 -0.06147403  0.0374551   0.15380771 -0.02218215 -0.15308257 -0.11309458
 -0.07873547  0.0067426   0.12661568 -0.12426578 -0.12701346 -0.01152889
 -0.27271965 -0.07833882 -0.08044645 -0.06923042 -0.18433246 -0.16077086
  0.04400549  0.15493645 -0.14416567 -0.1391269   0.09283223  0.15404936
 -0.04516398 -0.1292366  -0.17102895 -0.15941502 -0.08721046 -0.00957468
  0.16508142 -0.02242624  0.03010759 -0.02708416  0.07285346 -0.08855278
  0.00056732  0.17649753 -0.08275068  0.17464736  0.18183444  0.01899844
 -0.22346138  0.07547348]
[-0.04443928  0.1468654   0.17944052 -0.02425071 -0.02730916  0.04272794
 -0.21409364 -0.0171357  -0.13023397 -0.14369814  0.12878176  0.07772074
  0.1917844  -0.03250877  0.19063831 -0.10017782  0.03834187 -0.1121725
 -0.13324173 -0.02931982  0.07675743  0.05412084 -0.03709568 -0.02227422
 -0.06671166 -0.10066787  0.20708726 -0.0020043  -0.01229792 -0.09563039
 -0.00576101 -0.05029337 -0.1882306  -0.15441241  0.02556877 -0.05325766
 -0.09583417 -0.18701216 -0.01918979 -0.18307826 -0.05439002 -0.05409866
  0.02533315 -0.08847545  0.14282793 -0.18888063 -0.03549108 -0.09816137
  0.1948172  -0.25679825 -0.05664487  0.08939202 -0.13047789  0.00537711
 -0.04899512  0.15693175 -0.05820257  0.02664786  0.06704457 -0.15094343
  0.04626661  0.10621756 -0.27842289  0.1462066  -0.09941156 -0.01256395
  0.00414672  0.00710151  0.10855069  0.27220115  0.18292817 -0.05032681
  0.09851677 -0.01718015  0.21353468  0.09899073 -0.07713354 -0.2280626
  0.05365985  0.23107402 -0.11677647  0.14647463  0.03084107 -0.05562715
  0.13735577  0.08490126  0.1383585  -0.17801051  0.1106277  -0.19584832
  0.00499087  0.06983969 -0.06266671 -0.04484426 -0.09067781  0.10389446
  0.14388022  0.17247603  0.09444495  0.06189161 -0.00062583  0.11729049
  0.02401808  0.07354666 -0.17528045 -0.02138404  0.16434129 -0.17323623
 -0.06544647 -0.20707776 -0.04886244  0.1538402   0.16050398 -0.17738757
 -0.01920727 -0.16245653 -0.16898     0.22820265 -0.03183022 -0.00170779
 -0.03685759 -0.03103641  0.14767072  0.22662071  0.06747985 -0.24755346
 -0.07416013  0.08507458]
[ 0.09506715 -0.07569484 -0.06851513 -0.06783293 -0.10779746  0.15536329
 -0.23958149 -0.09164551 -0.25293436 -0.22536831  0.00270975 -0.06599046
  0.14114098  0.14141616  0.2818251  -0.07043189 -0.16452562  0.06022811
 -0.04536829  0.13855124 -0.10572393 -0.12673833  0.05924259 -0.14665086
 -0.07629329 -0.25875247 -0.09437142  0.02682743  0.08562525 -0.06270102
 -0.12563212 -0.0159712   0.00309288  0.01927509  0.10118291 -0.05355858
 -0.12656207 -0.17413004  0.01169896 -0.04764735 -0.15203161 -0.24541163
 -0.06957457  0.13888857 -0.21782386 -0.00419246 -0.21397917  0.10214591
 -0.13715667  0.01416811 -0.19560294  0.06311977  0.11309342 -0.13613127
 -0.00688987  0.10570823 -0.24195182  0.02983931  0.04698888 -0.00207613
  0.06549724  0.15698196  0.11678658 -0.03074481  0.11731316 -0.12862875
  0.04950653  0.17910728 -0.25318364 -0.23701366 -0.20032133  0.02478281
 -0.12687314 -0.12380711  0.00710207  0.02170004  0.00196316 -0.16585898
  0.01373628 -0.12984575  0.18862262  0.05633713  0.05437652  0.22483049
  0.01197359  0.12274943  0.23784113 -0.11134791 -0.0299731   0.22590493
 -0.20598192  0.12733972  0.03687205  0.08255274  0.12122142  0.11310776
  0.09581421 -0.16255329 -0.27676655 -0.09909381 -0.06017797  0.17356569
 -0.01226316  0.1064595   0.04559303 -0.09037275  0.02008501 -0.22816711
 -0.08867503  0.13651364 -0.08100521  0.16533941  0.08018435 -0.24907997
 -0.2282532   0.004004   -0.0199544  -0.07114874  0.17103806  0.16259085
  0.09957693  0.18532316 -0.20239167 -0.05789028  0.16933015  0.03335538
 -0.10301351 -0.06545344]
[ 0.05418947  0.07420456 -0.10621534  0.24913889 -0.02712758 -0.26987607
  0.13264404  0.16404522 -0.1323522   0.06326164  0.08695557 -0.0587172
 -0.0512824   0.03918409  0.04679295 -0.20610398  0.21566046 -0.05512057
 -0.1831382  -0.06104598 -0.10254719  0.00129662  0.10472094  0.09032776
  0.11850858  0.10237429 -0.254934   -0.01667892  0.07863964  0.04335661
 -0.08761086  0.22307355  0.14065652  0.07179451  0.00506915 -0.02868629
 -0.03779197  0.25811785  0.10661695  0.04702712 -0.00152755 -0.07780907
  0.19673596  0.14879337  0.11280728  0.00508868  0.19359281 -0.088522
 -0.1623999  -0.1629774  -0.07994238 -0.19314008 -0.11046943  0.17566629
 -0.04271331  0.15650924  0.16279304 -0.19245516 -0.09759348 -0.22998376
  0.03939513  0.13722209 -0.11296666 -0.20749563  0.15564861  0.07026414
 -0.03259113 -0.10974338  0.01382451 -0.11935746 -0.06057737  0.10158239
  0.06179613  0.06844033 -0.24671392  0.11518704 -0.0746483   0.04012807
 -0.18155587 -0.10093844  0.20257977  0.05776331  0.27859022 -0.06822127
  0.05456706  0.0857566   0.04079675 -0.07283615 -0.15150358 -0.01695959
 -0.02328235 -0.15248521 -0.00538048  0.21522921 -0.16422289 -0.08659761
 -0.06807597 -0.06398661 -0.18041575 -0.05584747 -0.18236966  0.14275514
  0.1849     -0.02340525  0.00492569 -0.23302601  0.0312502  -0.21999145
 -0.12087684  0.0671202  -0.1359761   0.08005231 -0.00688355 -0.18867628
  0.10585     0.00318778  0.05136863 -0.04201399 -0.09966293  0.08300241
  0.04351135 -0.18866822  0.04679175 -0.01619934 -0.05443276  0.23244871
 -0.05728588 -0.03195586]
[-0.18156914 -0.13940773 -0.015437    0.0850951   0.00157241 -0.12400267
  0.14882791 -0.09900781 -0.01086872  0.03694453 -0.00317817 -0.07524168
 -0.02878094 -0.26964664 -0.05900227 -0.05963115 -0.06519228 -0.07394694
  0.04220996 -0.07386337  0.08550948 -0.16839608 -0.0025122   0.16755357
 -0.03311521 -0.09751252  0.05850859 -0.10157292  0.00905539 -0.01950026
  0.12540433 -0.05033306 -0.28190319 -0.03554164 -0.24539396  0.02606203
  0.01848777  0.27052363 -0.0071792   0.25939169  0.09470727 -0.12572497
  0.10039192 -0.17858705 -0.0286451  -0.11455812  0.012212    0.12442622
  0.10652391  0.0980449   0.06759844  0.04589133 -0.09295716 -0.08940001
  0.04681491 -0.24138587  0.01676213 -0.10370604 -0.00354813  0.14349087
 -0.23950531  0.09045083 -0.14858043  0.06229591  0.04396432  0.11043291
  0.05075497  0.15323338 -0.27512672 -0.125898    0.23598688  0.13684059
  0.02049268 -0.00948942 -0.12959121  0.13470116  0.14216701 -0.11780257
 -0.01602596  0.15287865 -0.0190346   0.02088886  0.0760713  -0.03595381
 -0.10673386 -0.16516144 -0.10698606  0.07615897 -0.22576097 -0.00731718
  0.07484731 -0.23165164 -0.20101772 -0.17339376  0.13272696  0.08587892
  0.2778495  -0.01409788 -0.22954441  0.23466202  0.19459741  0.00132456
 -0.11474713  0.09191732 -0.01708143  0.02429766 -0.03760746  0.13873277
 -0.04344991  0.01788745 -0.18729999  0.10983619 -0.02629148 -0.00718649
  0.26134881  0.13323641 -0.12295664  0.03044085  0.17626456 -0.07529663
 -0.14028533  0.20713988  0.18940367  0.06805125  0.05996588 -0.0877937
 -0.02846715  0.07310946]
[ 0.28253151  0.1872138  -0.22945643  0.21731484 -0.17458511  0.1753564
  0.20041709  0.13076865  0.23873014  0.1527996  -0.11503888  0.23706444
 -0.12509693  0.010549    0.24930563  0.14120975 -0.16101182  0.01027562
  0.05389853 -0.15278829  0.02325134  0.08100415 -0.03085874  0.10850594
 -0.23177172  0.07823289 -0.08642815 -0.0231514   0.03913982  0.04182248
  0.13164012 -0.05158312  0.25574047  0.08259251 -0.08390169 -0.12383728
 -0.10936557  0.09956141  0.01443942  0.06833232  0.20600867 -0.0415965
  0.04626852  0.06617383  0.18564511  0.03164483  0.08915166 -0.09907817
  0.11889514  0.0981577   0.1254485   0.04042464 -0.08909299 -0.06070017
 -0.10712023 -0.00384852  0.14497528 -0.17913615  0.0911933   0.1520136
 -0.04119864  0.06331945  0.18655144  0.03205643  0.11166371 -0.00331188
  0.00238451  0.07914609 -0.10123448  0.19060143 -0.14374033 -0.05457376
  0.14286546  0.13717887  0.13871614  0.1831108  -0.05804483 -0.08223099
 -0.04508114 -0.03109363  0.26133537 -0.04341159 -0.13797494  0.06114663
  0.17460602 -0.00226054  0.03643379 -0.09817247 -0.08341447  0.10141404
 -0.03085311 -0.02176448  0.05173032 -0.09409526  0.20522952  0.01834143
  0.01041864 -0.04558293  0.0183333   0.00189025 -0.23911112  0.12594909
  0.10281566 -0.05457249  0.17340524  0.05648562 -0.12291476 -0.06796471
  0.0317237   0.10585028  0.10505429 -0.21773834  0.04345078  0.11060741
 -0.06038798 -0.03822166 -0.14823519  0.00635509 -0.26888351 -0.25892867
 -0.13561013 -0.02501401  0.16380382 -0.11572543  0.12600862 -0.16316387
 -0.05721913  0.07904682]
[ 1.23327547e-01 -1.13329327e-01  1.56248281e-01  7.89355181e-02
 -5.22522983e-02  7.01589012e-02 -2.05601091e-01  1.83635742e-01
  8.88318614e-02 -1.03513937e-01  2.99255737e-02  1.19322008e-01
  1.93181049e-01 -3.52144668e-02  1.38964695e-01 -2.87875845e-02
 -1.04033903e-01  1.23350539e-01 -7.79259382e-02 -2.67809479e-02
  7.29882878e-03  5.19150613e-03 -1.68061213e-01  6.02106290e-02
  7.62631077e-02  1.12900923e-01  1.94943666e-01  8.43567079e-02
 -1.99827009e-01 -3.03086454e-03 -5.70630448e-02 -1.18324795e-01
 -1.04152446e-01  7.64020626e-02  7.98126827e-02 -6.20875474e-02
  1.78905936e-01 -5.54732157e-02  1.92505423e-01 -4.41998219e-02
  1.44531689e-01 -1.91205117e-02  8.32285865e-02  2.69386711e-02
  2.33291454e-01  2.37928307e-01 -1.22546408e-01  1.91598634e-01
 -1.93863634e-01 -1.79092764e-02 -9.16234050e-02 -6.64599413e-02
 -9.52580130e-02  2.39097252e-01  3.78489390e-02 -1.18589156e-01
  1.48994717e-01 -1.20026931e-01  7.34663086e-02  4.61502299e-04
  2.75503700e-01 -1.90836131e-01 -1.84122027e-01 -3.42393797e-02
 -2.18215476e-01 -1.15225500e-01 -2.55025957e-01  2.80546563e-01
 -4.50124761e-03 -8.81890611e-02 -9.24824271e-02 -3.06804493e-02
 -1.10780862e-01 -1.88539146e-01  1.67194863e-01  6.40694513e-02
  1.60192644e-01  2.89010571e-02 -2.25055955e-04  1.34653039e-01
 -1.72676119e-01  3.19042032e-02  1.02770660e-01 -2.53965244e-01
  3.24046610e-03 -6.56624924e-02 -6.42689039e-02 -5.02149864e-02
  3.44464521e-02 -1.56711985e-01  5.17195074e-02  7.44722474e-03
 -2.55480298e-01 -1.40511258e-02  6.22050785e-02  2.22588456e-01
  1.25584845e-01  6.57319661e-02 -1.63518225e-01 -1.48692554e-02
  1.78375763e-01  8.16329799e-02 -7.01869182e-02 -1.15179111e-02
 -8.68233135e-02  6.17431305e-02  2.14667824e-01 -7.28512206e-02
 -8.84321643e-02 -2.71580145e-02  5.83179413e-04 -1.19883609e-01
 -2.56484538e-01 -1.72691652e-01  1.45898021e-01  2.07951549e-01
  5.27268447e-02 -6.30234132e-02  8.95450512e-02  2.47104259e-02
  1.91145357e-01 -1.34996190e-01  5.04043899e-02 -1.24602130e-02
 -3.52771660e-02  8.21472857e-02  1.68357849e-02  5.55666812e-02]
[ 0.00358812  0.00277287  0.24585641  0.00405523 -0.09441215 -0.05453257
  0.16065697  0.04021964 -0.17161582  0.13746935  0.23077782 -0.01814398
 -0.01296045 -0.14474828  0.0277954  -0.1235055  -0.11188998  0.11966854
 -0.04741803  0.06323276  0.06221572  0.07617671 -0.24189555  0.08816101
 -0.05202132  0.04618653 -0.05536658 -0.03880766  0.14102243 -0.27518394
  0.24858835  0.18595383  0.28217133 -0.07519385 -0.05408935 -0.07792425
 -0.0489642   0.11382111 -0.03162021  0.01760207 -0.10194579  0.15461637
 -0.00998096  0.08573031  0.16280002  0.05585975  0.05849433  0.11244999
 -0.11629189  0.16542526  0.08334904 -0.14352278 -0.11028056  0.10093908
 -0.10032746 -0.05539141  0.05198934 -0.26937945  0.06081164 -0.13794457
 -0.0397029  -0.15587516 -0.11856434  0.09359587  0.07566131 -0.07950264
 -0.00821487 -0.00678572  0.04485279 -0.0331904   0.07294581 -0.04085474
 -0.23472581  0.08499606 -0.01602835 -0.1213454  -0.15910018  0.04351997
  0.25203947 -0.13585718  0.01556376  0.26482669  0.06464135  0.00635189
  0.07063987  0.24928025 -0.23451542  0.17238309  0.07817187 -0.00746712
 -0.05530498  0.03623006 -0.04508562 -0.1657584   0.1331115   0.0706319
  0.0419855  -0.20076891  0.13685785  0.05232959  0.0236176   0.01513239
  0.09635788 -0.02173706 -0.19203907 -0.14815682 -0.12530931 -0.00921826
 -0.03377507 -0.20135048 -0.01951653 -0.14262222  0.010919    0.10328035
  0.0081147   0.1040399   0.10024897 -0.01441951 -0.05131645 -0.24462906
  0.01269417 -0.1171301  -0.02427581 -0.05537362 -0.06613523  0.1391173
  0.01401054  0.04914127]
[ 1.30391415e-01 -1.71515551e-01 -1.13297141e-01 -1.66808485e-01
 -2.02719541e-02  3.86327913e-02 -6.53729086e-03  4.49300479e-02
 -1.65432334e-02  1.29091563e-02 -1.82363602e-02 -9.79486829e-02
 -1.73010171e-01 -1.32528354e-01 -9.40277921e-02  3.11568470e-02
  8.88078198e-02 -1.16736518e-02  9.27481103e-02 -1.85164681e-01
  5.32357896e-05 -1.62621017e-01  1.52364103e-01  8.32013452e-02
  1.02160568e-04  1.53194581e-01 -2.01737443e-01 -3.06735681e-02
 -9.35120688e-02  1.38255398e-01 -7.83090008e-03 -8.20456947e-02
  1.37801285e-01 -1.24052303e-01 -9.66877429e-02  9.46765598e-02
 -4.34785452e-02  1.36160783e-01 -1.52307385e-01 -1.37610562e-01
  2.77931684e-01  1.00113832e-01  3.43417231e-02 -5.27381948e-02
 -9.17673101e-02  2.73962052e-01  4.74266417e-03  2.79253654e-02
 -8.57570329e-02 -2.63679683e-02  1.08932537e-01 -1.77890139e-01
  6.64178270e-02  7.08308355e-02  1.17974378e-01 -2.27633684e-02
 -7.79519512e-02 -7.58520893e-03 -2.27851086e-01 -2.47475234e-01
  1.49020727e-01 -3.73001744e-02 -2.16054510e-01  1.06840277e-01
 -1.45129733e-01 -1.47558582e-01 -8.97345844e-02 -5.62432167e-03
  7.21317710e-03 -2.15418154e-01 -1.73740371e-02 -3.55519079e-02
 -2.01817968e-01 -6.07212121e-02 -3.20363737e-02  3.54607982e-02
 -1.90279355e-01 -1.24099870e-02  2.40533207e-01 -2.23480405e-01
 -1.31808561e-01  6.07364959e-02 -2.61946906e-01  6.80707125e-02
 -2.21190906e-01  1.16986416e-01 -1.09878352e-01 -9.32695191e-02
  1.11785557e-01 -2.77925227e-02  1.39190154e-01 -2.11400715e-01
  2.33434193e-01 -9.17645127e-02 -8.67235079e-02 -6.38971485e-02
  8.58784321e-02  1.41778719e-01  1.17066961e-01 -5.69696441e-02
  7.85396066e-02 -8.03435517e-02 -4.16620957e-02  2.08458690e-01
  1.03986956e-01  1.74816245e-01 -2.21865541e-01  1.92387531e-01
  5.79498738e-02  4.07559395e-02  5.69523795e-02 -2.36519913e-01
 -2.17122717e-01 -1.65442843e-01  1.74170376e-01 -1.34519165e-02
 -1.36614414e-02 -1.97969298e-01 -1.20103944e-01  2.09118438e-01
  7.58775052e-02  1.42769742e-01  1.29120070e-01 -8.41945475e-02
 -1.27671002e-01 -6.09998109e-02  6.13865800e-02 -4.77675403e-02]
[-0.2120042   0.08035542 -0.18537802 -0.01435856  0.02647859 -0.031959
  0.08890088 -0.10547459 -0.07048101  0.05064465  0.10968014 -0.05917116
  0.00565093  0.05148776  0.06448589 -0.11225627  0.06503535 -0.00692814
 -0.15128125 -0.02020343  0.04446982  0.08405115  0.08137464  0.05424487
 -0.10085467 -0.07616361  0.046196    0.09405245  0.10064423 -0.01583344
  0.13461303 -0.10789674 -0.09575472  0.24213422  0.13902211  0.04235448
  0.16049337  0.08620794  0.08675208  0.13218617  0.063877    0.0653467
  0.14947754  0.03613237 -0.26152277 -0.26401483  0.06764317 -0.22819063
  0.02527994  0.07082477 -0.01820911 -0.1107815  -0.22527257  0.03958678
 -0.16907849 -0.05718617  0.21786007  0.17829805 -0.05860546 -0.0141315
  0.01690493  0.13193593 -0.1157964   0.15461128 -0.2658071   0.01193785
 -0.02941673  0.111983   -0.07235389  0.03177617 -0.10666259 -0.18006752
 -0.14241192 -0.19360903 -0.06156213 -0.17399078 -0.17020218  0.03132604
 -0.09498462 -0.1891056   0.07801574  0.04800262  0.07395623 -0.10967189
 -0.14305686  0.07813346 -0.00680206  0.12240726 -0.10445143 -0.00898586
 -0.04756652 -0.23754923 -0.11069116 -0.03275943  0.03602666 -0.20034654
 -0.00270803 -0.00216511 -0.07354023  0.12253736 -0.16261584  0.01420149
  0.04097354 -0.0305846  -0.00753141  0.19285023  0.16457568  0.04024915
  0.16539391  0.14702094  0.09223774  0.13244457 -0.01181532  0.03880212
  0.06891312 -0.01109683  0.0161121   0.05573359 -0.04822339  0.02865184
  0.08651263 -0.01135732  0.1230686   0.20264163 -0.00052957  0.03249444
 -0.20383298  0.03922589]
[-0.26518539  0.10577765 -0.11539692 -0.1596877   0.10147931 -0.18149284
 -0.01151441  0.05409323  0.02687585 -0.23421651 -0.13108318 -0.17710255
 -0.03267481  0.00996477  0.08421541  0.0968199  -0.16252254  0.14677316
 -0.07440047 -0.04162545  0.05749123 -0.15618415  0.02019456 -0.04831355
  0.0960079  -0.24027344  0.21710722  0.12174912 -0.03423786 -0.25154589
  0.11421422 -0.06388403  0.14501538 -0.01068886  0.17698655  0.19595363
  0.24357478  0.01365394  0.15316329  0.26256152  0.01170669  0.11654797
 -0.00839678  0.11233537  0.19430774 -0.10697034 -0.04780836 -0.09751007
 -0.19502453  0.09756968  0.04212985 -0.04600893 -0.02046332  0.08492019
  0.17785502 -0.26347329  0.21128539  0.09164301  0.17513261 -0.03314181
 -0.06108795  0.12923267 -0.06825724  0.16340555 -0.08455659 -0.17939968
 -0.03615291 -0.03695251  0.16866596 -0.09650879  0.18957307  0.03106497
 -0.23196972  0.05967572 -0.00357051 -0.12540423  0.18276211 -0.13225316
  0.08749577  0.04522677 -0.22371746 -0.12264255 -0.14645989 -0.04466654
  0.06133887 -0.22015236  0.03836998 -0.01917871 -0.07745087 -0.09183063
 -0.06177826 -0.12696047 -0.087432   -0.22066885 -0.28181221  0.02971296
 -0.09482907  0.05834268 -0.13845944 -0.02758615 -0.06978889 -0.10820232
  0.04348026  0.18579272  0.05689787  0.0824395  -0.08578434 -0.08676468
  0.07764198  0.03055292 -0.12678493  0.04108323 -0.04165691  0.06649992
  0.11285457  0.06507415 -0.22332116 -0.04473638  0.15442248  0.10905581
 -0.05449506 -0.07581795 -0.14383909  0.07732997  0.1592774   0.13818536
  0.06845562  0.06825718]
[-0.03968294  0.03324468 -0.02215879 -0.02020111  0.04394251 -0.03356616
 -0.11049789  0.052954   -0.04496199 -0.01973883  0.0114262   0.26236141
 -0.07761977 -0.0829004   0.11209783  0.04494862  0.12081122 -0.20086376
 -0.07654142  0.16710757 -0.13223451 -0.25949754 -0.12502108  0.14300727
  0.14925397 -0.08988259  0.00632885  0.02807751 -0.15784536  0.0978566
  0.11466147 -0.11288443  0.04076448  0.15667705 -0.04301219  0.11839156
  0.04920584  0.14812826 -0.00033159  0.05544532 -0.16989261  0.02759648
 -0.16214474  0.24960385 -0.16690713  0.12476393 -0.26588747 -0.1910005
 -0.27104834  0.06584737 -0.0401134   0.18832438 -0.04412109  0.13919129
  0.04989728  0.17499119 -0.0043559   0.20584424 -0.07193598  0.0102725
  0.05610492 -0.05434181 -0.03600786 -0.02042228  0.09436859  0.0561785
  0.22355516  0.00505739  0.16468745  0.01527808 -0.01732205 -0.0397491
  0.12704513  0.00870935 -0.1926007  -0.10933672 -0.24893064 -0.02242609
  0.0055239  -0.10686487  0.02328572  0.04612552  0.05026705 -0.26575376
  0.19053982  0.08276396 -0.16821534 -0.18085521  0.04260114 -0.12535453
 -0.14560487 -0.07571706 -0.25857445  0.05837295  0.28238583 -0.0916131
  0.13275941 -0.04432609  0.17817499  0.18014637 -0.00415347 -0.23900363
  0.0522519   0.05111863  0.11572863 -0.02980851 -0.01309339  0.18743049
 -0.0809313  -0.04364337 -0.23414567  0.00579147 -0.03178672 -0.09004534
  0.07314109  0.1375551   0.18684888  0.18494456 -0.00735725  0.1786128
  0.10736288  0.26212433  0.10223802 -0.01586644 -0.01565238 -0.02080168
  0.25294104  0.27625384]
[ 0.13301724  0.14058264 -0.06888339 -0.04937094 -0.04561306  0.04171777
 -0.10774659 -0.02907676  0.07232062  0.14539222  0.0656018  -0.12241366
 -0.1670474   0.03513107  0.02800356  0.00278647 -0.20178195 -0.10668766
  0.2307919   0.17256444 -0.09000727 -0.16074837  0.06592448  0.21120403
  0.07025669 -0.13363187  0.19505599 -0.04237385 -0.15998382 -0.11775818
  0.00635759 -0.12276967  0.04011522 -0.1475736   0.10654373  0.03722775
  0.18787043 -0.1750443   0.16513959  0.18473229  0.26573341 -0.01895344
 -0.04132068 -0.06335619  0.08132199  0.06535561 -0.13131922 -0.10521326
 -0.03731965 -0.04657198  0.08019635  0.04895733 -0.17100619  0.14949188
 -0.14140871 -0.14486727 -0.08645183  0.1639525   0.04168084 -0.12576898
  0.12448116 -0.07603806 -0.2166201  -0.15975803  0.01427802  0.06462917
  0.11859622 -0.13042763  0.0332803   0.13621899  0.09608786  0.00269979
 -0.08227403 -0.15254622  0.03013535  0.1380593   0.15635276  0.09771393
  0.11998608 -0.01937211  0.1886106  -0.09881368 -0.08101946 -0.12360411
  0.18572064  0.04189997  0.27922994 -0.11473865 -0.0492467   0.01487548
  0.03258214  0.07902969 -0.08424222  0.04442561  0.03274368 -0.10711361
 -0.04509556 -0.13549969  0.07207078  0.10274537 -0.09988636  0.0788515
  0.02468604  0.04337145  0.14117681  0.15386273 -0.21274543 -0.02348372
  0.09348168 -0.23154019 -0.11248822  0.00811427 -0.12675625  0.08134044
  0.08626973 -0.07939199  0.14510893  0.04383357  0.08874574 -0.18428744
  0.0158657  -0.07540635  0.22614393 -0.0485864  -0.02738632 -0.24912766
 -0.17235392  0.10488455]
[ 0.08579174  0.00234191  0.13555393  0.1084933  -0.05610527  0.0146224
  0.06948341 -0.24119758 -0.0635052   0.15074184  0.02720426 -0.16687465
  0.04416948  0.064144    0.08211767 -0.16168463 -0.09543021 -0.26755817
  0.10765851 -0.22911253  0.08069792  0.15304376 -0.02892748  0.06169803
 -0.167104   -0.01145731  0.17117544 -0.07171469 -0.20463384 -0.17341639
 -0.05209596  0.1142087  -0.14236227  0.27040326 -0.06553469 -0.18448231
 -0.21256781  0.01089191 -0.01512306 -0.14747916  0.2738326  -0.22724241
 -0.20246063  0.00746748 -0.12577045 -0.15666734  0.02111301 -0.04300115
  0.15538524 -0.04473044 -0.00213615  0.11324921  0.0384073   0.14432981
  0.03010653  0.00867796  0.05881605  0.17126893 -0.13945183 -0.06483461
  0.06793889  0.1311568   0.08541492  0.04804741 -0.12965856 -0.11312203
  0.12656525  0.14799398 -0.12522735  0.00406309 -0.02654889 -0.00211921
  0.1252668   0.14009465 -0.04380152  0.02620569  0.14821597  0.27422791
 -0.09140276  0.0422779   0.11433429  0.04412684 -0.03544089  0.09868185
 -0.01290851 -0.1843566   0.05947654  0.13182498 -0.01570812  0.14440446
  0.06737313  0.07804412 -0.04770981  0.00364205 -0.06232821  0.12261897
  0.04411054 -0.06958132  0.07889458  0.10325426 -0.06312679 -0.03367896
  0.18903798  0.04804577 -0.08923017  0.00805345 -0.11770071 -0.0517205
  0.13393193 -0.0354488  -0.00465522  0.00309405 -0.13579404  0.13154975
  0.10710587 -0.00564112 -0.05336087  0.14367038 -0.13865496 -0.00081772
 -0.09545558 -0.0326723   0.07138716  0.14033343 -0.08201272 -0.09164341
  0.03873842 -0.01086798]
[ 0.10019035  0.13121926  0.01102356 -0.10013032 -0.08478283 -0.07810361
  0.05560791  0.21986121  0.12463656  0.06217124 -0.0658202   0.12343938
  0.16600756  0.14847761 -0.01114177 -0.03005923  0.0667499  -0.09621857
 -0.22749649 -0.05397294  0.08468767 -0.07853729 -0.04020605  0.08173807
  0.03084797  0.25455135 -0.07951137  0.04193068 -0.2836823   0.05890152
 -0.12795533 -0.19508544  0.02595356  0.19323593  0.13941558  0.04667916
  0.2505789   0.11730581  0.11372907 -0.02337073 -0.11645507 -0.13301461
  0.10721833  0.07988113  0.09966649  0.11285235  0.09658714  0.03896506
 -0.14064288 -0.02968376  0.24938771 -0.1616521  -0.04742013 -0.14529101
 -0.09824575  0.01925865  0.04528993 -0.11430256 -0.02445831 -0.0960433
  0.00920945  0.1219982   0.20315529  0.15833006  0.11579495 -0.20076575
  0.03220849 -0.07999514 -0.22435987  0.02521623 -0.01273193  0.21049733
  0.08207132 -0.21824266  0.02413816 -0.05204379  0.02605655 -0.03278195
  0.02574889 -0.19199343 -0.2526133  -0.10179861 -0.13490271  0.16498169
 -0.02575286  0.12156208 -0.06045678 -0.00466434  0.24462939 -0.15967142
  0.00378505 -0.00935795  0.14720755 -0.10344338  0.02544358  0.10801845
  0.0947002  -0.0340285  -0.02783884 -0.10708039 -0.10028034  0.0253899
 -0.05166398  0.06971952 -0.08806382  0.15440236 -0.16720747 -0.0572443
 -0.06827885  0.12218968 -0.07074646  0.00272529  0.22727314 -0.12070376
  0.08269623 -0.06192005 -0.17058989  0.12249391 -0.07479439  0.02207973
  0.130575    0.00226371 -0.05064157  0.26586847  0.0620101   0.02375223
  0.08025083 -0.14222072]
[ 4.68384044e-02  4.70088181e-02 -1.61080501e-01  2.29244903e-01
 -1.61492604e-01 -8.53344172e-02  6.67684840e-02  1.03686499e-01
  4.27611252e-02 -2.85632004e-02  5.00613793e-02  1.07456993e-02
  1.91410432e-01 -2.08487167e-01  3.49890716e-02  1.11788596e-01
  3.33853403e-02 -1.89036270e-01  6.53054179e-02 -1.55430554e-01
  4.02901760e-02 -2.35508798e-02 -2.77003246e-01 -3.11099574e-02
  1.55969439e-01  4.57403317e-02  1.13824167e-01  1.39557897e-01
  3.15589557e-02 -1.75818752e-04  1.68695804e-01 -3.05155180e-02
  1.20132283e-01  4.49952880e-02  9.67203555e-02 -1.00431084e-01
 -9.92402281e-02  9.08504265e-02 -1.64928198e-01 -5.50555531e-02
  2.66246816e-02 -1.27457270e-01  1.08858470e-01  4.61751464e-02
  3.97455184e-02  7.40321702e-02  2.08391498e-01 -3.64790502e-02
 -2.29907693e-02 -3.11060866e-02  3.17769095e-02 -1.74025657e-01
 -2.78120985e-01  5.95725042e-02 -2.23650763e-02  2.08113726e-01
 -1.76555045e-01 -5.80836612e-02  2.29804247e-04 -2.06572756e-01
  4.25497748e-02  2.05597320e-01  1.24987381e-01 -7.14396330e-02
  1.65521990e-01 -1.64595522e-01  2.04207119e-01  8.05493801e-02
 -7.64354050e-02 -3.16581498e-02  1.06990988e-02 -2.00586986e-01
  1.20911425e-01  7.04062434e-02  2.06408364e-01 -7.67487886e-02
 -7.02418006e-02  1.01386295e-01 -2.48681934e-02 -3.43292157e-02
  4.38367470e-02 -1.26508493e-01  8.39558924e-02 -1.30500665e-01
 -3.62940308e-02  1.21279226e-01  2.25114284e-02  1.28136922e-01
 -1.34008885e-01 -1.96905031e-01  1.74723384e-01 -2.26688429e-01
  2.02971474e-01 -1.00088318e-02 -2.59926135e-02  1.49192261e-02
  6.36560209e-02 -3.76292802e-02 -1.77896002e-01 -9.62245124e-03
  2.77914589e-01 -1.83390753e-01  8.61582510e-02 -1.50636592e-01
  9.33378964e-02  1.01518867e-02 -1.15599046e-01  9.38618354e-02
  3.92769540e-02  2.40615200e-01 -6.47563069e-02 -2.36435505e-02
  7.45962942e-02  1.57201295e-03  1.93044624e-02  2.43638025e-01
 -1.38502014e-01 -1.23425213e-03 -7.27405237e-02  1.97421369e-01
 -1.22112728e-01  1.32723212e-01 -1.54738190e-01 -1.01725784e-02
 -2.38780072e-02  4.90201571e-02  3.33961349e-02  2.10433771e-01]
[ 0.0799328  -0.05678446 -0.06986337 -0.04056907 -0.10225452  0.19876606
 -0.16532446 -0.02541856  0.26811102 -0.07538854  0.0083498   0.00212917
 -0.19537927  0.08370871  0.13356415  0.14635259  0.00966035 -0.15571103
  0.23252937 -0.18567861 -0.12698738 -0.15047762  0.2170182   0.15170141
  0.10761731 -0.05563806  0.02255603 -0.08436972 -0.09257382 -0.03733435
  0.14870409  0.11283492 -0.21927909  0.18868176  0.00537035 -0.00954869
  0.21583801  0.20085056  0.03134731 -0.05551665 -0.23816459  0.20219413
  0.18979118 -0.04394382  0.14590546 -0.13214712  0.00561998 -0.28305189
 -0.14795568 -0.14566877  0.06209106 -0.08070193  0.08031772 -0.00590583
  0.21046357 -0.01384054 -0.04059967  0.15288871 -0.11975771  0.14094185
 -0.15040566  0.14484332 -0.15559549  0.13970461  0.21400656 -0.15270198
 -0.00533476  0.27139009 -0.07126887 -0.19010989 -0.10813022  0.08234928
 -0.13139461  0.02334079  0.26723548  0.05620508 -0.18610769  0.12089041
 -0.13775331  0.15000384  0.13684565 -0.00300364  0.05954384 -0.14970397
  0.13097847  0.09365574  0.15298251 -0.11096942 -0.11914651 -0.10194701
  0.1126733   0.14467845 -0.01106549 -0.09928779 -0.02868407 -0.23577663
  0.02216781  0.09449645  0.01642669 -0.25967591  0.22815683 -0.00082404
  0.06993323  0.14229348 -0.01254077 -0.18867442 -0.1468197  -0.16173406
  0.18273161  0.10832714 -0.00275635 -0.23495692 -0.06268731  0.02901332
  0.03213242  0.2010798   0.06748601  0.03833057 -0.15822805  0.07917677
 -0.07618958  0.12306894 -0.0278365   0.19512636 -0.10118657 -0.01081892
  0.27651495 -0.06853846]
[ 0.06729614  0.02580334 -0.021115   -0.04980362 -0.09835386 -0.10283265
  0.03323376 -0.10981099 -0.10550233  0.11772893 -0.06678274  0.01940523
 -0.02379435  0.12032747  0.11499696 -0.10660945  0.28294622 -0.05106891
  0.11835244 -0.11817378  0.12430564 -0.08617966  0.08679638  0.11541397
  0.13161646 -0.12837399 -0.11952153  0.00347872 -0.16325551 -0.00544622
  0.05480086  0.07299478  0.13708178 -0.10828794 -0.11236521  0.07253153
  0.12458122  0.01343306 -0.11526675 -0.1008565  -0.13752209  0.0266139
 -0.15625938 -0.05847219  0.04127772  0.12659643 -0.09917509 -0.13662101
 -0.13878363 -0.09599448 -0.00318546 -0.04977653  0.11103867  0.07459213
  0.14015171  0.15497295 -0.0801857   0.02832643  0.17486975  0.06071394
 -0.0913162   0.0177755   0.0840832   0.05694867  0.13352895 -0.12401614
 -0.04947759  0.26563661 -0.07653622  0.01091291  0.1804385   0.10898875
 -0.11993033 -0.11016544  0.1037216   0.21474298  0.04002332 -0.02868229
 -0.0696514   0.13545851 -0.10642128 -0.20535465  0.03266073  0.00661032
 -0.16733094  0.17177924 -0.14901334 -0.11769607  0.02062892 -0.1425051
 -0.17038049 -0.10072352 -0.06146834  0.08215     0.03649834  0.24519489
 -0.1833244  -0.1425156  -0.05445343  0.11048623  0.01237573  0.16608618
 -0.03675557 -0.02931601 -0.07104152  0.1855768   0.04677703 -0.02876508
  0.1109311  -0.040319    0.05278462 -0.04671809 -0.08009435  0.25381944
 -0.26618455 -0.25055501 -0.05093068 -0.15802247  0.14495052 -0.05005554
  0.10008543 -0.02379697  0.00628487  0.01104551 -0.24592152  0.04188689
  0.19710582  0.07541793]
[ 0.25234124  0.00206427  0.0448192  -0.11870757  0.0405465   0.16576378
  0.07355614  0.05053282 -0.05919624  0.10454041 -0.08258819 -0.22363725
  0.13738669 -0.25290038 -0.18497762 -0.16698257 -0.1310731   0.07403684
  0.01050897  0.07082531 -0.01841676  0.20941075 -0.09637363 -0.2416467
 -0.06632891  0.13758893  0.11717228 -0.07187487  0.02341783 -0.09014102
 -0.09712916 -0.1773096  -0.10302815 -0.22444544  0.04903029 -0.02308097
  0.05927239  0.02510242  0.1428968  -0.11286901  0.02133237  0.05886088
  0.04054264 -0.03721766  0.03438364 -0.09801239 -0.20609771  0.18482377
 -0.13198424  0.03760137 -0.17519959  0.15832291  0.07259005  0.26030809
 -0.03436723 -0.03257418  0.02135012  0.25991205  0.12490999 -0.06796826
 -0.10582758  0.00081637  0.06719765  0.13519817  0.21017866  0.09318699
  0.0116279  -0.07149168 -0.03251421 -0.01427383  0.11594771  0.04340434
  0.17931865 -0.13186291  0.15989971 -0.04319436  0.13040972  0.13445009
  0.06231484  0.0839339   0.26682723  0.12692202 -0.19101098 -0.02902169
 -0.04670315 -0.03537196 -0.22890924  0.02163809 -0.07535924 -0.25101292
  0.09425749 -0.07907495  0.02448256  0.05231387  0.17337965 -0.19061217
 -0.09289119  0.08727224 -0.09424887  0.20024599  0.23775472 -0.05377378
 -0.19758185  0.05302511 -0.06178842  0.00760603 -0.18943981  0.18466951
  0.02609067 -0.18794247 -0.16714967  0.02193301 -0.04989017 -0.09203499
 -0.13216917  0.04002378  0.20730375 -0.07705993  0.17386012 -0.06909475
  0.27098694  0.047588    0.14671452  0.13012216  0.091771   -0.15338889
 -0.11889881 -0.13664868]
[-0.14737297  0.14784441  0.06789793 -0.03850194  0.08968179  0.08032521
  0.15230981  0.01819711 -0.17436585 -0.08130993 -0.07478866  0.06820351
 -0.05471461 -0.01318313 -0.05284014  0.22987073  0.01615588  0.07953097
  0.04568352  0.13140579  0.13049557 -0.01608826  0.09114754  0.05678504
  0.00736645 -0.0243821  -0.0038883  -0.15634624  0.02790597  0.18611495
  0.25090258  0.14648909 -0.09945075  0.09486252  0.14192791  0.20437058
 -0.03874479  0.0490096   0.20798501 -0.1534922  -0.13748554  0.07592745
  0.03450937 -0.2516275   0.01899561  0.18054404  0.00454189 -0.09831117
  0.18491994  0.01282461  0.08078354  0.12739279  0.0103176  -0.02178383
  0.20416308  0.02829527  0.0113298   0.11012342  0.12936509 -0.16376414
 -0.00215792  0.10918145  0.152782    0.12006378 -0.2159843   0.21605197
 -0.06140027 -0.14772315 -0.00277122  0.00792655 -0.11329064  0.0755516
 -0.06285251  0.11661803  0.10740422  0.27245593 -0.21929472  0.03523472
 -0.06967218  0.20640469  0.24560024 -0.14677538  0.24357558  0.12661972
 -0.04140354  0.04581622 -0.1327102  -0.09818925 -0.01331564  0.01603509
  0.28146858  0.24752867 -0.0297666  -0.15212243 -0.07090594  0.15393506
 -0.01281187  0.12402449 -0.0587363   0.11069011  0.06188327  0.01075664
  0.08710915  0.17036043 -0.08768482 -0.09901813  0.02450968  0.03642567
 -0.11790542 -0.07899331  0.16418828 -0.15386036  0.04200022 -0.11086886
  0.16676906  0.22217298  0.21726363 -0.05460729  0.1477349   0.13555816
  0.07402151 -0.03496582  0.16861224 -0.02939417 -0.21900909  0.1362408
 -0.04531267 -0.18987766]
[-2.04848691e-01 -3.81585235e-02 -8.77904864e-02  4.89421010e-02
 -1.58289506e-01 -1.48549866e-01 -2.56937725e-01 -9.03284048e-02
 -2.04793271e-02 -1.37850784e-02  2.49084924e-02  9.68086522e-02
 -1.20248477e-01  4.34853212e-02 -7.04134278e-02  1.69458853e-01
  6.47670752e-02 -3.25605746e-02  1.17305930e-01  2.61859347e-01
  1.48540686e-01 -9.48859153e-02  6.91578995e-02  1.85389574e-01
 -1.35221800e-01 -3.95130539e-02 -1.00335064e-01 -2.26469571e-01
 -5.80435915e-02 -2.15804751e-01 -2.32274203e-02 -1.03806688e-02
  2.10370404e-04 -1.87584229e-01 -5.94010530e-02 -1.45045903e-01
 -3.62094384e-02  2.29467960e-01  1.01018389e-01  6.99092282e-02
 -3.45907508e-02  1.88831179e-01  1.72682604e-01 -3.47568771e-02
  7.22376484e-02  5.16198167e-02  2.32778225e-01  1.14346653e-02
  1.43812165e-01 -1.05900751e-01 -8.76548179e-02 -1.52022257e-02
 -1.46714931e-01 -1.95847189e-02  2.43431499e-01 -1.11779737e-01
  4.86268990e-02 -1.85696342e-02 -1.40648950e-02  2.46963336e-01
 -6.40732497e-02 -1.00431071e-01  8.85616108e-02 -8.97981122e-02
 -1.28479823e-01  1.40635941e-01 -6.06273526e-02  6.95571384e-02
  4.11706923e-02 -8.25325342e-02  5.50665382e-02 -1.63931552e-01
 -1.07922427e-01 -2.67813839e-02  1.37444201e-01  1.84886411e-01
 -9.89485444e-02  8.50476685e-02  4.05840341e-02  2.17922977e-01
  8.38009521e-02 -1.18451646e-01  2.91427458e-02 -2.19853159e-01
 -1.24493888e-01  1.62355222e-01  1.38778932e-01  5.20382503e-02
  9.11370519e-02  4.69720939e-02 -1.96125453e-01 -8.46849863e-02
 -8.73241325e-02  4.71064177e-02 -2.82507052e-02  6.36064552e-02
  7.54741568e-02  2.32802557e-01 -1.99408401e-01  1.87097730e-01
 -2.06002781e-01 -1.62987675e-01 -1.30008907e-01 -5.84673005e-02
  1.51447190e-01  2.53415875e-02  5.87456102e-02  2.08563971e-01
 -2.39901332e-02  1.62955087e-01  7.22773187e-02  4.61864424e-02
  2.21871576e-01 -8.49001973e-02  1.16037031e-01  4.54354046e-02
  2.29369451e-02 -2.78532536e-02 -1.45089569e-01 -1.14441505e-01
 -1.13327489e-01 -2.80878851e-01 -1.27899616e-02 -1.76539728e-01
 -1.65368988e-01  2.55745468e-02 -7.22873451e-02  1.13938606e-01]
[ 0.04850661  0.08092269  0.15788139  0.02339518 -0.11551384 -0.14761517
  0.06779377 -0.0885958  -0.11757996  0.22207146  0.00439186 -0.11068006
 -0.22364771 -0.27177628  0.12955074 -0.01385477  0.05628443 -0.18516586
 -0.03145474  0.04488733  0.16571466  0.03094188 -0.1621402   0.1611342
  0.11753398 -0.14848633 -0.09268829 -0.08489202 -0.10176588 -0.0928922
  0.10082367 -0.0363182  -0.08868425  0.0763321  -0.22484234  0.19969561
  0.00349163  0.01134975 -0.12418137  0.1757145  -0.00946798 -0.02553842
  0.0638328  -0.07431198  0.03783343 -0.02115901 -0.00598222 -0.0652884
 -0.28051822 -0.19947116  0.09176604  0.14311305  0.13611561 -0.03091483
  0.23546476 -0.16216492 -0.09433812  0.12858489  0.06837015 -0.01640489
  0.00618126 -0.17842574  0.12094279 -0.21568636 -0.23137167 -0.005153
  0.14313609  0.08128351 -0.14199416 -0.0585224  -0.18180337  0.16044642
 -0.135486    0.0696939  -0.12918155 -0.00821231 -0.00929459 -0.03936073
  0.06075391 -0.06186186  0.02876243  0.08240043 -0.08415792  0.16134566
 -0.0739654   0.12874368  0.19908391  0.23073245  0.07304298  0.02433395
  0.03282598  0.08514709  0.0440437   0.0257144  -0.1098208  -0.27605632
 -0.04123174  0.01193894  0.03797814  0.08062436  0.21891192 -0.05455199
 -0.19859797 -0.19496274 -0.24354683  0.2212786   0.16979197 -0.13962851
 -0.06249887  0.06933185  0.25031338  0.20714223 -0.05761114 -0.20436215
 -0.07071784 -0.08059846 -0.01356274 -0.08882971 -0.0156767  -0.17952973
  0.04722646 -0.11366553 -0.09472084 -0.17536523 -0.18827517  0.02666681
  0.03709498 -0.08143665]
[-0.07214597  0.0505422  -0.14324862  0.06273476 -0.11393957 -0.18605096
 -0.16297076  0.26037273  0.05590493 -0.13661664  0.09770806 -0.02272668
  0.01187654  0.08931251 -0.19628468  0.17948561  0.1722668   0.20186956
 -0.12838129  0.05626726 -0.2272795  -0.13849646 -0.12539577 -0.06903163
 -0.05931619 -0.28020636  0.00171599  0.07007334 -0.16116437  0.02541445
  0.18864824  0.0256168  -0.11224736  0.03165622 -0.0649497   0.25429773
 -0.03944019 -0.26276152  0.17338932 -0.05632428 -0.04533019  0.039928
  0.19527195  0.20682004  0.21280785  0.12432308 -0.06367915  0.04295901
 -0.05476679  0.05837396  0.06722301  0.07295643 -0.26679162 -0.22771527
  0.17801998 -0.05317179  0.23462759 -0.15934444  0.18459175  0.01988775
 -0.06570357  0.12320805 -0.12802968  0.14446816  0.00714928 -0.27260009
 -0.12724517  0.09678741 -0.13076424  0.11348122 -0.09528524  0.15597215
  0.03577527  0.0134436   0.07009873 -0.04157887 -0.17001914  0.04414661
 -0.22620314 -0.13457832 -0.15002234  0.09408187  0.13379628 -0.05668362
 -0.09198469 -0.20328558  0.10702499 -0.14223954  0.10036157  0.11223327
 -0.01582054  0.18496469 -0.10653804  0.05796926 -0.15963431  0.05843162
 -0.00963474 -0.18567528  0.07345032  0.08849962 -0.27819811  0.1724754
  0.08873195 -0.06295494  0.10030435  0.20645441  0.20728767 -0.08750648
 -0.16579403 -0.14287054  0.08297835 -0.08387393  0.25136683 -0.02700655
 -0.04763467  0.0023435   0.06703614  0.08696241  0.2193078  -0.10626685
  0.00045987  0.08653955 -0.12413189  0.0726661   0.13525471 -0.03716529
  0.14701153  0.09977014]
[ 0.11782947 -0.01595708 -0.06158797  0.16592258  0.09019023  0.20880391
  0.07344158 -0.03806962 -0.01915527 -0.13333146  0.11465675  0.04845456
 -0.06347927  0.03272861 -0.08555436 -0.09010782 -0.27157342  0.07784399
  0.25455372  0.10433415 -0.15945457 -0.08801885 -0.2334117   0.12570824
 -0.05659002  0.02510116  0.04448478  0.15208969 -0.02496216 -0.09374998
 -0.20816195 -0.23323998  0.05303521  0.06000533  0.07318291  0.16443272
 -0.06504009 -0.04247131 -0.08439885 -0.08680134  0.01418051  0.26730215
  0.03458631 -0.09774481 -0.07391363 -0.12759138  0.20409374 -0.15213702
 -0.11638562 -0.0314979   0.21132224 -0.03620542 -0.09532463 -0.14898161
  0.03608442 -0.08131082 -0.11857185 -0.09368961 -0.01333744  0.03340219
  0.08619841 -0.26487027 -0.04812114 -0.08374633  0.01724011 -0.0250442
  0.05780633  0.19210519 -0.02832183 -0.02569625  0.09386461  0.07350095
 -0.0885862  -0.14200311 -0.0802084   0.00761519 -0.02856812  0.27699368
  0.04258007 -0.22704822 -0.17235435  0.11163604 -0.02659083  0.05265012
  0.01219845 -0.01269001 -0.19793619 -0.12894724  0.12666434 -0.06463557
  0.02049173 -0.09044541  0.0195184  -0.22654516  0.15230551 -0.04360489
  0.11417668 -0.11176507 -0.05963883  0.08951073 -0.09759975 -0.09746511
  0.03549034  0.1418586   0.01110814 -0.06241216  0.15712079  0.06211249
 -0.07537795 -0.15513462 -0.18436293 -0.07266438  0.01967618 -0.24309834
  0.03684623 -0.07048599 -0.16623772  0.03393172 -0.18360927  0.09212526
 -0.01614012  0.25472877 -0.16279473  0.08194792 -0.15625161 -0.20685501
 -0.01260748  0.1289648 ]
[-0.14737101 -0.07956832 -0.24407178 -0.20656256 -0.06165147 -0.23098132
  0.02457839 -0.1037262   0.10510169 -0.03559421 -0.00431117  0.02498309
 -0.14787591  0.17715988  0.21015332 -0.05732602  0.05075537 -0.00601499
  0.00465069  0.04202093  0.09782482  0.12012541 -0.009815    0.00276946
  0.01561709 -0.10302686  0.07100208  0.05747628 -0.16043018  0.19713579
  0.13853215 -0.14885186  0.00064157 -0.07205297 -0.1578499   0.09310071
  0.10609539  0.08041421 -0.04168561  0.03073831 -0.14163159 -0.02756942
  0.01170742  0.16799461 -0.00992616  0.05821253 -0.1250506  -0.03675525
  0.15658911  0.12033812  0.05801034  0.05724624  0.18495164  0.02943097
  0.00596486  0.0293503   0.00725703 -0.02799424 -0.04703956  0.14623991
 -0.12367199  0.04152779  0.05435597  0.11802378  0.15865928  0.1779368
  0.1480622  -0.10372764 -0.0138605  -0.05966655 -0.07634672  0.13164799
 -0.03879156 -0.05799887 -0.18090247 -0.08313306  0.01786666 -0.19548173
  0.06953927  0.28270935  0.08339209 -0.06860766  0.13380303  0.24299596
  0.13340351  0.14985399 -0.00722759 -0.14652703 -0.13409703  0.24524664
  0.1293741  -0.01366629 -0.05300552 -0.04450686  0.04753101 -0.21021814
  0.10445407  0.15309903  0.05777567  0.00723774 -0.2133718   0.23786873
  0.05279127  0.11367699 -0.19116571  0.00154007 -0.03113681 -0.05304774
 -0.2407581   0.03508225 -0.01091646  0.05119223 -0.02509035  0.09196519
  0.14801134  0.06834338 -0.16314614 -0.02537575  0.0278985   0.10557101
  0.10450631  0.02893853  0.00513807  0.09091924 -0.24101986 -0.13014819
 -0.08902139  0.15010432]
[ 0.11983784 -0.10563248 -0.08572603  0.02474097  0.24237153  0.19532588
  0.20661019  0.15661497 -0.03962239 -0.16615992 -0.00746646  0.02783494
  0.09105627 -0.15753513  0.1860387  -0.04251311  0.02835599  0.04363401
  0.08769541  0.21027568  0.16495003  0.12338447  0.03919935 -0.0310881
  0.09920112 -0.03481792 -0.18216202 -0.22373034  0.16978861 -0.11173053
  0.07454084  0.1241152   0.10451774  0.11560249 -0.07859456  0.0689679
 -0.05154498 -0.05260012 -0.16149647 -0.0783717   0.15957214 -0.1350833
 -0.15715315 -0.14876599 -0.01193249  0.21852816 -0.12333205  0.04273926
  0.11546456  0.02133045  0.09146267  0.0809295   0.10280078  0.09968649
  0.04394408  0.0770993  -0.10642774  0.17543322  0.05799987  0.24767611
 -0.05801507  0.09871003  0.0537192   0.03163207  0.16330846  0.09050454
  0.03333628 -0.09378385 -0.02942027  0.03937898 -0.0774662   0.02292761
 -0.06914165  0.13790111  0.01987063 -0.11482482 -0.08840061  0.1081122
 -0.06028939 -0.01828341 -0.06636545  0.01926042 -0.09708944  0.10791358
  0.13786954 -0.00094908 -0.0469137   0.07948981  0.09544621  0.07726487
 -0.15102175  0.19593203 -0.19041974 -0.19333821 -0.04928305  0.00809522
  0.07888031  0.14721597 -0.05932755 -0.20403004  0.25837396 -0.0641112
  0.04842374 -0.0886361   0.00109828  0.18462044 -0.11645579 -0.02624593
 -0.17039828 -0.12367211 -0.12468276 -0.20011389  0.00344655  0.07306301
 -0.23970608 -0.0860418   0.02551061  0.09630062 -0.15524747  0.22931842
  0.05501105  0.11922374  0.26730247  0.27744331  0.07414955  0.00221279
  0.11441516 -0.16477456]
[ 0.08901671 -0.2067307  -0.0597743  -0.07800337 -0.08489283 -0.08931628
 -0.10402423 -0.02622857 -0.18153791 -0.11179379  0.17241169 -0.00706633
 -0.087921   -0.06955737  0.14791805 -0.18634856  0.12797767  0.06471905
  0.01601029 -0.22575663 -0.01688769  0.14036783 -0.2455828   0.10858263
 -0.02364664  0.09347452  0.05110452  0.08389578  0.15102565  0.04352869
 -0.18169505 -0.09546835 -0.00160591  0.16581368 -0.23340261  0.02346857
 -0.06465261 -0.03971175  0.06589838 -0.01758017  0.15826205 -0.16809294
  0.08265244  0.20793342 -0.0101626  -0.21116211 -0.03571628  0.15868065
 -0.18514625  0.01240172 -0.16172179 -0.07139462  0.11391315 -0.19483289
 -0.00736577 -0.02448915  0.00576522 -0.08807629  0.26209846  0.18906952
  0.15883761  0.17521259 -0.26903135 -0.06217124  0.00494812 -0.04458254
  0.12743621  0.09026038  0.26783017  0.08237109 -0.09668813 -0.04877037
 -0.17723162  0.00977476  0.22022255  0.21628537  0.0587873   0.01126706
  0.04566011  0.03962309 -0.17262304 -0.0796729  -0.10742273 -0.09566925
  0.07651458  0.15575108  0.05466414 -0.17281573  0.01249716 -0.05303123
 -0.26622366  0.04304542 -0.06800854 -0.19907026 -0.24694288 -0.0440519
  0.09639402 -0.11070675 -0.15331118  0.20055749  0.0736367   0.08613674
  0.03708328  0.122293   -0.09210433 -0.15483676 -0.00883583 -0.19401857
  0.09815806  0.2504234  -0.26387421 -0.05879061  0.04992961  0.01923589
 -0.17083176 -0.03500337  0.07179153 -0.03937788 -0.10045128 -0.18348775
  0.15935184  0.04939391  0.03520071  0.10204937  0.08983699 -0.09509359
  0.04593823  0.0056798 ]
[-0.04703558  0.09306104 -0.14684781  0.17470951 -0.20345637 -0.19146715
 -0.11385519  0.25051216  0.10657829  0.05334387 -0.1133246   0.20712612
 -0.19892633  0.11054031  0.05999117 -0.006726    0.08110685  0.06870005
  0.10277173 -0.15626771 -0.15238887 -0.009833    0.055322   -0.03872372
  0.03622039  0.17637399 -0.07434784  0.08790608  0.01446342  0.09289671
 -0.13970286 -0.0393274   0.10161053  0.02832907 -0.05107632 -0.00452067
  0.0504275   0.11501296  0.07117092 -0.16687763  0.06963604 -0.10554473
 -0.20605091  0.10332718  0.08974251  0.24697471 -0.24884815  0.01409555
 -0.02006416  0.06193349 -0.08640168  0.02708301  0.01472004  0.11105548
 -0.01755665 -0.04349658  0.07005263  0.04643349  0.05493342 -0.11180195
 -0.08328604  0.12022688  0.11676196  0.04906003  0.20872517 -0.03883905
 -0.22847627 -0.06157371  0.10499507  0.03151076 -0.05935464 -0.12365987
  0.00867342  0.13828556  0.0893356   0.06539567 -0.09291639  0.21444807
  0.01474092 -0.04986451  0.1258236  -0.01700304  0.16734754 -0.03803395
 -0.02872242 -0.08877317  0.05161958  0.06835723  0.08503096  0.05671581
 -0.12851168 -0.07487788  0.19861037  0.02391753  0.17265926  0.0172698
  0.2017365  -0.0372906   0.00092723  0.15728923  0.15938833  0.03598728
 -0.00135821 -0.0071675  -0.09658475 -0.16777637 -0.07129241  0.09273774
  0.13675489 -0.05551902 -0.01904037 -0.03947083  0.19804469  0.09068499
  0.08690752  0.05979023  0.0019544  -0.08428927 -0.13831352 -0.23941921
  0.0162607  -0.10876051  0.14224885  0.0470077   0.04626105  0.0726063
  0.03904913  0.09167878]
[ 0.0035743  -0.0295703  -0.25566115  0.04116022 -0.1710696   0.04383565
 -0.12877722 -0.01845091 -0.01201272  0.20198261  0.04044093  0.00116508
 -0.09398714 -0.01070345  0.19613081 -0.03181936 -0.00782265 -0.08559101
  0.09163892  0.07605176 -0.25024792 -0.2050354   0.04530915  0.00581936
  0.22659364 -0.08615626 -0.0996216  -0.25304297 -0.17582765  0.12709146
  0.05157275  0.02547753  0.05225027  0.0655681   0.26455063  0.11714239
 -0.04533561  0.1085002  -0.18103379  0.15370155  0.04777961  0.03984087
 -0.13467904  0.15490682 -0.10685299 -0.07240131  0.17615739  0.13442562
 -0.08183549  0.10100652 -0.23681385  0.12880312 -0.13037559  0.04531683
 -0.21964367  0.0847967  -0.03049825 -0.26893951  0.02700461  0.13101254
 -0.18307327 -0.15256381  0.03157344  0.07472781 -0.09316991  0.06295307
  0.13073647 -0.10957674 -0.07965701 -0.02866058  0.09479582 -0.09610018
  0.05876975 -0.10586538 -0.029269   -0.04905374 -0.10226178 -0.00455039
 -0.06149677  0.05695837  0.01090263 -0.04957823 -0.08290818 -0.25839777
  0.1200134   0.00843736 -0.02542524 -0.02947925 -0.08766694 -0.03571345
 -0.08896478  0.2014366   0.03332871  0.18534874  0.13615574 -0.0055652
  0.01067924 -0.11102832 -0.04848367 -0.18718962 -0.13948226  0.07806705
  0.24747063  0.10499074  0.0951436  -0.06132624  0.21026473  0.051661
 -0.01053461 -0.01230703  0.15422854  0.03330077  0.17461159 -0.06587937
  0.06804916 -0.03104518 -0.11881222 -0.21196588 -0.08230056  0.26073684
 -0.17151557  0.09626907  0.11919464 -0.04925122 -0.12384761  0.10130727
 -0.26282765 -0.22895315]
[-0.03026219 -0.11063443 -0.02703958  0.0003483  -0.04593171  0.03329266
 -0.01088203 -0.06978776  0.00503311 -0.22137891  0.0620789   0.07978197
 -0.15205956  0.16932096 -0.06893947  0.14720507  0.10039113 -0.09385277
 -0.12161395  0.05775428 -0.01769889  0.07832055  0.01596635 -0.01453018
  0.12645196  0.03563917  0.2006268  -0.15526217 -0.17030453 -0.08279248
  0.05211431 -0.10902758 -0.01874927 -0.14358699 -0.00855937 -0.18750644
  0.03348579 -0.05192619 -0.20819517 -0.06804974 -0.19754565  0.17493673
 -0.18259395 -0.13562932  0.05783984  0.22897063 -0.19619504 -0.19853243
  0.067602    0.1146348   0.17857079 -0.08357756 -0.1712169   0.03515511
 -0.00814767  0.07067383  0.00389749 -0.08091747 -0.18657633  0.22527086
  0.15597058 -0.19156036 -0.02472398 -0.13009486 -0.0163848  -0.2250124
  0.00849484  0.0480783   0.02955449 -0.15309213  0.09669443 -0.00802682
  0.08141889 -0.05624975 -0.19134245  0.02086796  0.14373833  0.02546984
  0.1629567  -0.09458648 -0.03237228  0.10508446 -0.11498197 -0.1699761
 -0.10285405  0.10017355 -0.14405634 -0.13573309 -0.21994792  0.03039672
 -0.0295774  -0.07566196 -0.03101833 -0.05295088  0.11529695 -0.10312349
 -0.2316475   0.04067745 -0.07752291 -0.11441315 -0.20162257 -0.08881953
  0.16230765  0.00667732 -0.19961448  0.09264692  0.20985735  0.00749789
 -0.06364829  0.09603525 -0.0571377   0.15450059  0.01822392 -0.0319006
 -0.08121126 -0.12138459 -0.10101986 -0.0571845  -0.1082386  -0.26217618
 -0.12284373 -0.12697685  0.12865868  0.03110348 -0.26852832 -0.16030416
  0.19953174  0.04547925]
[ 0.09276369 -0.09244862 -0.0746354   0.21004999 -0.11348858 -0.04951631
  0.16297875 -0.11467623  0.16156344  0.09177685  0.20310744  0.09355888
  0.1423799   0.11453058  0.13225842  0.23119678  0.06236151 -0.14784547
 -0.08757327  0.00541664  0.15071943 -0.01329542 -0.22161396  0.19789524
 -0.22342438 -0.1278902  -0.0465771   0.2401702   0.03630262 -0.14391156
 -0.16379164  0.06612779  0.08535621 -0.06954315  0.05743061 -0.00797236
  0.06094375  0.27124949 -0.07226094 -0.08759749 -0.03621933  0.09276921
 -0.12227521 -0.12054888 -0.05943752  0.01882563 -0.01521543 -0.19202481
  0.05068125  0.08736061  0.00637756 -0.11644263 -0.07687269  0.04166171
  0.12737423 -0.11161839  0.07711543 -0.11134048  0.20824864  0.11370225
 -0.07853844  0.18572357 -0.18200173  0.08918437 -0.14328935  0.16599569
  0.2518608   0.07501626 -0.21067345  0.03949116  0.03949133 -0.00356218
 -0.0241056  -0.25482806 -0.00612542  0.16120965  0.10490426  0.24880396
  0.02059673  0.23976453 -0.07843218  0.16742896  0.14262684  0.04875133
 -0.10352838 -0.15587923 -0.17346018  0.10693542  0.11949098 -0.08337837
  0.07483775  0.01979493 -0.12668596 -0.2300476   0.08337663  0.09578539
  0.09936335 -0.01021654 -0.12124509 -0.09906847 -0.13329831 -0.02317924
  0.02819773 -0.01104647 -0.23929709  0.10249163 -0.1106109  -0.15537953
  0.12483428  0.21152539 -0.13821401  0.22568889  0.1832304  -0.00297323
 -0.05568787  0.05417366 -0.18964915 -0.15769099 -0.12265364 -0.21970679
 -0.08039175  0.14687255  0.07787728  0.02091271 -0.22476809  0.17676945
 -0.10140365  0.00917873]
[ 0.13284928 -0.2397669   0.16090244 -0.04753051 -0.04848941 -0.08014901
  0.18585229 -0.11557721  0.09321284 -0.02474393 -0.02636107  0.18891815
 -0.07860062  0.09679162  0.23696226  0.19414969  0.12508984 -0.0663312
  0.21944394 -0.01578236 -0.08264843 -0.06926085  0.05301549 -0.08769502
 -0.1030762   0.01564178 -0.00361173  0.03449127 -0.01836089  0.09600552
 -0.09385972 -0.06454085  0.06184613  0.25134759  0.12254479 -0.06412521
  0.15249578 -0.0189362   0.15455668  0.0468196   0.19094397 -0.03650212
 -0.08910478  0.02920034  0.03868918  0.00206916  0.04786632 -0.0931783
 -0.11809316  0.16472132  0.04941209  0.09496093  0.03228305  0.14306463
  0.05877846  0.22729137 -0.18962217  0.19417675 -0.04185064  0.11549303
  0.07100682 -0.02289329 -0.09325731  0.16422309  0.22391435  0.14208274
 -0.22081976  0.02080108  0.26002665 -0.02107229  0.11479862  0.06123248
  0.07070658  0.03761989  0.02114698  0.14921325 -0.10522348 -0.15146427
  0.10909289 -0.17396931  0.03791337 -0.11191126 -0.11824676  0.0484664
  0.04013616  0.12563357  0.06077572 -0.06472682  0.24352176 -0.01818327
 -0.00768737 -0.06084191 -0.10536604 -0.18223274  0.08173898 -0.02574325
 -0.152103    0.06261512 -0.07062364  0.05691949 -0.03397542 -0.00887523
 -0.07846426 -0.09007761 -0.14214277  0.11714699  0.10597511 -0.13250896
 -0.17228487  0.00877872  0.12060499 -0.01030422  0.02111177  0.11299984
 -0.0774128   0.18799858  0.09722601 -0.11692823 -0.03905421 -0.26026537
 -0.02030442  0.01168928  0.02446197  0.0390839   0.12885523 -0.11628031
  0.20747213 -0.09434588]
[ 0.07561389 -0.27035325  0.06107887  0.18047597 -0.11804177  0.0530028
 -0.06984904 -0.0119099  -0.09639665  0.08738137 -0.00176833  0.22345513
  0.10746086  0.03588494  0.04877041 -0.0732368  -0.18262869 -0.07865087
  0.02655516  0.16103916  0.00818644 -0.05748478  0.18192386 -0.00347243
  0.27701327 -0.00207453  0.03649744 -0.04285933 -0.02737506  0.19748378
  0.21168812 -0.24573535 -0.14834366 -0.02844569  0.00291361 -0.24739995
  0.01440884  0.09346359  0.11575346 -0.17549187 -0.11325407 -0.00540361
 -0.21046681  0.1304153   0.15980709 -0.08538873  0.14019457 -0.0930975
  0.04966656 -0.21581149  0.19594008  0.03677388  0.07854184  0.1045615
 -0.18053187 -0.25420266  0.06476479  0.21889902 -0.04836087 -0.00733488
 -0.12699978 -0.07185076 -0.16534043 -0.09540766 -0.04931876 -0.04258738
 -0.00365973  0.03978701 -0.01465423  0.11171224 -0.11703728  0.15855804
 -0.2215667   0.03755448 -0.08307379  0.01780541 -0.14149883  0.00855593
 -0.11939836  0.05942645 -0.11329903  0.09012307 -0.06755436 -0.0945946
  0.09528541 -0.05661646 -0.05368777  0.06798479  0.22577101  0.1018138
  0.06710633  0.09554747  0.01845475  0.23704135  0.04323495  0.00555968
 -0.13404842  0.08158965  0.1321494  -0.08248243 -0.0420702  -0.1346298
  0.11233113  0.00720592 -0.152841   -0.10439085  0.26855479 -0.01418706
 -0.0847973  -0.10921643  0.283826   -0.00677365  0.22413709 -0.08491907
  0.03948382  0.08334063  0.06102108  0.04136933  0.118858    0.05385482
 -0.18676845 -0.10578041 -0.16603326  0.13439239 -0.07290844 -0.17077249
 -0.06219062  0.09014519]
[-0.17221711 -0.06190427  0.02217493 -0.04369656  0.05512536 -0.09511687
  0.04077361  0.08024789 -0.06515255  0.06702622  0.09431004  0.17670391
  0.02966584  0.01983508  0.1181638   0.07476309  0.0408648  -0.04080031
  0.07244674 -0.05359424  0.05731927  0.01184195 -0.03669917 -0.13462205
 -0.15819997 -0.00397822 -0.10433723  0.02034864 -0.23505433 -0.10058572
  0.00598117 -0.00676907  0.13980759 -0.26415397 -0.05851843 -0.19121695
 -0.01914465 -0.18887642 -0.10579306  0.05133607  0.03631981  0.14498074
  0.09499518 -0.01808185  0.14376227  0.1369273   0.20571259 -0.19437715
 -0.08835132 -0.0529032   0.07314465 -0.00874397 -0.05019662 -0.25061026
 -0.21060815 -0.1196883  -0.11366827  0.21643951 -0.11406907 -0.11138442
  0.26797401 -0.03573889  0.18500932 -0.17335994  0.0795425   0.06758208
  0.01040449  0.13622609  0.0053861   0.12993507 -0.0067532  -0.12419718
 -0.01571008  0.17427022 -0.08631228  0.1721324   0.19259077 -0.01914857
  0.12146646  0.08008144 -0.13633253 -0.06002679  0.07862074 -0.14034984
  0.07664334 -0.13381425 -0.05094865  0.08817852 -0.05915544  0.148341
  0.02785103  0.08955574  0.01317403 -0.02100642 -0.04635244 -0.08161093
  0.12502762  0.11772221  0.16031993  0.04451365 -0.05834832 -0.00579557
  0.27841028 -0.19424366 -0.25324364 -0.02732443 -0.12401611  0.21630878
 -0.1936949   0.25610837  0.20169271  0.07501407  0.02322633  0.03446172
  0.23615527  0.08705012  0.02836267 -0.00659103  0.12013732  0.13501128
 -0.16561623  0.22335086  0.07601363 -0.17232286 -0.07666947 -0.04894994
  0.00755216  0.06294703]
[-0.00256426 -0.02465035  0.26197853  0.2265634  -0.12777588  0.05259485
  0.18887422  0.03283059 -0.08756202 -0.01404482 -0.10050144  0.00773327
 -0.03044034 -0.1479666   0.03257692  0.20564136 -0.08798612 -0.07258466
 -0.00838131  0.05682516 -0.03356405 -0.08366036  0.08583136  0.06935536
 -0.09800865  0.07171148 -0.18461435  0.02442176  0.00352566  0.06080872
 -0.05543745  0.21591987  0.08217158 -0.0526994  -0.02939456 -0.07010269
  0.25687048  0.11928392  0.00888024  0.10940912  0.09204283 -0.17669678
 -0.14518064 -0.13641933 -0.14632064  0.11584612  0.18853621  0.18835716
 -0.23090991 -0.06196448 -0.00906353 -0.05004841  0.05462119  0.00939623
 -0.01117052  0.16648752  0.08491188  0.10108204  0.00587824  0.12878762
  0.01414478  0.002492    0.00303082 -0.03157706 -0.18456023  0.25442049
  0.01931776 -0.19684975 -0.06612219 -0.06416914  0.1290835  -0.18520844
  0.03781262 -0.18523557 -0.23619831 -0.01040151 -0.1672859   0.06865935
 -0.17880649  0.06050018  0.15105281 -0.20089072 -0.02311347  0.0122265
 -0.22569501  0.06929766  0.08561515 -0.16000985 -0.07290976 -0.12299378
 -0.02475601  0.21091789  0.06644502 -0.04992533  0.16519082 -0.13227381
  0.07559466 -0.1486544   0.21325014 -0.07202237  0.10558282  0.05268523
 -0.14693825 -0.12337444 -0.10569095  0.05074473 -0.07680922  0.06852195
 -0.04646064  0.07904471 -0.1204985   0.03944538  0.09965581  0.08534373
 -0.12253731  0.02404548  0.2349075  -0.01135467  0.16542113  0.08763163
 -0.16591231  0.08844574 -0.15190846  0.25508136 -0.13212521  0.11472029
  0.10746699 -0.22959009]
[ 0.01872287  0.11024131 -0.06618758  0.08433456  0.12952465  0.06050308
  0.08892142 -0.00718504 -0.12141565  0.08744452  0.00576144 -0.0704706
  0.17127068 -0.13684782 -0.06842183  0.06335639  0.07311674  0.10075693
 -0.24239978  0.25338097  0.02814163 -0.01718248 -0.25038974 -0.02702121
 -0.07898149  0.0861631  -0.14647318  0.2679209  -0.10692994 -0.00485425
 -0.15178685 -0.12893724 -0.09596164  0.09347938 -0.0579076  -0.24370281
 -0.19178282  0.07523065  0.0114513   0.12639819  0.13702688 -0.03349927
 -0.0342041   0.06649159  0.09234805  0.25137819  0.07028818  0.07878031
 -0.04773316  0.00887909  0.17569418 -0.03454075  0.13275687  0.09814006
  0.11089396  0.00426534  0.02685855 -0.27356735 -0.04131458  0.06307586
  0.01256578 -0.16789667 -0.15620104 -0.00207197  0.0141166   0.11696006
  0.09041807  0.10380761  0.18734849 -0.27502335  0.03105227 -0.10972907
  0.05121734 -0.26993735  0.02052248  0.09407851 -0.00890855 -0.05182272
 -0.03979615  0.00506023 -0.14360914 -0.24476673  0.04322546 -0.21797126
 -0.0745529   0.08367111 -0.17442926 -0.15520217 -0.10841258 -0.214262
 -0.02320721  0.16365829  0.06343174  0.22262818  0.13031231 -0.01309271
  0.10356595 -0.00102202 -0.08932979  0.02418766 -0.12567722 -0.06097408
  0.08787436 -0.09824659 -0.11126742 -0.141885   -0.07532353 -0.00770214
  0.07958706 -0.04632592 -0.23831374 -0.08844399 -0.06273255  0.25515022
 -0.10659731 -0.07926606 -0.22537504 -0.02277844  0.00259955 -0.12370703
 -0.10915773  0.16544786  0.01318763  0.17028618 -0.03660304  0.23739605
  0.15379637  0.01395735]
[-0.25538871  0.07374394 -0.07017592 -0.0288336   0.09732806 -0.02941
  0.0100853   0.26172719  0.15598286 -0.01418847 -0.02710802 -0.15430648
 -0.05390573  0.16024355 -0.00393752 -0.12061374  0.12996972  0.07411012
  0.02348342  0.07657184  0.11136077  0.102416    0.05259987  0.17970591
 -0.02598339 -0.26258769  0.14254696 -0.03411868  0.22778728  0.03908301
  0.01245406  0.0281392   0.02721012 -0.23057423  0.02565142  0.12676081
 -0.08087922  0.11763966  0.03186377 -0.01540556 -0.1431474  -0.08785707
  0.09169596 -0.17002047  0.08834377  0.04758039  0.04255395 -0.12030963
 -0.11332947  0.13484122 -0.25514495 -0.27271441  0.10475719  0.16119885
  0.09809171 -0.01086595 -0.05916804  0.12258447  0.04210525 -0.01321537
 -0.15396685  0.23603967  0.09148777 -0.21142037 -0.17301342  0.09331265
 -0.10950101  0.05205344  0.00977527 -0.12202319 -0.02387542  0.27268355
  0.05420815  0.07691282 -0.17661765  0.10012443 -0.1812783  -0.11459627
 -0.13158072 -0.0453493  -0.1303786  -0.05189721  0.009111    0.043888
  0.07217464  0.24588642  0.08214571  0.08972626 -0.05350999 -0.05226195
  0.00772156  0.18149352 -0.11108532  0.0764231  -0.01673808  0.02770186
 -0.00876645  0.06200805  0.0809247   0.12274837  0.05463905 -0.10280223
 -0.06983771 -0.15543061  0.236634   -0.24019471  0.08625402  0.06441527
  0.05136395  0.06570398 -0.11315583 -0.10641853 -0.03098146  0.01611429
  0.19420838 -0.20675245  0.17493812 -0.03845946 -0.06200304  0.27853867
  0.16181954 -0.15321323  0.09978983 -0.07926872  0.1615498   0.13490664
  0.08187419 -0.038141  ]
[ 0.12942688 -0.02096258 -0.22619749 -0.18545483  0.10169104  0.17925716
 -0.02739917  0.23948381 -0.15557702 -0.09991007 -0.05524616  0.01788649
  0.23853024 -0.09261659  0.15499719 -0.18615394 -0.01298879  0.11606166
  0.10276997  0.06224904  0.01834957 -0.01153321  0.01740253 -0.15190226
  0.01424282 -0.05452783  0.01108063  0.10103842 -0.01068684 -0.0845067
 -0.17213354 -0.07942422  0.17316448  0.01719145 -0.11647547  0.19972146
 -0.00749893  0.24570383  0.14100761  0.24152665  0.04947691 -0.11475282
 -0.16879437 -0.18758965  0.07676319 -0.13848305  0.01159187  0.25938538
  0.07201821  0.00683531 -0.11022084  0.18461612  0.14775988  0.11100446
  0.03539496  0.05060649 -0.04081043 -0.06600691  0.06401465  0.07367663
  0.01676189 -0.14971917  0.17269856 -0.06377176  0.08559808  0.10394791
 -0.08474451 -0.25163933  0.25789742 -0.07818403  0.16998691  0.00613351
 -0.1160867   0.08337906 -0.02110227  0.03258783 -0.10850103 -0.04152681
 -0.26135643  0.0457241  -0.08833454  0.12317785  0.17087309 -0.12616671
 -0.09876476  0.06984061  0.13487921  0.0953215   0.00271695  0.13239378
  0.07361297 -0.05338155  0.12947309  0.07531352 -0.02230128 -0.09738815
 -0.11584502 -0.23509961  0.17570679 -0.14145164  0.00108105 -0.13880852
  0.03702119 -0.01057748  0.2006637  -0.02544136  0.11106033 -0.08477239
 -0.02532929 -0.06175273 -0.25601217  0.11062481 -0.09996503  0.05747653
  0.19709705 -0.18987341  0.15924411 -0.16228512  0.07637674  0.0026798
 -0.10232643 -0.12401114 -0.08449088 -0.06562017 -0.15704049 -0.11577937
  0.02318877  0.15118647]
[-0.05466245 -0.16965054 -0.05420521  0.12791742 -0.16576233 -0.10316249
 -0.0473997   0.02738959 -0.12086871 -0.02459578  0.01863851  0.1131638
 -0.03636333 -0.03171803 -0.04664886  0.01595189  0.09433605  0.19884683
  0.16512984  0.03523965 -0.10559468  0.11179491  0.01651915 -0.06790976
 -0.06759583  0.02041053  0.10433545 -0.19356335  0.03813992  0.01493041
  0.07708992 -0.06760237  0.10345039  0.07329247 -0.17982584  0.19934586
  0.14611232 -0.05269151  0.23996248 -0.11608803  0.04097869 -0.1104969
 -0.0347266  -0.1648337  -0.0326463  -0.04071502 -0.19482704 -0.08192747
 -0.14709776  0.26353158  0.19989859  0.11099078  0.09364702  0.27974471
 -0.18493965  0.10248797 -0.23996431  0.11619895 -0.01513253  0.03122099
  0.10440537 -0.01342776  0.13499578 -0.03038688 -0.03521799  0.00898299
  0.19989167  0.1918807  -0.05228056  0.01162766  0.24470169  0.08376714
 -0.28029012  0.10303809 -0.10472299 -0.09955749  0.06807263  0.15150825
 -0.03303573 -0.18471972  0.03810502  0.01227547 -0.16131008  0.01518247
  0.13353095  0.16763452  0.16715604 -0.09207001 -0.09541386 -0.01411643
  0.02011988  0.00765638 -0.0698881   0.15376118 -0.17214403 -0.09443488
  0.26042864 -0.17488987  0.02141821 -0.01589205  0.05057682  0.0582712
 -0.0446166  -0.15404251  0.12735864 -0.19810322  0.07761399 -0.19484066
  0.02656846 -0.25573146  0.1424816   0.00711125  0.08953698 -0.19154446
  0.03015222 -0.03438972  0.16408402  0.19938576  0.15359556  0.09416426
  0.14988493 -0.0498208   0.0131101   0.16972639  0.27969306  0.02821736
  0.160693    0.24194985]
[ 0.25366329 -0.10896008 -0.0259909   0.10684536 -0.04558592  0.1292919
  0.05616751 -0.02216256 -0.06114168  0.00548071  0.12649083  0.21643126
 -0.08343868 -0.00703265  0.08403426 -0.01567716  0.13354336  0.22803229
 -0.25295332  0.15294018 -0.00731416 -0.19170334 -0.00368279 -0.05167936
 -0.17841772  0.018988   -0.21643373 -0.13059062  0.00275342  0.01092803
  0.02805261 -0.04241016  0.08588908  0.11461145 -0.17540826 -0.07563951
  0.07026397  0.08408964 -0.09484014  0.05220842 -0.07140134 -0.1170161
 -0.11561979 -0.18425319  0.13232788 -0.07546573 -0.02383824 -0.06659998
 -0.16618095  0.08031575  0.10003207 -0.1108637  -0.0257559   0.14834966
  0.09182424  0.11170388 -0.19102243 -0.15232922 -0.02047496  0.12033982
  0.24526811  0.09402136 -0.04139064 -0.13306566 -0.04842233  0.2031543
 -0.0074538  -0.04218308 -0.02110149  0.12594049 -0.11935063  0.15257504
 -0.11280208  0.05191352  0.24482591 -0.27954445  0.00526496  0.03515927
 -0.09683104  0.09022156  0.16412773  0.2304741   0.09738572 -0.15552135
 -0.14470521 -0.26324327  0.15328666  0.03365053 -0.28280316 -0.11244741
 -0.2607823  -0.12864438 -0.00908812 -0.13043358  0.03629885 -0.07336686
  0.15883124 -0.22207062  0.07848146  0.01878887 -0.00180565  0.03777514
 -0.06763103  0.11108156 -0.21218436  0.04705613 -0.15260634  0.02808155
  0.03783846 -0.18609984  0.08658832  0.07207303  0.0985762  -0.0931045
  0.00754048  0.17220508  0.1967871  -0.10043215 -0.1811264   0.1502935
 -0.17456026 -0.12867876 -0.03908971  0.21948037 -0.05978542  0.01178857
 -0.11078952 -0.0374031 ]
[ 0.24323044 -0.07980481  0.0605494  -0.07365523 -0.20132611  0.0608796
 -0.09520531 -0.06704413  0.01487583 -0.10664208 -0.10726362 -0.03657513
  0.1050495   0.19822522  0.15129136 -0.05305254 -0.15322772  0.09428637
 -0.22585106  0.19656623  0.15498212  0.24335089  0.03592178  0.22878592
  0.06402505 -0.13094503 -0.01925558 -0.07806747  0.00601902 -0.22349301
  0.03121224 -0.12465154  0.20819689 -0.20868326 -0.04735921 -0.08849469
  0.25376581  0.07389064  0.21575691 -0.11861835 -0.06781837  0.01173446
 -0.04050602  0.04151926 -0.01977117 -0.09488733 -0.18285299  0.11628017
 -0.17849135  0.01126667  0.02373249  0.08414223 -0.0811039  -0.05953323
  0.13716039  0.05468451 -0.07000834  0.11423626 -0.18507501  0.19208231
 -0.01610882  0.25294875 -0.06758477  0.12689983  0.20654093  0.03906825
  0.09505973  0.1830942  -0.11092164 -0.02454854  0.09388978 -0.12238414
 -0.02240364 -0.01311926 -0.10681978 -0.07701715  0.2458171   0.18649855
  0.01802782  0.18743147  0.05498121  0.06153944 -0.15518282  0.16831497
 -0.00734621 -0.05263436 -0.00222306  0.19801983  0.18565478  0.27507679
 -0.12457024 -0.12671611  0.11919501 -0.06358952  0.12226198  0.1385095
 -0.08595064 -0.20932437  0.08268399  0.12748514  0.01252169  0.2336763
 -0.09434307 -0.10747301 -0.24297443  0.04192945 -0.01603921  0.13732922
  0.1680622  -0.10668274  0.0570463  -0.05760223  0.01522978 -0.08031727
  0.15730002 -0.09855683  0.03309642  0.02177602  0.01503565 -0.05894088
  0.23754743  0.22738065 -0.05844075  0.06853497  0.23948397 -0.15991456
 -0.0498075   0.13372296]
[ 5.32602302e-02  1.06758462e-01  1.52851200e-01 -5.19729451e-02
  1.97433536e-01  4.16026129e-02 -2.22820213e-01  5.71193079e-02
 -2.02936937e-01  1.89342648e-01  1.78327186e-01 -2.97734856e-02
 -1.59912330e-01  4.76514824e-03  2.06761374e-01 -2.35325464e-01
 -2.20020258e-01 -4.28122212e-02  1.90914621e-02 -3.98442696e-02
 -1.08321903e-01 -1.97222379e-01 -4.64598255e-02 -2.66995624e-01
 -1.20126274e-01 -2.53053130e-01  1.16636848e-04  9.12378879e-02
  1.18677768e-01 -2.68331664e-01 -4.97356246e-02  2.05136880e-03
 -1.04400210e-01 -1.12587141e-01  4.32011399e-03  2.53023301e-01
 -6.85112955e-02  1.24423603e-01  1.73444065e-01  3.25533804e-02
  2.40786706e-01 -1.64658691e-02 -1.87891902e-01 -2.25675817e-01
 -1.14279711e-01 -1.25504974e-01  9.46112206e-02 -1.29869839e-01
  1.43808917e-02  4.66163558e-02  2.10268623e-01 -7.56167492e-02
  1.96629677e-01 -8.46934914e-02 -7.45537139e-02 -1.12575446e-01
 -2.31166801e-01 -6.24091830e-02 -1.06445509e-01 -5.35894318e-02
 -1.10992255e-01 -9.37775669e-02 -2.07227092e-01 -7.37912235e-02
  2.33873540e-01 -2.89862762e-02 -1.06304963e-01 -1.15008012e-01
  6.81238554e-02  8.14163252e-02  1.12061194e-02  5.22976791e-02
  2.21932374e-01 -1.60564491e-01  6.08698079e-02  1.69532960e-01
  1.34029662e-02 -1.80292228e-01 -2.14367077e-02  8.44826688e-02
 -2.12028946e-01 -1.20623338e-01  2.34011742e-01  5.88891554e-02
  5.09348293e-02 -1.90110279e-02  1.29618019e-01  6.98319179e-02
  6.99451822e-02  3.04999162e-02 -1.12086738e-01  4.05619668e-02
 -1.38711114e-01 -2.61683127e-01 -1.86264277e-01 -1.71722002e-03
 -2.07557729e-01 -6.00166855e-02  1.25440075e-01 -9.18829854e-02
 -3.40602770e-02 -9.79409882e-02  2.64776605e-01 -5.13454242e-02
 -2.37132611e-01 -1.04688079e-01  6.46651824e-02  1.08257776e-01
 -1.55299716e-01  2.67394417e-01 -2.33788325e-01  1.23454997e-02
  1.68940223e-01  1.28926472e-01  7.91732535e-03  9.71602308e-02
 -2.33286013e-01  1.00673297e-01  9.17077950e-02  1.48592692e-03
 -1.47740712e-01  1.09625290e-01  1.15156236e-01 -1.30358163e-01
  5.32622013e-02  1.74349997e-01 -1.27649906e-01  6.96987320e-02]
[ 0.06137987  0.05374552  0.07119029  0.03733313 -0.08791088 -0.26298053
 -0.07622059  0.18006654  0.0088045   0.1115742   0.04287328 -0.13318641
 -0.02076228 -0.05260734  0.14592615  0.24892844 -0.05150691  0.08408444
  0.0319648   0.10139087 -0.04419062 -0.18332736  0.04177544  0.19452982
  0.01433829 -0.16713588  0.04393878  0.01536787 -0.03369558  0.0087806
 -0.10210868 -0.1200732   0.21098067 -0.04350138  0.07306606  0.25472482
 -0.02567687 -0.09920298  0.06949903 -0.09068027  0.15510445  0.01450916
  0.02786147  0.13786418  0.0223099   0.11288482  0.00945365 -0.0046854
  0.25017959 -0.25409142 -0.10749041  0.10694843 -0.15270427 -0.11764239
 -0.24153744  0.1346803  -0.06519301  0.01824035 -0.09541087 -0.02740225
 -0.08185491  0.05107867 -0.03704052 -0.13951956  0.02371295 -0.11224908
  0.12793904  0.24245021  0.11173018 -0.27120447 -0.0186965   0.02595157
 -0.08362046 -0.14416577  0.18753214 -0.06092028  0.13830475 -0.12105431
 -0.09091348 -0.09791007 -0.20457154 -0.10281053 -0.10357954  0.00644702
  0.0265838   0.12486795  0.13276517  0.24850802 -0.09223888 -0.23047668
 -0.19478674 -0.07273836 -0.0698804  -0.00996947 -0.11171574 -0.25109058
  0.07574141  0.1704214  -0.18581988 -0.17772567 -0.09448656 -0.19445717
  0.07044734 -0.08422757  0.15594616 -0.06016693  0.11780792 -0.15434964
  0.10260618 -0.11648696 -0.11863301 -0.08070168  0.09217171  0.14336969
 -0.08989109  0.12129    -0.0756772  -0.04919055 -0.17901561  0.00514981
 -0.0798482   0.09605424 -0.0290336  -0.16625321 -0.10249757 -0.06650928
  0.0203702   0.18085412]
[-4.29936841e-02 -5.19615170e-02  8.40349653e-02 -9.88903272e-03
  1.28419172e-02  2.00003818e-01 -1.39723393e-01  9.89206468e-02
 -1.67100526e-02  1.82793849e-02 -1.50387360e-01  1.45457207e-01
  1.33578334e-01  1.75055373e-01  2.57404389e-01 -5.93861567e-02
  5.48884334e-02  1.48874059e-01  6.73961973e-02 -9.19026188e-02
  6.42455735e-02 -1.10915633e-02 -7.87644434e-02  2.60218208e-01
 -9.04965677e-02 -2.30646108e-01  1.14565872e-01  1.42624162e-02
 -2.15291266e-02  1.70407529e-01  1.88670702e-01  6.12440522e-02
  1.60413466e-01  2.85293118e-02  3.50405019e-02 -1.65050867e-01
  5.36566231e-02  4.68960517e-02 -8.26174811e-03 -1.19751071e-01
 -7.21489824e-02 -1.08225957e-01  4.60535116e-02 -1.25685441e-01
  2.21818203e-01 -3.30994818e-02  8.48235148e-02  1.79434294e-01
 -1.41012541e-01  4.48013311e-02 -2.19196897e-01  2.29304299e-01
  2.07702652e-01  4.20884861e-02  1.27464800e-01  6.97090070e-03
  6.88319612e-02  8.86567254e-02  2.99965053e-02  1.34659909e-01
 -9.19782868e-02 -1.71215678e-01 -1.38554661e-02  7.54749847e-02
  6.25052139e-02 -2.20435391e-01  2.30356094e-02  2.36798992e-01
  1.88469442e-01  1.21346381e-01  1.84335096e-01  1.02683449e-01
 -1.85338843e-01  1.88304442e-01  7.10449181e-02  1.14392775e-01
 -2.48789760e-01 -1.03764793e-01 -1.04763918e-01 -8.80621813e-02
 -1.09421399e-01 -3.60261178e-02 -5.86026431e-02 -1.85745213e-02
 -1.09316987e-01 -5.74701512e-02  2.00945560e-01  8.88268496e-02
 -6.46937252e-02 -4.51452233e-02 -1.35645837e-01  1.30703132e-01
  6.70379918e-02  2.01516265e-01 -3.78703982e-02 -1.27753265e-01
  7.31527679e-02 -1.38287076e-01  1.10164496e-02  4.65515687e-02
 -6.24371520e-04  1.14277778e-01 -1.24208816e-03 -1.82551703e-01
 -1.35313163e-01  1.33013814e-01  1.01035941e-02 -1.89692472e-01
 -2.69000290e-02  6.64906902e-02  2.44733273e-01 -2.59672190e-02
  2.75081378e-01 -1.54711928e-01 -2.03618610e-01  9.22358951e-02
  5.64592007e-05  1.40553168e-01 -9.71883486e-02  1.45038649e-01
 -1.61550665e-01  2.45992346e-01 -1.16452437e-01  1.88267439e-01
  1.98206443e-01  5.91556300e-02 -3.49583709e-02  8.83418646e-02]
[ 0.1687534  -0.08722348 -0.15399135  0.18651591 -0.00821849  0.04968858
 -0.06697703 -0.04232808  0.07597455 -0.08287985  0.05757138 -0.02660109
 -0.02102985  0.05833264 -0.07382433 -0.119502   -0.07055579 -0.00704409
 -0.14937638 -0.01471218 -0.13982081  0.16462961  0.17854989 -0.09450597
 -0.0527732  -0.23152579 -0.20892302  0.26128004  0.13725592 -0.14411602
  0.03496523 -0.09343273 -0.16796616  0.04020275  0.26220168  0.04694085
  0.0053607  -0.05967212 -0.0552487   0.1832129   0.07976983  0.03638252
 -0.00692808 -0.20300839 -0.0103501  -0.1048305   0.12117322  0.00146585
  0.01456314 -0.11642414  0.13637115  0.08047192  0.09682294 -0.11556401
 -0.07889394  0.05251164 -0.10276138  0.04525797 -0.18607386  0.11113922
  0.27245993 -0.16002561 -0.23505348  0.12199858 -0.13034517  0.10150559
  0.00076152  0.04392478  0.03284978 -0.03544965 -0.05963857  0.07315149
 -0.16722745  0.21512817  0.03097083  0.07893093 -0.04207746  0.15076805
  0.02617207 -0.04293499  0.00739055 -0.15884215 -0.02352626 -0.00670332
 -0.16785524 -0.05453241 -0.09965237  0.02017644  0.06719504  0.10645893
 -0.1349903  -0.10088194 -0.1808426   0.03468585  0.03201814 -0.17928124
 -0.00202353 -0.08245863  0.01402056  0.12853172  0.044573    0.0328844
 -0.20368324 -0.06775407 -0.12040073 -0.13728633 -0.19137703  0.05299012
  0.01934795  0.05306007 -0.09418939 -0.03294322 -0.03131389 -0.20118908
  0.03078168  0.18574593  0.14879259 -0.03963251 -0.08031387 -0.02405526
 -0.15307856 -0.04514601  0.12922088 -0.02675479 -0.1896138  -0.25372105
 -0.1686912   0.25152143]
[-0.08404236 -0.08228888  0.21281683  0.04991237 -0.13580925 -0.02322871
  0.0901704   0.03253374  0.15447231 -0.18042795 -0.04768973  0.22174242
  0.11970955 -0.13567342 -0.09595124 -0.18901043 -0.07434309  0.06477902
  0.14306781  0.0233325  -0.16875942  0.0851232   0.00439119 -0.0004752
 -0.17832908  0.13632278  0.16585757  0.02223194  0.07408774 -0.20932057
 -0.09998993 -0.01520576  0.06388265  0.21046823 -0.22060835  0.1351069
  0.09853363  0.01840867 -0.08866625  0.01248869  0.10413492 -0.02218393
  0.07117457 -0.1014701   0.16962429 -0.07197067  0.19054392  0.0596313
  0.08661289  0.01786225 -0.04068154  0.07115155 -0.18774162  0.05860198
 -0.09922261 -0.11240822 -0.10316134  0.21672423 -0.0030329   0.08142843
 -0.18158697  0.10592919 -0.13565645  0.15871103  0.09701561  0.06614715
 -0.17451371 -0.06312814  0.18331585 -0.10901709 -0.0185835  -0.02902919
 -0.04310717  0.16305845  0.06107075  0.04150124 -0.12241653 -0.07123187
 -0.12608058 -0.02240494 -0.14343119  0.06173614 -0.19032368 -0.15324166
 -0.00139951  0.09096121 -0.0795097  -0.22119969  0.04409014 -0.08403398
  0.26548507 -0.20962605 -0.04347255  0.17351156  0.03699071 -0.03010185
 -0.09741101  0.10772324  0.13615248  0.24996392 -0.20814226  0.0717189
 -0.02369912 -0.07874978  0.09679219 -0.18587917 -0.03988869 -0.1543965
  0.04308923 -0.06640817  0.25934297  0.09081368 -0.01474523  0.11051192
 -0.20512158  0.01837281  0.18156754  0.06775316 -0.21234246 -0.09089375
 -0.24068044 -0.00418281 -0.25836573 -0.01074457 -0.12538516  0.03876786
  0.11876715 -0.06622532]
[-2.69572791e-01 -6.07961915e-02  7.64726722e-02  1.12191669e-01
 -1.76826862e-01  6.79928600e-02  2.47193372e-01  7.03574572e-02
 -9.51717817e-02  8.56923037e-03 -1.22255045e-01  1.20225331e-01
 -2.41096329e-01  1.21508705e-01 -8.60629512e-02 -1.73107471e-01
  1.77329727e-01 -1.00388643e-01  2.07053601e-02  2.02109480e-02
 -1.30980505e-01 -2.30656476e-03 -1.90887339e-02  2.42819595e-02
  8.16943462e-02  1.07867668e-01  1.06716796e-01 -1.09043636e-01
  3.92189474e-03  6.49693031e-02  5.40111388e-02  1.47946233e-02
  1.61620242e-02  4.15620328e-03 -1.29278479e-01  2.27105876e-01
  9.58636697e-02  1.31496462e-01  3.21472859e-03  3.28471354e-02
  4.95743978e-02 -1.01529955e-01  8.47197112e-02  4.28770527e-02
  1.82583709e-01  2.26807875e-01 -1.51271090e-01  2.32882413e-01
  1.59500982e-01 -2.88332120e-02  2.01712807e-02  1.01079776e-01
 -6.49589137e-02 -1.58553265e-02  1.54068222e-01 -1.40138865e-01
 -1.19972230e-01  6.71153093e-03  5.40464077e-02  9.20087995e-02
  1.31140513e-01  1.56787660e-01  1.41300194e-01  3.95933658e-02
  1.27931205e-01  8.83604870e-02  1.34783485e-02  3.01039240e-02
 -1.40994655e-02  1.58088175e-01 -2.62825794e-01  1.14443297e-02
 -3.86562142e-02 -1.34718200e-02 -7.84201316e-05 -4.09952381e-02
  2.57625705e-01  7.42657311e-02  2.02781463e-01  5.67982266e-02
 -1.37949797e-01 -1.18638869e-01 -6.05413475e-02  1.73152842e-01
  1.15402372e-01 -1.65277289e-01 -1.23610294e-01 -7.14247881e-03
 -1.03615592e-01 -8.83415974e-02  1.48911169e-01  2.35449487e-01
  1.88762831e-02  1.63321241e-01 -6.82298643e-02 -7.55336825e-02
 -1.07561050e-01 -5.03899720e-02  7.72366561e-02  1.17669015e-01
 -8.05934655e-02  7.15047817e-03  4.32214836e-03  5.34194537e-02
  5.09784245e-04 -5.57385457e-02  2.89714235e-02 -3.91048669e-02
 -1.90330155e-01  1.08869610e-01  1.56090046e-02 -2.11042775e-01
 -7.13995367e-02 -1.67593549e-02  1.08190123e-01  5.93029071e-02
  1.28807599e-01  1.21202038e-02 -6.21432510e-02  4.72057584e-02
  2.00363072e-01  3.57726208e-02  9.13543429e-02  1.79999937e-01
  2.59178307e-01  5.06503509e-02  2.37716460e-02  1.52195626e-01]
[-0.08985096 -0.06206969 -0.18304816 -0.25693504 -0.20775133  0.19299977
 -0.06579416  0.17608159 -0.06147077 -0.04722115  0.05985001  0.1014449
  0.04391898 -0.02530383 -0.0038287   0.04238858  0.09863717  0.01055483
 -0.20289462  0.00710966 -0.26588859 -0.25284651 -0.00084883  0.23267763
  0.04562965  0.07574992  0.10618948 -0.04217531  0.08448647  0.18332147
 -0.102856    0.27156347  0.05492056  0.22749673 -0.16651161  0.03562135
  0.27285153  0.09155015 -0.10641913 -0.03922642  0.08877195 -0.04483745
  0.14295022  0.03451449 -0.0542287  -0.10052967  0.03654246 -0.01707248
 -0.15611205 -0.01811892 -0.12782517  0.04859271  0.0214208  -0.02426928
  0.12543914 -0.11586624 -0.01150011 -0.06014061  0.02547853 -0.02449442
 -0.12051677 -0.11992601  0.08742329 -0.01260629  0.21777854  0.03426349
 -0.06094438 -0.13215114 -0.14940242 -0.26891366  0.25725609 -0.15099942
  0.18393787  0.21204405 -0.00557119  0.00200836 -0.15605131 -0.07253015
  0.23199988  0.00187401 -0.11827671 -0.14325823  0.27396986 -0.07930866
  0.11213949 -0.24493515  0.11609772 -0.26693429 -0.06273901  0.04046281
  0.19448403 -0.20704419 -0.09515099  0.23489748  0.12288812  0.08951254
  0.19499963 -0.03312383 -0.06409772  0.00675437 -0.03491175 -0.19251604
  0.11441348 -0.16720123 -0.0539435  -0.061635   -0.07517716 -0.00976097
 -0.14970999  0.10010902  0.10588157 -0.13227076  0.21248427 -0.15353526
 -0.05820912 -0.00615547  0.21114882 -0.16269382 -0.00353728  0.06161539
 -0.08030492  0.01128802 -0.02823712 -0.00377976  0.07143299  0.20516887
  0.14609977  0.22839577]
[-5.69217192e-02 -1.77917374e-01 -2.33087540e-02 -8.57059721e-02
 -4.56618324e-02 -2.14846084e-02  1.92391688e-01 -1.90419070e-01
 -8.18457056e-02 -1.57875277e-01  4.89069832e-02 -1.57289339e-01
 -6.77479260e-02 -7.67663957e-02  8.18657023e-02 -1.94367592e-01
  2.79290885e-01  5.36300987e-02  1.16761973e-01 -9.15676988e-03
 -1.91422376e-01  7.54780803e-03  5.57975051e-02  6.09150600e-02
 -7.91703997e-03 -3.13734185e-02 -9.25277085e-02 -2.14951534e-01
 -1.87122351e-01 -1.39550285e-01  1.53797840e-02 -4.33934958e-02
  7.31042879e-02 -1.36123935e-02  1.12749305e-01 -4.67801536e-02
  7.42602333e-03  5.02447288e-02  2.08260740e-01 -8.40156109e-02
 -7.92566096e-02  6.72653540e-02  1.38175165e-01 -3.09084691e-02
 -2.40031578e-02 -1.79242064e-01  7.71393140e-02  5.81969413e-02
  3.50309151e-02 -1.20135445e-01  1.73133721e-01 -2.50910463e-02
  9.30492207e-02 -1.32778575e-01 -6.01775156e-02  2.99478917e-02
 -8.43265819e-02  7.85811538e-02 -1.48690346e-01  1.53370362e-01
  2.88949707e-02 -1.94414368e-01  1.65754451e-01 -1.01569114e-01
  1.49985695e-01 -8.81096978e-02  2.27572671e-01 -1.87045383e-01
 -2.27785466e-01 -5.71040478e-02 -5.57736927e-03  3.66311158e-02
  1.93293102e-01 -6.25717647e-02 -2.98097921e-02  1.37707074e-02
  7.44083697e-02  2.34067717e-01  2.38058784e-02 -1.94885326e-01
 -1.37818897e-01 -9.60438490e-02 -6.03276549e-02  8.15300013e-02
  2.46781227e-01  1.05796319e-02  2.19688668e-01 -1.38729544e-02
  6.02618544e-02  5.75629695e-02  1.64704492e-01 -1.82173746e-01
  7.44508701e-02  2.34394887e-02  1.13861057e-01 -1.42054453e-01
  1.47139415e-01  4.65970753e-04 -2.00362264e-01  7.47643065e-02
  6.68139184e-02 -6.94665717e-02  2.58836197e-02 -1.16832570e-01
 -1.03227069e-01  2.41646389e-01 -2.48772647e-01 -1.60047189e-04
 -1.56039739e-01  6.95317591e-03 -1.16514741e-01  6.62355167e-02
 -1.52114994e-01  6.96134271e-02  1.22608277e-01  4.72810718e-02
 -1.79143087e-01 -2.17982203e-02  6.15448524e-02  1.10869047e-02
  1.90450009e-01 -1.37451263e-02  5.63452071e-02 -9.41635008e-03
 -2.18909136e-02 -2.84913670e-02 -4.56885610e-02  1.02038982e-01]
[-0.04938791 -0.0295017  -0.19648996  0.15535738  0.16450899  0.1615253
 -0.09286856 -0.06517133 -0.12710984 -0.19672696 -0.06791359 -0.21965159
  0.09545944  0.1124139  -0.01907126  0.03910389  0.16880742  0.13493451
  0.16269662  0.16041723 -0.09698347 -0.10696849 -0.04539169 -0.13961813
 -0.24872517  0.19982874 -0.01713865  0.0719089  -0.03742605  0.0868738
 -0.01303601  0.14359638  0.03756763 -0.08477911  0.10918484  0.26521809
  0.08789927  0.05700493  0.08698178  0.08122898  0.04251264  0.23421013
 -0.00645495  0.17054708 -0.0966373   0.08675431  0.12104721 -0.01215702
 -0.07616608  0.09524179  0.25439099  0.10282092 -0.04922015  0.00340617
 -0.01196022 -0.09972918  0.0582362  -0.09099211 -0.1197588   0.19178515
 -0.1054505  -0.01454882 -0.19251347 -0.18968795  0.08988339 -0.07846106
 -0.05566183  0.15569932 -0.01791825 -0.14777822  0.0376282   0.01417101
  0.03079042  0.13285891 -0.1990779   0.02337011 -0.07343329  0.00753893
  0.14447481  0.093408    0.00384803 -0.1046214   0.04120499  0.10143618
 -0.21116629 -0.27297849 -0.10046436 -0.17016178 -0.25143457 -0.20325096
  0.15116871  0.17679081 -0.02576551 -0.12588025  0.03212288 -0.23840486
 -0.22786281  0.02373489  0.20177524  0.11557067  0.01904945  0.20718536
  0.10296654 -0.00102915 -0.24226989 -0.03021481 -0.07109091  0.0855224
 -0.15073892  0.13288531  0.01190168 -0.14304094 -0.03332278 -0.11373525
 -0.18876468 -0.243529    0.11640009 -0.15947859  0.13335114  0.23547538
  0.04012643 -0.01197875  0.17701191  0.08328646  0.05462054 -0.03888301
  0.02018746 -0.23116942]
[ 3.05714641e-02 -2.10522264e-01 -3.30613676e-02 -3.35733109e-02
 -8.25034773e-02  3.15294165e-02  9.71726159e-02  7.90437084e-03
  9.69225989e-02  6.90167222e-03 -1.02741571e-01  1.02770992e-01
  2.05292510e-01  1.35163847e-01  7.53814462e-02  5.26326329e-02
 -2.02199168e-01  2.04998948e-01  1.23308041e-01  2.20640739e-02
  5.29563770e-02 -5.92120989e-02  1.02563749e-01 -2.12711849e-01
 -2.44932870e-01  1.98584400e-01  2.29689070e-02  2.63910802e-03
 -2.24374655e-01  6.92480236e-02  1.08463902e-01  6.37439013e-02
  1.56114572e-01  7.66511617e-02 -6.22743208e-02  1.55586031e-01
  1.67677051e-01  4.66237905e-03 -5.25114706e-02  1.40143131e-01
 -2.39357729e-01  2.38072898e-01  1.31232503e-02 -6.76348506e-02
 -4.79488686e-02 -3.85699642e-02 -1.26303149e-01 -6.80030786e-02
  1.23833039e-01 -1.76266697e-01 -1.70052839e-02 -6.09697347e-02
  1.23632963e-01  7.26850022e-02  2.44158508e-02  7.15184338e-02
 -5.29181042e-02  9.83955917e-02 -6.18250398e-02  1.86174242e-02
  2.10420714e-01  1.63264607e-01  7.44404117e-02  1.37972382e-01
 -1.23363322e-01  4.08248463e-02 -1.23465848e-01 -2.62228584e-01
  2.24661949e-02 -5.54810503e-02  1.00157599e-01  1.56046892e-01
  5.81567228e-02 -2.04972318e-01  4.22905533e-03 -1.65444485e-01
 -5.11997665e-02  8.63428038e-02  2.58710163e-01  1.08704847e-03
 -8.36515703e-02 -8.96322288e-02  5.91603805e-02 -1.08019244e-01
 -3.24509742e-02 -9.22681660e-02  5.77225106e-02  3.06486259e-02
  6.07245230e-02 -1.38174629e-01  4.72659618e-02  6.07345082e-02
  5.57342823e-02 -1.56026038e-01 -1.13682226e-01 -1.85193487e-02
  1.63575177e-03 -5.59487038e-02 -2.36265685e-04 -1.19428955e-01
  3.83053403e-02  4.47756301e-02 -1.13393702e-01  1.38564706e-01
  5.32291410e-03  7.56846018e-02 -7.02271316e-02  1.01350281e-01
  1.92186965e-01 -2.34808155e-02 -2.01901359e-01 -1.60492908e-01
 -1.06405737e-01 -1.41769412e-01  1.03078188e-01  5.22665812e-02
  5.26575986e-02 -1.62566103e-01  7.39518287e-02 -7.72433907e-02
  1.66105194e-01 -7.41878723e-03  1.83328134e-01 -7.28028537e-02
  1.41877183e-01  1.03108810e-01 -3.64542889e-02  6.26055253e-02]
[-0.06347942 -0.14942509  0.02950682 -0.2717514   0.16126852 -0.19519558
 -0.01743996 -0.00351541 -0.18492585  0.16293066 -0.02407646 -0.03363949
  0.01926402  0.10517929 -0.00702138  0.06305387  0.0405024   0.14659879
 -0.15468019 -0.01591745  0.24210645 -0.11523406  0.01657191  0.2034057
  0.12990745 -0.03754623  0.02319252  0.17249492 -0.04124262 -0.08285556
  0.01489843 -0.07354852 -0.02626731 -0.12691739  0.1507757  -0.16625858
  0.04350231 -0.01777736 -0.01369112  0.16683244 -0.03442225  0.18781643
 -0.10502464  0.06058513 -0.11548821  0.13552344 -0.029795   -0.15061528
 -0.05087664  0.06261954  0.1087859   0.09325149 -0.12785934  0.05948695
  0.22660864  0.09411171  0.10460656 -0.0753494  -0.27109598 -0.02165836
 -0.01360084 -0.16912811  0.11544011 -0.12140374  0.28389694 -0.16135098
  0.11485177 -0.23489585  0.02481917 -0.19870962  0.09073523 -0.23264857
  0.12223548  0.02956309  0.13790527 -0.03808395 -0.032642   -0.19291014
  0.15767594  0.02803157  0.10788208 -0.17375514  0.06361835  0.09896329
  0.13267948 -0.09443196 -0.21806307 -0.00568663  0.1043085  -0.20614559
  0.06915995  0.07709435 -0.21505622 -0.18638631 -0.02731359  0.1150546
  0.03999691  0.12502035  0.061291   -0.01733136 -0.07622504 -0.01397679
