layers 10
layer 0 Dense
2 128
[ 0.76635731  0.67616169  1.17145285 -1.30340629 -0.53510867  0.37523941
 -1.54341223 -1.7138271  -1.02541166 -0.8925311  -2.03756705  0.23777186
  1.32553937  0.14907579 -0.4216596  -1.72317857  0.77661048 -0.61500138
  1.92412177 -1.58500007  1.27951348  2.01916948  0.1848328   1.02373029
  1.03406312  1.31204171  1.24208162 -0.79048869  1.10883928 -1.93813033
  0.90123408 -1.97395184  0.42850869  0.63921579 -0.22501533  0.42335387
  0.03368399 -1.14732431 -1.94888262  0.22991844  0.1355586   1.03257121
 -0.87371908  0.63220999 -0.41967814  0.50396009  0.64173135 -1.05618961
  1.35777101 -1.75977566  0.83482932 -0.4069632  -0.12445443 -1.27428057
  0.11848524 -2.06906593 -0.16041246  0.86215151 -0.53505024 -1.32894401
 -0.6427025  -0.5000655  -1.06338965  1.04691911 -1.22311304  0.26531317
 -1.75792914 -0.71681978 -0.92291873  0.55569882 -0.06294869 -1.1831781
 -0.721541    0.44228851 -0.02375748  0.44991825 -1.39988888  0.21800414
 -0.79915987 -2.07890892  0.5151607   0.24610956 -2.16145888  0.09184407
  1.35998794  0.76929453  0.97108777  1.71369905 -0.4690706  -0.84657857
  0.39700217 -0.77068469 -0.01006902  0.6609895   0.89013658  0.19121765
 -0.03713101 -1.9092436  -0.49164633 -2.05702227 -1.31994072  1.03993173
  0.29339086  0.90830863 -1.57301564 -0.05681293 -0.94710239  2.24106058
 -0.69218709  0.72367045  1.65958499 -1.29923762 -1.29402248  0.60643001
  0.3259539  -0.58331662 -0.01666651  1.15360093 -0.04832931  1.62231462
 -0.61051551  1.15683218 -0.08044443 -1.43019185 -0.73642736 -1.39212332
  0.13334599 -1.0129107 ]
[-0.66280668 -0.92669158  0.93104484  1.49757808 -2.02305492  1.28389752
 -1.03048956 -0.57687499  0.72888009  1.03638514 -0.32214084 -1.42147954
 -0.68201029 -0.58687247 -1.76557152 -0.82225889 -0.24702278 -0.32887914
  0.32527896  0.14394181  0.21609081  0.18834548 -0.43563484  0.83804043
 -0.79862887  0.38688734  1.13838434  0.13593237 -1.6528512   0.28046869
  0.37917656 -0.28100658  0.98212135 -0.23094548  1.11321919  0.07895986
 -1.90184536  0.40789561  1.73048397  1.00721286 -0.65057972  0.03792681
  1.0028913   2.15012936  0.3310516  -0.53782783  0.00886489  0.31275897
 -0.29803874 -1.04683278 -1.19626929  1.35453845  1.08484836  0.38851416
 -0.71593852 -0.1895181  -0.91595676 -0.57307639 -0.19096585 -1.6574006
 -0.0632034   0.52621422 -0.22916184  0.64076771 -0.22378516 -0.87979389
 -1.35853717 -0.29461629  0.83060777 -0.89149546 -0.19736703  1.00965139
  0.69699343 -0.35129233 -0.87634773  0.6127359  -1.39151194  1.53428448
  0.13222794  0.21267529 -0.21423772 -0.84798105  1.10826269  1.27887448
 -1.36947358  0.25852321  0.22341773  0.69201594 -0.3931137  -1.04364396
  0.82534093 -1.02569057  0.02793497 -0.0049584   0.18126682 -0.46410452
 -1.17776638  0.64626834 -0.33755074 -1.24704895 -0.77981389  0.21031669
 -1.30158727  1.1793519  -0.88655001 -1.05823708  0.84514981  1.90645804
 -1.04956373  1.40646435 -0.76405438  0.2965909   0.06602     0.59741055
  0.31035169  0.04782684 -1.35418243 -0.85871816 -1.42507863  0.45001297
  1.62632543 -1.10550425 -0.7113973   1.26208855  1.20365142  1.10632729
 -0.45136175  0.03175722]
[ 4.39079964e-03 -6.96474021e-03  1.08125466e-03 -2.29965426e-08
 -2.29189811e-03  4.21834451e-03 -5.12165849e-03  2.66275263e-04
  4.68528080e-03 -2.00257011e-02  8.97762142e-08 -7.44438789e-03
  6.65769446e-03 -9.46774968e-08 -9.05237100e-03 -3.59248442e-08
  6.89592933e-03 -9.95989290e-03  8.60208851e-03  9.61246565e-03
 -6.67747259e-06 -8.66541572e-03 -1.02675962e-02 -8.49604876e-03
  7.23119143e-03  1.09106305e-03  4.70584260e-03  1.66659910e-03
  5.93963485e-08  4.00213555e-03 -1.47190373e-02 -2.08098645e-03
 -3.46726629e-03 -6.91893797e-03 -3.42923085e-03  1.30179519e-03
  4.35033599e-03 -2.20881393e-08  2.02242314e-03 -1.90915820e-03
  2.16095719e-03  4.35703719e-04 -7.32744540e-03  5.53729005e-08
 -5.41405555e-08  9.02654711e-03  4.88464806e-08  3.39320687e-03
 -5.00638858e-03 -5.35583159e-03  1.02804912e-02  1.09199655e-02
 -8.88994768e-03  1.67035696e-08 -4.39344039e-03 -1.97135194e-03
  2.92676496e-03  7.58269908e-04 -2.16649331e-03 -9.87923143e-08
  3.36048803e-04 -1.36712021e-02 -6.44362407e-08  4.66439973e-08
 -4.55934362e-03 -7.76296271e-03 -4.43643937e-03 -3.20140809e-03
  9.67836702e-03 -5.78747393e-03 -6.92510153e-03  2.18300206e-08
 -1.73608161e-02 -6.18088957e-03 -3.14888950e-03  4.90713106e-03
  4.70512959e-04 -1.01557788e-02  1.46471000e-03  1.60186941e-02
 -3.57776488e-03 -1.42482990e-07 -1.09315539e-04 -1.14279731e-02
 -1.06055743e-02  3.75632924e-03  3.58200698e-03  3.03685420e-03
 -8.72743090e-08 -7.65026566e-04  9.26916244e-04  8.42443166e-03
 -3.81133074e-08 -2.96552386e-04 -2.21806910e-03  2.10595357e-03
 -4.20956685e-03 -1.09688075e-02 -2.01093608e-02  1.27923311e-02
 -9.62751987e-03  9.58801682e-03 -5.18960721e-03 -2.51755684e-08
 -7.07129932e-03 -4.73689259e-03 -8.04546129e-04 -3.03412161e-03
  1.07156120e-07 -5.61330473e-03 -9.81319459e-03 -4.20954021e-08
 -3.22826530e-09  5.27814251e-08  4.01309205e-08 -7.33800697e-03
 -3.50386672e-03  5.02451332e-03  1.78827407e-03  8.80810251e-04
 -4.04077736e-03 -6.19230237e-08  4.15168227e-04 -1.34687534e-03
 -2.25269650e-03  1.02340926e-02  1.24952807e-07  8.57411691e-03]
layer 1 Activation
tanh
layer 2 Dense
128 128
[ 0.09602942  0.08436544  0.14661826 -0.1632223  -0.06652382  0.04678374
 -0.19307125 -0.21452796 -0.12877443 -0.11156461 -0.25450308  0.02994126
  0.16564757  0.01882255 -0.05266987 -0.21517664  0.09658867 -0.07661029
  0.24021415 -0.19797323  0.15981621  0.25263622  0.02322562  0.12801436
  0.1289666   0.16393519  0.15566437 -0.09875092  0.13856462 -0.24268033
  0.11269332 -0.24671505  0.05299546  0.07995196 -0.02799961  0.05286063
  0.00436064 -0.14349433 -0.2433162   0.02903233  0.01710319  0.1289029
 -0.10945247  0.07884828 -0.05235693  0.06294867  0.08021496 -0.13196777
  0.16978245 -0.22000168  0.10426737 -0.05082022 -0.01559756 -0.15914809
  0.01483461 -0.25887398 -0.02034887  0.10778748 -0.06643936 -0.16619926
 -0.0803622  -0.06231385 -0.13275663  0.13077525 -0.15308299  0.03336256
 -0.21999966 -0.08972505 -0.11567538  0.06961901 -0.00782786 -0.14772218
 -0.08988862  0.05538658 -0.00280569  0.05575477 -0.17508381  0.02778845
 -0.0997683  -0.26018983  0.06450244  0.03061001 -0.27032334  0.01143449
  0.16989406  0.09612129  0.12118033  0.21414514 -0.05853788 -0.10581016
  0.04972777 -0.09625407 -0.00142904  0.08256828  0.11133073  0.02402092
 -0.00447447 -0.23861636 -0.06140578 -0.25711632 -0.16521146  0.12987405
  0.03646016  0.11334842 -0.19660008 -0.00701013 -0.11858225  0.28009299
 -0.08617814  0.09051115  0.20763991 -0.16234621 -0.16184143  0.07556087
  0.04063367 -0.07289408 -0.00226082  0.14393795 -0.00612037  0.20280805
 -0.07691885  0.14449983 -0.01022577 -0.17896352 -0.09210458 -0.17416062
  0.01683455 -0.12681085]
[-0.08268535 -0.11596189  0.11650868  0.18700953 -0.25266781  0.1604344
 -0.1289223  -0.07228642  0.09075554  0.12948993 -0.04014771 -0.17757621
 -0.08525713 -0.07324345 -0.22070159 -0.10264506 -0.03115275 -0.04097521
  0.04049981  0.01811913  0.02692943  0.02366112 -0.05441798  0.10475525
 -0.09998206  0.04832645  0.14256512  0.01703709 -0.20663055  0.03482033
  0.04737585 -0.03512004  0.12239698 -0.02886284  0.13921476  0.00984239
 -0.23761845  0.0509436   0.21650214  0.12607297 -0.08121258  0.00464281
  0.12518928  0.26866327  0.04144563 -0.06722778  0.0011123   0.03914929
 -0.03723824 -0.13089262 -0.14955271  0.16938557  0.13554823  0.04864444
 -0.08949853 -0.02384897 -0.11466481 -0.07161025 -0.02360628 -0.20722511
 -0.0079087   0.06585382 -0.02853844  0.08003    -0.02811445 -0.10987486
 -0.16999344 -0.03691999  0.10366484 -0.11136407 -0.02466936  0.12631553
  0.08726148 -0.04387105 -0.10945689  0.07631189 -0.17399217  0.19208815
  0.01661638  0.02643067 -0.02672944 -0.10609726  0.13843695  0.15979215
 -0.17128452  0.03230621  0.02781581  0.08647404 -0.04908201 -0.13045969
  0.10324041 -0.1281319   0.00339074 -0.0006624   0.02268675 -0.05792757
 -0.14713029  0.08076784 -0.04222526 -0.15583361 -0.09764849  0.02624979
 -0.16284753  0.14730836 -0.1108293  -0.13224294  0.10551654  0.23826883
 -0.13097194  0.1758162  -0.09541707  0.03710865  0.00820224  0.07452628
  0.03872331  0.00596621 -0.16940048 -0.10747837 -0.17817121  0.05627036
  0.20289993 -0.13825223 -0.08902006  0.15763441  0.15041266  0.13823555
 -0.05631027  0.00387823]
[-0.24536154  0.13365939  0.25272093 -0.01154282 -0.09541892  0.13249789
 -0.00401005 -0.01400836  0.14366037 -0.03480199  0.07762498  0.07206834
  0.21994941 -0.04942864  0.05341367  0.12108578  0.0596638   0.10235077
 -0.01570056 -0.02498497  0.02478975 -0.08490825  0.18625308  0.0456716
 -0.03707283 -0.28376228 -0.05761395  0.02236417 -0.11691319  0.01566855
  0.09491998 -0.09903941  0.04828043  0.22293578 -0.1387073  -0.07586315
  0.27358685  0.06808018  0.11493486  0.111767    0.15543354 -0.02029272
 -0.07421232  0.0102412   0.11796656  0.0747022  -0.09473981 -0.15725362
  0.10960289 -0.07058023 -0.11298884 -0.09572026  0.26769364  0.20935203
  0.05162165  0.21090395  0.02763913 -0.12809337 -0.04786745  0.2785605
 -0.0621044   0.10471774 -0.00250641 -0.05234211 -0.13350847 -0.21688503
 -0.11929166 -0.05337891 -0.0686479  -0.09752737 -0.12776873  0.00623206
 -0.21084445 -0.15669822 -0.1223814  -0.22849912 -0.03504677 -0.09015337
  0.09745571 -0.06339274 -0.09196322  0.19429089  0.01058601  0.1722326
  0.19049948  0.24505191 -0.0464553  -0.04360074  0.01317892  0.16143313
  0.05072032 -0.06590902  0.14116151  0.04622573 -0.04826947  0.03607867
  0.05640447 -0.20311809  0.01744757  0.19669239 -0.05382999 -0.01372373
 -0.07351213  0.06888746  0.00334722  0.19614972  0.06982584 -0.07303958
  0.13104858  0.08905823 -0.00994326 -0.08400913 -0.01541592  0.21463108
  0.21829116 -0.09302754 -0.16339919 -0.28110812  0.07984532  0.07438676
 -0.17210363  0.01971322 -0.08932254 -0.0442133  -0.03900212  0.14261683
  0.15628736 -0.13622377]
[ 0.09246453 -0.04446935  0.06426814  0.06452112 -0.19474141 -0.21778629
  0.17680245  0.12014785  0.01841033 -0.1905788  -0.00727527  0.18635956
  0.00244996  0.14299741 -0.06407566  0.11222637  0.22640745  0.0251882
 -0.09290081 -0.08765136  0.14520157  0.03007347  0.11303984  0.08882924
 -0.15892303  0.07912986 -0.02362286 -0.05407889 -0.09770703  0.13654566
 -0.00245817  0.17136174  0.07814685 -0.26712628  0.04823837  0.23161563
 -0.09151817 -0.01247189  0.02480833 -0.04719015  0.03826835  0.0996577
 -0.02969029 -0.07495173  0.16793868 -0.12411293  0.04701753  0.08717898
 -0.00437483 -0.14739274 -0.27910192  0.02529001 -0.15915484  0.13940441
  0.2665284  -0.10243611 -0.09696659  0.12042173  0.03839807  0.21973852
 -0.06990812 -0.16683575 -0.01743542 -0.08214436 -0.18094027  0.00589189
 -0.2030605  -0.09671288 -0.13585721  0.18907534 -0.1440141   0.21727362
 -0.10753268  0.05012795  0.15514591  0.05404943 -0.12241763 -0.03040891
  0.00741399  0.00814678  0.18847668  0.11253761  0.19813779  0.24505152
  0.02331964 -0.2082157   0.02512127 -0.03365529  0.15375035 -0.09906675
 -0.25495288 -0.10012137 -0.04777351 -0.12941046  0.09108482  0.154173
 -0.21528597  0.22314611 -0.02032879 -0.07735965 -0.00388658 -0.0085943
 -0.060015    0.04085778 -0.1377192  -0.18263721  0.14728052 -0.00214703
  0.00828436  0.08441655 -0.1698842  -0.03515519 -0.09082497 -0.03192675
  0.073962    0.0244545  -0.10990594  0.28384728  0.1317611   0.17020076
  0.04491187 -0.04098599 -0.04766813  0.11410734  0.01907176  0.00620542
  0.17885729 -0.0965414 ]
[-0.04010392 -0.0427302   0.11143321 -0.0342126  -0.1117168   0.08540617
  0.01416404 -0.08509336  0.2025982  -0.01694589 -0.16269697  0.16062586
  0.00593523 -0.03060322 -0.06761016 -0.01013667 -0.1821023  -0.12454953
 -0.18574383  0.08180115 -0.18656408 -0.18587595 -0.01471629 -0.02489645
  0.09862984 -0.14907442 -0.13592218 -0.20413999  0.00942803 -0.1647549
  0.25719652  0.01227486  0.19709057  0.14994812 -0.16750319 -0.18239754
 -0.00873875 -0.0724756  -0.06532406  0.03494799 -0.01157342 -0.04728693
 -0.22718475 -0.0278422   0.1386524   0.03191452  0.04968389 -0.09540003
 -0.01138317 -0.15458775 -0.07238725 -0.13477335 -0.08435164 -0.04138331
 -0.23400219  0.18681322 -0.1816342  -0.11466883  0.16179528  0.12648682
 -0.09106618 -0.22551982  0.14772661  0.15810623  0.01115745 -0.266797
 -0.10192099  0.11679107  0.23611558  0.15668971 -0.1700043   0.24406676
  0.06604285  0.20666617  0.07245108 -0.1681895   0.01409161 -0.1491228
 -0.12727079  0.14570715 -0.02573261  0.01694524  0.27758916 -0.1862181
 -0.16339125  0.18607455  0.15777391 -0.02375559 -0.03777461  0.19503426
 -0.05932411  0.00551147 -0.24756291 -0.09294034 -0.11722668  0.06849277
 -0.27287399 -0.03094778  0.05800563  0.14049953  0.14312327 -0.06934974
  0.03000713  0.09575845 -0.10539488 -0.08896837 -0.04457944 -0.11598219
  0.16186492  0.01335687  0.1635882  -0.06196012  0.17901249  0.05668527
 -0.0747286  -0.18703796 -0.00394799  0.03052475 -0.05672432 -0.05624252
  0.21836278 -0.17894148 -0.06373708 -0.06796608 -0.01849235 -0.01834627
  0.06124201 -0.14067047]
[ 0.07555194 -0.13514891  0.11032751 -0.12678063  0.10152041  0.04323374
  0.11182196  0.10037102  0.18555566 -0.0916086  -0.03556323  0.00745529
  0.09020871 -0.0572536   0.01743937  0.02723522 -0.24941316  0.06587092
  0.15305373 -0.12523091  0.00940878  0.22648789  0.05821889  0.04778939
  0.27763053  0.19189033  0.07297972  0.0144962   0.1904668  -0.1003892
 -0.1759202   0.20414494 -0.05028255 -0.03302338  0.02336912  0.18138909
 -0.06223689 -0.28253614 -0.16845701  0.07976595 -0.0365441   0.12448132
 -0.09636609  0.02845741  0.1857325   0.09911919  0.15510563 -0.06765384
 -0.13229904  0.03909524  0.15956271  0.12790853 -0.17903064 -0.01086423
 -0.06116952 -0.07578822 -0.07363656  0.04600366 -0.12018367  0.04382612
  0.04773486  0.01388745  0.1011517  -0.05277266  0.00050756  0.00049155
 -0.12072489 -0.09813854  0.26095172  0.0723998   0.13241102  0.22510288
  0.05519001 -0.03210647 -0.08474423 -0.05942491  0.06553787 -0.0468273
  0.16168801  0.06589714 -0.25654302  0.17647568 -0.19490646  0.05575601
 -0.16736271 -0.11604838 -0.26312162  0.08836914  0.06647812 -0.04736742
  0.19840057  0.04908994 -0.02122363  0.05235752 -0.22780049 -0.01829638
 -0.16822673  0.13498462  0.00551065  0.02752501 -0.01077722  0.10224916
  0.12391494  0.05685498 -0.10883234  0.13700487 -0.05659848  0.17272092
 -0.11134073  0.05835137 -0.00113474  0.16125779  0.01738376  0.0060157
  0.10936858  0.04214207  0.06316843  0.03576598  0.0877182  -0.12083302
 -0.15802943 -0.01279998  0.16128442  0.15618253 -0.15219875  0.26454703
  0.18198751 -0.2645779 ]
[-1.05079779e-01  1.07258017e-03 -5.57300225e-02  7.54775317e-02
  9.99039347e-02  5.16401573e-02 -3.91881475e-02 -4.30678500e-02
  2.66313297e-04 -1.08830301e-01  1.16732567e-01  4.32657994e-02
 -1.80779554e-01  2.48876734e-01  1.60818138e-01 -2.84503810e-01
  7.63580467e-02  7.83070866e-02  1.87496362e-01 -1.37636282e-01
 -1.83712256e-01  7.56746453e-02 -1.39044255e-01 -1.03296526e-01
 -1.47526986e-02 -1.22596534e-02 -4.64640699e-02 -1.31954770e-01
  2.45579258e-02  1.57595001e-01 -4.45099784e-02 -9.13739011e-02
 -2.66197026e-01  1.00381620e-01  1.32889560e-01 -8.72217603e-02
  1.40122149e-01  1.18500882e-01 -2.13430484e-01 -1.70441683e-01
  1.41099944e-02 -1.64984494e-01 -8.50052303e-02 -1.38324835e-01
 -8.59130872e-02 -1.66148000e-01  6.15910729e-02  1.05960244e-03
  3.84193139e-02 -1.60250698e-01 -2.53159424e-01 -2.27041584e-02
 -2.76237161e-01 -2.51086453e-02  1.45727222e-01 -6.59988468e-04
  1.16502128e-01 -3.55920584e-02 -5.02049722e-02  7.43979962e-03
 -8.21438328e-03 -9.05448688e-02 -2.27145652e-01  1.66014527e-01
  1.01360415e-01 -9.85374930e-02  1.40916816e-01 -7.88755553e-02
  7.33245129e-02 -9.88796764e-02 -2.37863721e-01  9.31362970e-02
  7.11508015e-02  1.25845210e-01  6.15175891e-02 -1.01558177e-01
 -4.18127708e-02  6.63533114e-02  2.35814879e-02 -1.13729996e-01
  5.28133200e-02  3.93507322e-03 -3.42049288e-02 -1.14693573e-01
 -6.09963919e-02  3.74511773e-02  1.54256197e-01 -2.20948336e-02
 -1.53329984e-01 -1.13097912e-01 -7.90644164e-02  6.35747502e-03
  1.27060260e-01 -1.24058492e-01 -1.27101485e-01 -1.19158097e-02
 -2.73017886e-01 -7.82551006e-02 -8.02416053e-02 -6.95142406e-02
 -1.83582962e-01 -1.60657544e-01  4.46908840e-02  1.55397652e-01
 -1.44089615e-01 -1.39240946e-01  9.34062698e-02  1.54261958e-01
 -4.60726446e-02 -1.29262626e-01 -1.71312665e-01 -1.59550555e-01
 -8.69805878e-02 -8.93089402e-03  1.65386026e-01 -2.23202382e-02
  3.06630347e-02 -2.64980702e-02  7.30004868e-02 -8.86659063e-02
  2.27026853e-03  1.76805686e-01 -8.23520884e-02  1.75217242e-01
  1.82059033e-01  1.91858851e-02 -2.23902933e-01  7.58168718e-02]
[-4.51709304e-02  1.47401249e-01  1.78884024e-01 -2.34373638e-02
 -2.81981121e-02  4.29429062e-02 -2.13582462e-01 -1.63766552e-02
 -1.28776950e-01 -1.43331399e-01  1.28267346e-01  7.72838311e-02
  1.91748568e-01 -3.29823755e-02  1.90730406e-01 -1.00756128e-01
  3.94849435e-02 -1.12649164e-01 -1.32635839e-01 -2.99172129e-02
  7.71356415e-02  5.36714508e-02 -3.72567572e-02 -2.22244973e-02
 -6.60864294e-02 -1.00551800e-01  2.05882226e-01 -2.23946128e-03
 -1.22136085e-02 -9.46304193e-02 -5.59232697e-03 -5.02981365e-02
 -1.86610304e-01 -1.54394663e-01  2.53323873e-02 -5.31775313e-02
 -9.63267260e-02 -1.86843603e-01 -2.00584040e-02 -1.83765243e-01
 -5.48789722e-02 -5.36978144e-02  2.61196060e-02 -8.80361681e-02
  1.42552251e-01 -1.88926912e-01 -3.54675685e-02 -9.83920651e-02
  1.94772832e-01 -2.56585491e-01 -5.66163283e-02  8.90441060e-02
 -1.30200280e-01  5.02960913e-03 -4.89612528e-02  1.57648830e-01
 -5.75090391e-02  2.65539717e-02  6.59694881e-02 -1.50756314e-01
  4.62808377e-02  1.05952075e-01 -2.78897061e-01  1.46457201e-01
 -9.87853719e-02 -1.29043840e-02  4.95586185e-03  7.49920210e-03
  1.09160462e-01  2.71899335e-01  1.82983027e-01 -5.07972608e-02
  9.80309464e-02 -1.73096302e-02  2.13189675e-01  1.00165207e-01
 -7.69192031e-02 -2.29272027e-01  5.32531899e-02  2.31642192e-01
 -1.16963182e-01  1.46923820e-01  3.12425938e-02 -5.52948552e-02
  1.37840067e-01  8.48979225e-02  1.38812365e-01 -1.77921543e-01
  1.10377685e-01 -1.95849314e-01  4.65803266e-03  6.94498565e-02
 -6.22181078e-02 -4.46345893e-02 -9.07680707e-02  1.03503131e-01
  1.43574568e-01  1.72564807e-01  9.46548883e-02  6.16043317e-02
  1.35642358e-04  1.17404353e-01  2.47083439e-02  7.40122246e-02
 -1.75202227e-01 -2.14987550e-02  1.64920569e-01 -1.73022042e-01
 -6.63688227e-02 -2.07101862e-01 -4.91519614e-02  1.53702301e-01
  1.60734825e-01 -1.76736409e-01 -1.88988038e-02 -1.62350307e-01
 -1.68416772e-01  2.28792705e-01 -3.16824329e-02 -1.82098892e-03
 -3.51358377e-02 -3.07264964e-02  1.48072516e-01  2.27196109e-01
  6.77068094e-02 -2.47364503e-01 -7.46085558e-02  8.54210147e-02]
[ 0.09473231 -0.07544327 -0.06877216 -0.06746424 -0.10820418  0.15545716
 -0.23934746 -0.09130322 -0.25226675 -0.22520222  0.00247559 -0.06618616
  0.14112811  0.14119907  0.28186479 -0.070697   -0.16400853  0.06000509
 -0.04508862  0.13827758 -0.1055536  -0.12694141  0.05917889 -0.14662737
 -0.07601113 -0.25869802 -0.09491615  0.0267235   0.0856672  -0.06224743
 -0.12555536 -0.01597287  0.0038296   0.0192841   0.10107743 -0.05351846
 -0.12678961 -0.17405293  0.01130815 -0.04796297 -0.15225286 -0.24522557
 -0.06921827  0.13908634 -0.21794791 -0.00421355 -0.21397535  0.10203366
 -0.13717405  0.01426455 -0.19559287  0.06295939  0.11322377 -0.13628664
 -0.00686917  0.10603266 -0.24163518  0.02979233  0.04649451 -0.00198758
  0.06550333  0.15686165  0.11657364 -0.03062305  0.11760246 -0.12878959
  0.04987198  0.17929245 -0.25290374 -0.23714693 -0.20029774  0.02457137
 -0.12709559 -0.12386735  0.00694399  0.02223167  0.00206056 -0.16641391
  0.01355311 -0.12958794  0.18853747  0.05653981  0.0545617   0.22498618
  0.01219707  0.12274889  0.23804841 -0.11130646 -0.03008608  0.22591054
 -0.20613429  0.1271618   0.0370741   0.08264665  0.12117773  0.11292942
  0.09566624 -0.16250387 -0.27666513 -0.09922438 -0.05982429  0.17361714
 -0.01195584  0.10666969  0.04563107 -0.09042409  0.02034576 -0.22807273
 -0.08910195  0.13650755 -0.08114288  0.165275    0.08028558 -0.24878416
 -0.22811247  0.00405002 -0.01969554 -0.0708856   0.17110317  0.16254254
  0.10035786  0.18546029 -0.2022114  -0.05763039  0.16943265  0.03344048
 -0.10322171 -0.0652973 ]
[ 0.05382476  0.07448715 -0.10649677  0.24953945 -0.02757446 -0.26976985
  0.1328977   0.16440873 -0.13162428  0.06343621  0.08669718 -0.05892434
 -0.05129208  0.03894753  0.04683638 -0.20639735  0.21622192 -0.05537289
 -0.18282983 -0.06134803 -0.1023634   0.00107585  0.10466371  0.09035316
  0.11881323  0.10243581 -0.25552228 -0.01679277  0.07868874  0.04384809
 -0.08752881  0.2230747   0.1414529   0.07180492  0.00495797 -0.02863575
 -0.03804675  0.25820381  0.10619673  0.04668093 -0.00176682 -0.07760019
  0.19712133  0.14900613  0.11267421  0.00506092  0.19358723 -0.08865348
 -0.16241372 -0.16287442 -0.07993787 -0.19331428 -0.11032293  0.17550095
 -0.04268389  0.15686249  0.16313983 -0.19250596 -0.09813614 -0.22988204
  0.03939875  0.13709085 -0.11319562 -0.20735349  0.15596725  0.07008281
 -0.03219547 -0.10953492  0.01413461 -0.11949643 -0.06055415  0.10135976
  0.06155439  0.06837486 -0.24688931  0.11575819 -0.07454642  0.03951801
 -0.18175315 -0.10066137  0.20248629  0.05797944  0.27879352 -0.06804388
  0.05481613  0.08575527  0.04102407 -0.07279165 -0.15162458 -0.01694346
 -0.02345186 -0.15267894 -0.00516183  0.2153243  -0.16427319 -0.08679355
 -0.06824828 -0.06392185 -0.18029913 -0.05598716 -0.18197694  0.14281516
  0.18522567 -0.02317688  0.00496871 -0.23308273  0.03153128 -0.21989685
 -0.12135052  0.06711921 -0.13613417  0.07998084 -0.00677826 -0.18835663
  0.10600201  0.0032342   0.05165141 -0.04173081 -0.09959494  0.08295548
  0.04435495 -0.18852324  0.04698682 -0.01591683 -0.05432314  0.23254233
 -0.05751825 -0.0317857 ]
[-0.18241774 -0.13878093 -0.01608422  0.08603593  0.000541   -0.12375602
  0.14942077 -0.09813188 -0.00917812  0.03736804 -0.00377428 -0.07574491
 -0.02881965 -0.27019626 -0.05889704 -0.06030274 -0.06387079 -0.07450416
  0.04291478 -0.07455688  0.08594606 -0.16891544 -0.00269087  0.1676117
 -0.03239309 -0.09737664  0.0571161  -0.10184328  0.00915582 -0.01834347
  0.1255996  -0.05033788 -0.28002785 -0.03552035 -0.24566587  0.02615812
  0.01791431  0.27071925 -0.00818155  0.25859382  0.09414206 -0.1252576
  0.10130133 -0.17808006 -0.02896333 -0.11461229  0.0122334   0.12415315
  0.106475    0.09829072  0.06762881  0.04548702 -0.09263238 -0.08980019
  0.04685846 -0.24055673  0.01756628 -0.10381769 -0.00479715  0.14371052
 -0.2394894   0.0901437  -0.14912737  0.06259238  0.04469285  0.110034
  0.05168988  0.15369753 -0.2744183  -0.12624406  0.23604917  0.13629837
  0.01992917 -0.0096403  -0.1299918   0.13605854  0.14241474 -0.11920686
 -0.0164954   0.15353578 -0.01925106  0.02140742  0.07653817 -0.0355651
 -0.10617023 -0.16516479 -0.10645979  0.0762626  -0.22604969 -0.00731319
  0.07446084 -0.2321034  -0.20049979 -0.17315267  0.13262039  0.0854253
  0.2774882  -0.01398767 -0.22929666  0.23432972  0.19548498  0.0014565
 -0.11395337  0.09245528 -0.01698895  0.02416534 -0.03693882  0.13897785
 -0.044524    0.01786344 -0.18764023  0.10967524 -0.02602725 -0.00643301
  0.26170614  0.13335734 -0.12230256  0.03112027  0.17643396 -0.07542493
 -0.1382939   0.2074957   0.18986712  0.0687164   0.06022798 -0.08757536
 -0.02898992  0.07350969]
[ 0.28249142  0.18722875 -0.22948164  0.21736755 -0.17463405  0.17537845
  0.20044482  0.13082139  0.23880833  0.15282431 -0.11507     0.23703092
 -0.12510644  0.01052401  0.24931609  0.14117869 -0.16093545  0.01025994
  0.05392618 -0.15282046  0.02327838  0.08097343 -0.03089039  0.10850715
 -0.23172795  0.0782358  -0.08650965 -0.02317269  0.03913685  0.04188653
  0.13164986 -0.05158471  0.25584077  0.08259135 -0.08392089 -0.12384093
 -0.10938832  0.09957121  0.01437627  0.06829695  0.20597611 -0.04158048
  0.0463205   0.06620535  0.18562578  0.03164202  0.08916907 -0.09907641
  0.11888605  0.0981718   0.12545646  0.04040832 -0.08908543 -0.0607272
 -0.10713038 -0.00380027  0.14501476 -0.17913202  0.09113979  0.15201699
 -0.04119727  0.06330207  0.18651643  0.03205487  0.11169165 -0.00331922
  0.00243992  0.0791607  -0.10120333  0.1905738  -0.1437341  -0.0546083
  0.14283909  0.13717415  0.13869716  0.18318869 -0.05803204 -0.08229504
 -0.04511002 -0.03105781  0.26132452 -0.04338046 -0.13795592  0.06115652
  0.17462815 -0.00226325  0.03646007 -0.09816928 -0.08343163  0.10140042
 -0.0308713  -0.02178715  0.05176199 -0.09407888  0.20522966  0.0183185
  0.01042016 -0.04559832  0.01833305  0.00187234 -0.23908068  0.1259572
  0.10287276 -0.05454042  0.17340426  0.05647631 -0.12287329 -0.06794472
  0.03168428  0.10583777  0.10505035 -0.217743    0.0434733   0.11064823
 -0.06037025 -0.03820961 -0.14820678  0.00640267 -0.26887025 -0.25894269
 -0.1354997  -0.02498645  0.16383394 -0.1156867   0.12602413 -0.1631505
 -0.05723683  0.07907102]
[ 1.24011090e-01 -1.13626265e-01  1.56636621e-01  7.83748519e-02
 -5.16343539e-02  7.00116507e-02 -2.05954955e-01  1.82878676e-01
  8.79924982e-02 -1.03330003e-01  3.02827222e-02  1.19618854e-01
  1.93389351e-01 -3.48858865e-02  1.38883800e-01 -2.86559544e-02
 -1.04823420e-01  1.23189714e-01 -7.83495164e-02 -2.63472824e-02
  6.90943835e-03  5.50089377e-03 -1.67962851e-01  6.01160434e-02
  7.61472095e-02  1.12818522e-01  1.95771547e-01  8.43061386e-02
 -1.99889646e-01 -3.71980134e-03 -5.72994054e-02 -1.18323170e-01
 -1.05003083e-01  7.63888208e-02  7.99728004e-02 -6.21488265e-02
  1.79030108e-01 -5.53510937e-02  1.92846867e-01 -4.39506836e-02
  1.44902760e-01 -1.94032484e-02  8.31004108e-02  2.65498142e-02
  2.33538926e-01  2.37921841e-01 -1.22552979e-01  1.91404637e-01
 -1.93837458e-01 -1.80552126e-02 -9.17922304e-02 -6.62180750e-02
 -9.54550598e-02  2.39414099e-01  3.76821261e-02 -1.18803536e-01
  1.48425392e-01 -1.19958869e-01  7.42153738e-02  3.27191744e-04
  2.75382849e-01 -1.90615036e-01 -1.83560839e-01 -3.43459249e-02
 -2.18697299e-01 -1.14982729e-01 -2.55587378e-01  2.80265333e-01
 -4.95213595e-03 -8.79863911e-02 -9.26729623e-02 -3.03607626e-02
 -1.10444199e-01 -1.88448707e-01  1.67144190e-01  6.34056669e-02
  1.59763975e-01  2.92889937e-02  8.64511746e-05  1.34143369e-01
 -1.72544896e-01  3.15971523e-02  1.02595545e-01 -2.54234985e-01
  2.90079824e-03 -6.60659268e-02 -6.42846132e-02 -5.02769512e-02
  3.46177788e-02 -1.56720605e-01  5.17379154e-02  7.71712786e-03
 -2.55877008e-01 -1.39326754e-02  6.20156246e-02  2.23019797e-01
  1.25562321e-01  6.56586756e-02 -1.63747254e-01 -1.45684144e-02
  1.78038354e-01  8.15538031e-02 -7.09275984e-02 -1.18381594e-02
 -8.68799825e-02  6.15635879e-02  2.14271539e-01 -7.29931715e-02
 -8.78484067e-02 -2.72023564e-02  7.91555030e-04 -1.19786381e-01
 -2.56715822e-01 -1.73145060e-01  1.45488062e-01  2.07805697e-01
  5.22832431e-02 -6.34254105e-02  8.91241990e-02  2.47861937e-02
  1.89960334e-01 -1.35205357e-01  5.01225908e-02 -1.28560050e-02
 -3.54325744e-02  8.20169850e-02  1.71523131e-02  5.53882437e-02]
[ 0.00360697  0.00275444  0.24587165  0.00403954 -0.09439101 -0.05453406
  0.16064507  0.04020398 -0.17164847  0.13746922  0.2307891  -0.01813825
 -0.01296031 -0.14473683  0.02779539 -0.12349529 -0.11191111  0.11967794
 -0.0474348   0.0632475   0.06220767  0.07618478 -0.24190217  0.08815903
 -0.0520285   0.04618222 -0.05534509 -0.03880753  0.14101708 -0.27520337
  0.24858229  0.18595307  0.28214227 -0.07519517 -0.05408671 -0.07793008
 -0.04895375  0.11382035 -0.03161059  0.01761579 -0.10193668  0.15460393
 -0.00998996  0.08572242  0.16280517  0.05586018  0.05850125  0.1124574
 -0.11629408  0.16542149  0.0833488  -0.14351364 -0.11029057  0.10094505
 -0.10033557 -0.05540092  0.05197226 -0.26937369  0.06083937 -0.13795226
 -0.03970472 -0.15586976 -0.11855438  0.09358586  0.07564232 -0.07948952
 -0.00822916 -0.00679863  0.04483568 -0.03318843  0.07294359 -0.0408481
 -0.23471444  0.08499999 -0.01602307 -0.1213649  -0.15910865  0.04354245
  0.25204664 -0.13587026  0.0155678   0.2648193   0.06463294  0.00633951
  0.07062615  0.24927424 -0.23452153  0.17238043  0.07817612 -0.00747361
 -0.05529878  0.03623866 -0.04509506 -0.16575693  0.13311262  0.07064242
  0.04199752 -0.20078022  0.13684798  0.05233567  0.02359851  0.01513002
  0.09634691 -0.0217453  -0.19204314 -0.14815875 -0.12531868 -0.00921904
 -0.03374848 -0.20135552 -0.01950412 -0.14261771  0.01091682  0.10326792
  0.00810557  0.10403972  0.10023427 -0.0144269  -0.05132214 -0.24463006
  0.01266107 -0.11713267 -0.02428187 -0.05538415 -0.06613909  0.13911396
  0.01402438  0.04913563]
[ 1.30051838e-01 -1.71282907e-01 -1.13549456e-01 -1.66421996e-01
 -2.06848614e-02  3.87442789e-02 -6.30049546e-03  4.52948767e-02
 -1.58692289e-02  1.30835188e-02 -1.84785367e-02 -9.81619321e-02
 -1.73035508e-01 -1.32747019e-01 -9.39790615e-02  3.08895908e-02
  8.93536422e-02 -1.18826809e-02  9.30231695e-02 -1.85441366e-01
  2.35822030e-04 -1.62836424e-01  1.52264224e-01  8.32226555e-02
  4.02559444e-04  1.53244637e-01 -2.02313807e-01 -3.07918625e-02
 -9.34813251e-02  1.38729685e-01 -7.75193972e-03 -8.20492999e-02
  1.38565447e-01 -1.24046470e-01 -9.68043059e-02  9.47049542e-02
 -4.37020719e-02  1.36239413e-01 -1.52727224e-01 -1.37926434e-01
  2.77698374e-01  1.00293412e-01  3.47158540e-02 -5.25261072e-02
 -9.18999359e-02  2.73940329e-01  4.77127843e-03  2.78347583e-02
 -8.57848942e-02 -2.62665561e-02  1.08953160e-01 -1.78048463e-01
  6.65381852e-02  7.06605881e-02  1.17977159e-01 -2.24210396e-02
 -7.76283896e-02 -7.61831043e-03 -2.28344032e-01 -2.47395935e-01
  1.49028238e-01 -3.74264264e-02 -2.16284558e-01  1.06939059e-01
 -1.44845985e-01 -1.47704119e-01 -8.93467749e-02 -5.44758522e-03
  7.49404682e-03 -2.15570434e-01 -1.73446503e-02 -3.57797374e-02
 -2.02043078e-01 -6.07786254e-02 -3.21962652e-02  3.60205219e-02
 -1.90178502e-01 -1.29680511e-02  2.40337156e-01 -2.23211376e-01
 -1.31895867e-01  6.09520271e-02 -2.61764188e-01  6.82159964e-02
 -2.20970890e-01  1.16982694e-01 -1.09666457e-01 -9.32301483e-02
  1.11665725e-01 -2.78077663e-02  1.39035741e-01 -2.11583088e-01
  2.33650636e-01 -9.16625717e-02 -8.67595290e-02 -6.40804440e-02
  8.57571383e-02  1.41797614e-01  1.17151257e-01 -5.71052362e-02
  7.88799167e-02 -8.02884603e-02 -4.13201512e-02  2.08682043e-01
  1.04017367e-01  1.74759918e-01 -2.21585945e-01  1.92495829e-01
  5.75341093e-02  4.07325077e-02  5.68310452e-02 -2.36580747e-01
 -2.17004641e-01 -1.65135170e-01  1.74314643e-01 -1.33956816e-02
 -1.34027629e-02 -1.97678525e-01 -1.20029110e-01  2.09057237e-01
  7.66942625e-02  1.42925203e-01  1.29315546e-01 -8.39195498e-02
 -1.27562324e-01 -6.09086927e-02  6.11859691e-02 -4.76008705e-02]
[-0.21276388  0.08091103 -0.18595556 -0.01351367  0.02555561 -0.03173535
  0.08943165 -0.10468579 -0.06896823  0.05102572  0.10914591 -0.05962536
  0.00561328  0.05099604  0.06458178 -0.11285665  0.06622292 -0.00742242
 -0.15065244 -0.02082366  0.04486284  0.08358426  0.08120615  0.05429642
 -0.10020503 -0.07604324  0.04494399  0.09380788  0.10073136 -0.01479468
  0.13478827 -0.10790178 -0.09407174  0.24215254  0.13877632  0.04243722
  0.15998224  0.08638293  0.08584938  0.13147302  0.06336901  0.06576254
  0.15029457  0.03658886 -0.26180929 -0.26406284  0.06766842 -0.22842932
  0.02523349  0.07104578 -0.01817908 -0.11114264 -0.22498474  0.0392255
 -0.16904397 -0.0564412   0.21858024  0.17820098 -0.05972143 -0.01393759
  0.01691978  0.13166016 -0.11628924  0.15487061 -0.26515724  0.01158499
 -0.02857602  0.11239551 -0.07172089  0.03146219 -0.10660544 -0.18055652
 -0.14291635 -0.19374339 -0.0619203  -0.17277056 -0.1699795   0.03007048
 -0.09540723 -0.18851536  0.07782184  0.04846939  0.07437296 -0.10932735
 -0.14255426  0.07812988 -0.00633077  0.12249957 -0.10471119 -0.00898768
 -0.04791206 -0.23795405 -0.11022501 -0.0325414   0.03593324 -0.20075294
 -0.00302439 -0.002074   -0.07332291  0.12223894 -0.16182584  0.01431973
  0.04169131 -0.03010088 -0.00745045  0.19273099  0.16517768  0.04047205
  0.1644368   0.14699531  0.09193776  0.13230153 -0.01157509  0.03947852
  0.06923347 -0.01098622  0.01669678  0.05634707 -0.04806962  0.02853385
  0.08830123 -0.01103497  0.1234862   0.20323948 -0.00029374  0.03269078
 -0.20429821  0.03958586]
[-0.26475369  0.10559203 -0.11515229 -0.16004327  0.10187007 -0.18158781
 -0.0117379   0.05361353  0.02634596 -0.23410098 -0.13085681 -0.17691377
 -0.03254228  0.01017225  0.08416323  0.096903   -0.1630237   0.14667063
 -0.07466745 -0.04135162  0.05724411 -0.15598767  0.0202597  -0.04837277
  0.09593285 -0.24032508  0.21763259  0.12171857 -0.03427641 -0.2519826
  0.11406485 -0.06388297  0.14447588 -0.01069692  0.17708853  0.19591581
  0.24365271  0.01373044  0.15338117  0.26271884  0.0119421   0.11636989
 -0.00847938  0.11208902  0.19446449 -0.1069742  -0.04781456 -0.09763404
 -0.19500721  0.09747718  0.04202226 -0.04585657 -0.02058686  0.08512147
  0.17775094 -0.26360993  0.21092525  0.09168449  0.17560533 -0.03322588
 -0.06116433  0.12937257 -0.06790179  0.16333954 -0.08486017 -0.17924774
 -0.03650958 -0.03712946  0.16838088 -0.09637928  0.18945207  0.03126795
 -0.23175706  0.05973247 -0.00360197 -0.12582575  0.18249147 -0.1320078
  0.08769366  0.04490379 -0.22363444 -0.12283736 -0.14657023 -0.04483638
  0.06112461 -0.2204061   0.03835926 -0.01921755 -0.07734216 -0.09183448
 -0.06176565 -0.1267897  -0.08768399 -0.2205945  -0.28193208  0.02998537
 -0.09484604  0.05829901 -0.13860222 -0.02739636 -0.0700004  -0.10825285
  0.0430099   0.18558931  0.05686282  0.08232706 -0.08603615 -0.08685523
  0.07800993  0.0305266  -0.12665471  0.04114428 -0.0418041   0.06621333
  0.11259571  0.06498152 -0.2236012  -0.04499268  0.15415589  0.10910472
 -0.0552461  -0.07595159 -0.14401848  0.07707873  0.15917881  0.13810247
  0.06865489  0.06814306]
[-0.03999342  0.03347012 -0.0223937  -0.01985366  0.04356394 -0.03347023
 -0.11028154  0.05327669 -0.04434419 -0.01958408  0.01120582  0.26217495
 -0.07763607 -0.08310102  0.11213865  0.0447021   0.12130012 -0.20106552
 -0.07628494  0.16685298 -0.13207251 -0.25969014 -0.12509279  0.14302783
  0.14952142 -0.08983385  0.00581417  0.02797492 -0.15781091  0.09828305
  0.11473265 -0.11288593  0.04145362  0.15668405 -0.0431133   0.11842519
  0.04899605  0.14820059 -0.00070323  0.05515388 -0.1701014   0.02776671
 -0.16180926  0.24979178 -0.16702467  0.12474269 -0.26587541 -0.19109665
 -0.27106762  0.06593785 -0.04010125  0.18817787 -0.04400432  0.13904255
  0.04991014  0.1752982  -0.00406056  0.20580761 -0.07239177  0.01035136
  0.05611023 -0.05445543 -0.03621094 -0.02031791  0.09463343  0.05603563
  0.2239013   0.00522607  0.16494723  0.01514847 -0.01729841 -0.03994898
  0.12683927  0.00865528 -0.19274809 -0.10883666 -0.24884071 -0.02294021
  0.00534998 -0.10662349  0.02320609  0.04631665  0.0504369  -0.26561282
  0.19074571  0.08276176 -0.16802187 -0.18081824  0.04249457 -0.12535592
 -0.14574724 -0.07588294 -0.25838215  0.05846084  0.28234833 -0.09178013
  0.13263215 -0.04429142  0.17826231  0.18002463 -0.00383175 -0.23895327
  0.05254813  0.05131813  0.11576058 -0.02985836 -0.01284547  0.18752127
 -0.08132181 -0.0436553  -0.23426731  0.00573345 -0.03168722 -0.08976828
  0.07327189  0.13760108  0.18708736  0.18519861 -0.0072937   0.17856412
  0.10809633  0.26225777  0.10241068 -0.01562032 -0.01555577 -0.02072023
  0.25275116  0.27640253]
[ 0.13415388  0.14010523 -0.06824506 -0.05029994 -0.04459423  0.04147184
 -0.10833102 -0.03033958  0.07094413  0.1457044   0.06619135 -0.12191776
 -0.16669487  0.03567313  0.02786316  0.00299625 -0.20309267 -0.10697281
  0.2300961   0.17328031 -0.09065733 -0.16023528  0.06610002  0.21104458
  0.07007324 -0.13376613  0.19643032 -0.04246223 -0.16008296 -0.1188999
  0.00596718 -0.12276564  0.03871222 -0.1475945   0.10681167  0.03713192
  0.18807087 -0.17483671  0.1657054   0.18513612  0.26635128 -0.01941569
 -0.04152566 -0.06400621  0.08173598  0.06534736 -0.13133948 -0.1055506
 -0.03727209 -0.04681422  0.07991133  0.0493557  -0.171327    0.15002007
 -0.14168212 -0.14521515 -0.08739474  0.16406131  0.04291372 -0.12598639
  0.12428099 -0.07566776 -0.21568216 -0.15993415  0.01348827  0.06502316
  0.11766133 -0.13088671  0.03254305  0.13655999  0.09576688  0.00323353
 -0.08171826 -0.15239774  0.03003923  0.13696201  0.15563868  0.09834641
  0.1205045  -0.02021651  0.18882962 -0.09932471 -0.08130573 -0.12404579
  0.18516341  0.04122433  0.27921098 -0.11484047 -0.04896201  0.01487021
  0.03260367  0.07947557 -0.08490097  0.04462389  0.03241943 -0.10639633
 -0.04515092 -0.13560912  0.07168882  0.10325005 -0.10043662  0.0787214
  0.02344448  0.04283999  0.14108578  0.15356146 -0.21340433 -0.02372407
  0.09443535 -0.23160903 -0.11215161  0.00827309 -0.12714605  0.08058446
  0.08558336 -0.07964085  0.14437558  0.04316233  0.08803989 -0.18415781
  0.01390097 -0.07575744  0.22567336 -0.04924337 -0.02764476 -0.24934377
 -0.1718356   0.10459166]
[ 0.08520774  0.0027709   0.13510882  0.10914082 -0.05681377  0.01479053
  0.06989175 -0.24059219 -0.06234201  0.15103519  0.02679518 -0.16722253
  0.04414174  0.06376586  0.08218974 -0.16214528 -0.09452071 -0.26793893
  0.10814246 -0.22958849  0.08099873  0.15268633 -0.02905361  0.0617382
 -0.16660644 -0.01136457  0.17021603 -0.07190016 -0.20456554 -0.17261982
 -0.05196124  0.1142044  -0.14107009  0.27041774 -0.06572283 -0.18441821
 -0.21296038  0.01102597 -0.01581403 -0.14802757  0.27344328 -0.22692259
 -0.2018342   0.00781698 -0.12598976 -0.15670301  0.02113047 -0.04318666
  0.15535014 -0.04456055 -0.00211339  0.11297079  0.03862952  0.14405352
  0.03013469  0.00924829  0.05936867  0.17119172 -0.14031017 -0.06468503
  0.06795077  0.13094559  0.08503796  0.04824895 -0.12915815 -0.11339501
  0.12720904  0.14831145 -0.12474153  0.00382329 -0.02650529 -0.00249452
  0.12487882  0.13999075 -0.04407621  0.0271419   0.14838769  0.27326316
 -0.09172627  0.0427311   0.11418563  0.04448492 -0.03512002  0.0989471
 -0.0125224  -0.18435848  0.0598382   0.13189655 -0.01590744  0.14440452
  0.06710834  0.07773319 -0.04735317  0.00381004 -0.0624009   0.1223075
  0.04386498 -0.06950844  0.07906358  0.1030248  -0.06251805 -0.03358937
  0.18958651  0.04841593 -0.08916694  0.00796272 -0.11724004 -0.05154949
  0.13319534 -0.03546672 -0.00488707  0.00298358 -0.13561098  0.13206893
  0.10735217 -0.00555676 -0.05291091  0.14413835 -0.13853766 -0.00090759
 -0.09408341 -0.03242645  0.07170618  0.14079083 -0.08183182 -0.0914936
  0.03838028 -0.01059284]
[ 0.10091748  0.13092781  0.01142481 -0.10071802 -0.08414114 -0.07825974
  0.05523912  0.21904675  0.12377893  0.06239078 -0.06544857  0.12375533
  0.16624311  0.14881921 -0.01123244 -0.02994374  0.06592002 -0.09643129
 -0.22793335 -0.05352146  0.08426858 -0.07821236 -0.04008817  0.08163421
  0.03074794  0.25446797 -0.07864045  0.04186408 -0.28374262  0.0581791
 -0.1282087  -0.1950819   0.02508038  0.19322333  0.13958665  0.0466219
  0.25069031  0.11745079  0.11407557 -0.02313018 -0.11606183 -0.13330356
  0.10711048  0.07946401  0.09993215  0.11284384  0.09656894  0.03872663
 -0.14061042 -0.02983759  0.24919642 -0.1614013  -0.04761989 -0.14495094
 -0.0984222   0.01905368  0.0446904  -0.11423565 -0.02368276 -0.0961778
  0.00907601  0.12223451  0.20376279  0.15822815  0.11529647 -0.2005208
  0.0316158  -0.08028173 -0.22482442  0.02543485 -0.01294452  0.2108374
  0.08242192 -0.21814947  0.02405994 -0.05273198  0.02558894 -0.03241059
  0.02607947 -0.19253444 -0.25247508 -0.1021232  -0.13507633  0.16470458
 -0.02610208  0.12111286 -0.06045152 -0.00472839  0.24481014 -0.1596699
  0.00378541 -0.00907641  0.14678533 -0.10330595  0.02522279  0.10847983
  0.094645   -0.03409105 -0.02808083 -0.10675499 -0.10061226  0.02530839
 -0.05246853  0.06938298 -0.0881198   0.15419793 -0.16762546 -0.05739935
 -0.0676853   0.12214649 -0.07053836  0.00282464  0.22701987 -0.12118256
  0.08225141 -0.06208363 -0.17105478  0.12206701 -0.07525968  0.02216445
  0.12933116  0.00203931 -0.05094058  0.26545283  0.06184606  0.02361562
  0.08057516 -0.14240283]
[ 0.0479387   0.0465711  -0.16047644  0.22836708 -0.16053114 -0.08556258
  0.06621478  0.10245495  0.04148313 -0.02820965  0.0506165   0.01121652
  0.19177145 -0.20797423  0.03485473  0.1119464   0.03214672 -0.18937979
  0.0646483  -0.15475295  0.03965717 -0.02306647 -0.27683449 -0.03126979
  0.15584052  0.04561394  0.11512423  0.13944248  0.03146567 -0.0012556
  0.16830881 -0.03051019  0.11884128  0.04497544  0.09697482 -0.10051926
 -0.09908484  0.09108197 -0.16442828 -0.05470671  0.02721398 -0.12789203
  0.10872284  0.04554751  0.04014596  0.07401592  0.20836975 -0.03685196
 -0.02294405 -0.031336    0.0314832  -0.17364792 -0.27842331  0.06008419
 -0.02264111  0.20782562 -0.17745806 -0.05797859  0.00139473 -0.20677665
  0.04234304  0.20595249  0.12590821 -0.07159302  0.16476959 -0.1642242
  0.20332275  0.08011769 -0.07713344 -0.03133409  0.01037296 -0.20007919
  0.12143759  0.07054729  0.2062743  -0.07776867 -0.07095933  0.10191805
 -0.02437315 -0.03514585  0.04404371 -0.12699342  0.08370014 -0.13092006
 -0.03681868  0.12058191  0.0225369   0.12803986 -0.13373902 -0.19690671
  0.17471119 -0.22626684  0.20233654 -0.0097882  -0.02633607  0.01561919
  0.06356629 -0.03773033 -0.17826723 -0.00912904  0.27742371 -0.18351091
  0.08494365 -0.15113837  0.09325166  0.00982931 -0.11622211  0.09363117
  0.04016714  0.24054343 -0.06444034 -0.0234935   0.07421562  0.00085526
  0.01862663  0.24339077 -0.13920309 -0.00186825 -0.07345417  0.19754616
 -0.12397239  0.13239058 -0.15518345 -0.01079299 -0.02412311  0.0488169
  0.03388463  0.21016649]
[ 0.07994409 -0.05678142 -0.06986227 -0.04056595 -0.10225632  0.19877103
 -0.1653246  -0.02543368  0.26812284 -0.07535827  0.00834745  0.00212726
 -0.19536741  0.08370871  0.13356557  0.14633177  0.00966544 -0.15574551
  0.23252889 -0.18567877 -0.12699441 -0.15047993  0.21701358  0.15169708
  0.1076415  -0.05563853  0.02255127 -0.08438714 -0.09257547 -0.03733119
  0.14869466  0.11283533 -0.21925712  0.1886812   0.00536908 -0.00954946
  0.21582094  0.20086852  0.03132491 -0.05553317 -0.23816439  0.20219411
  0.18982287 -0.04394767  0.14590833 -0.13215225  0.00562284 -0.28307518
 -0.14795656 -0.1456684   0.06208024 -0.08070103  0.08031653 -0.00590182
  0.21045223 -0.01381788 -0.04060426  0.15289206 -0.1197577   0.1409411
 -0.15041478  0.14484437 -0.15558159  0.13970975  0.21400201 -0.15269998
 -0.00533093  0.27138979 -0.07127041 -0.19011219 -0.10814056  0.08234814
 -0.13139466  0.02334159  0.26721459  0.05621797 -0.18612881  0.1208557
 -0.13775291  0.14999601  0.13684488 -0.0030024   0.05955152 -0.14970635
  0.13097889  0.09362623  0.15300499 -0.11097016 -0.11914728 -0.10194888
  0.11265737  0.14467777 -0.01106965 -0.09927001 -0.02870089 -0.2357667
  0.02215386  0.09449255  0.01642055 -0.25966944  0.2281704  -0.00082205
  0.06991888  0.14229595 -0.01254211 -0.18869421 -0.14681673 -0.16173342
  0.18272827  0.10832106 -0.0027547  -0.23495636 -0.06269065  0.02901491
  0.03211923  0.20107601  0.06748236  0.03833537 -0.15824962  0.07917582
 -0.07618486  0.12307162 -0.02783394  0.19512915 -0.10118594 -0.01081745
  0.27651546 -0.06853236]
[ 0.06791565  0.02557893 -0.02078514 -0.05029336 -0.09782413 -0.10296352
  0.03292792 -0.1105144  -0.10619456  0.11794566 -0.06647552  0.01967267
 -0.02357839  0.12060998  0.11491664 -0.10653997  0.28225287 -0.05129702
  0.11799414 -0.11779997  0.12394368 -0.08590843  0.08690681  0.1153221
  0.13155911 -0.12844098 -0.11879306  0.00340586 -0.16330147 -0.00604859
  0.05458107  0.07299945  0.13637618 -0.10829741 -0.11221987  0.07248976
  0.1246513   0.01357473 -0.11499474 -0.10067941 -0.13718993  0.02637931
 -0.15631581 -0.05882977  0.04150575  0.12658578 -0.09919969 -0.13685906
 -0.13875231 -0.09612355 -0.0033617  -0.04956951  0.11087775  0.0748846
  0.13999951  0.15482648 -0.08069004  0.028379    0.17550835  0.06060712
 -0.09143684  0.0179767   0.08461187  0.05687495  0.13311721 -0.12381972
 -0.04997488  0.26540464 -0.07691794  0.01110031  0.18024616  0.10927663
 -0.11963985 -0.11008895  0.10362779  0.21417893  0.03960988 -0.02841552
 -0.06937152  0.13499784 -0.10630582 -0.20562761  0.03252722  0.00638327
 -0.16761622  0.17137171 -0.14898253 -0.11774886  0.02078062 -0.14249496
 -0.17040157 -0.10048995 -0.06182822  0.08228234  0.03628921  0.24559116
 -0.1834036  -0.14255598 -0.05465785  0.11076825  0.0121233   0.16601988
 -0.03745697 -0.02959708 -0.07108547  0.18538562  0.04642659 -0.02889981
  0.11140916 -0.04035371  0.0529495  -0.04663734 -0.08031639  0.25341801
 -0.26657295 -0.25070197 -0.05131968 -0.15838252  0.14453355 -0.04998025
  0.09904707 -0.02398817  0.00603277  0.01069868 -0.24605926  0.04177318
  0.19736995  0.0752716 ]
[ 0.25285194  0.00183125  0.04511505 -0.11913207  0.04101627  0.16565285
  0.07328755  0.04997212 -0.05984277  0.10466128 -0.08231691 -0.22341401
  0.1375344  -0.25265071 -0.18503691 -0.16686878 -0.13167016  0.07394088
  0.01018601  0.07115476 -0.01870494  0.20964481 -0.09630381 -0.24171603
 -0.06642995  0.1375256   0.11779812 -0.07190414  0.02336872 -0.09066255
 -0.09730287 -0.17730895 -0.10368388 -0.22445587  0.0491505  -0.02312956
  0.05937871  0.02518414  0.14316522 -0.11266842  0.02161125  0.05864448
  0.04042764 -0.03750769  0.03456799 -0.098015   -0.20609911  0.18469646
 -0.131966    0.03749115 -0.17531857  0.1585069   0.07243873  0.26054334
 -0.03448972 -0.03274949  0.02092201  0.25996498  0.12548018 -0.06807193
 -0.10591365  0.00098219  0.06761131  0.13511168  0.20981316  0.09337381
  0.01120417 -0.0717072  -0.0328566  -0.01412232  0.11581143  0.04364482
  0.17957427 -0.13179392  0.15987539 -0.04370204  0.13009796  0.13476661
  0.06254848  0.08355389  0.2669267   0.1266904  -0.19114938 -0.0292268
 -0.04696248 -0.03566018 -0.22893482  0.02159089 -0.07522989 -0.25102277
  0.09428143 -0.07887016  0.02418683  0.05239335  0.17324856 -0.19029169
 -0.09289198  0.08721224 -0.09442149  0.20046919  0.23748651 -0.05383431
 -0.19812764  0.05278292 -0.0618324   0.00748106 -0.18973904  0.184564
  0.02653942 -0.1879761  -0.16698864  0.02200745 -0.05006036 -0.09237837
 -0.13247086  0.03991781  0.20696904 -0.07736256  0.1735569  -0.06903929
  0.27009023  0.04743127  0.14650236  0.12982273  0.0916537  -0.15348754
 -0.1186568  -0.1367859 ]
[-0.14660099  0.14753551  0.06832384 -0.03912669  0.09036351  0.08015863
  0.15191811  0.01733201 -0.17527687 -0.08107804 -0.07439364  0.06853958
 -0.05446452 -0.01282032 -0.052937    0.22999399  0.01527343  0.07930587
  0.04521973  0.13188521  0.13005022 -0.01574274  0.0912739   0.05667503
  0.00725886 -0.02447053 -0.00296234 -0.15641607  0.0278423   0.18534705
  0.25063384  0.14649286 -0.10037971  0.09484926  0.14210994  0.20431011
 -0.03862603  0.04916266  0.20835448 -0.15323614 -0.13706747  0.07562074
  0.03439319 -0.25207059  0.01927783  0.18053534  0.00452179 -0.09856403
  0.18495472  0.01266112  0.0805804   0.12765903  0.01010577 -0.02142243
  0.20397636  0.0280766   0.01069297  0.11019391  0.13018866 -0.16390671
 -0.0022993   0.10943249  0.15342704  0.11995528 -0.21651323  0.2163116
 -0.06203071 -0.14802728 -0.00326455  0.00815933 -0.1135164   0.07591322
 -0.06248013  0.11671688  0.10732195  0.2717238  -0.21979057  0.03563062
 -0.06932066  0.20582994  0.24574715 -0.14712047  0.24339093  0.12632556
 -0.04177436  0.04534059 -0.13270572 -0.09825716 -0.01312348  0.01603732
  0.28146989  0.24782779 -0.03021536 -0.15197728 -0.0711399   0.15442466
 -0.01287111  0.12395905 -0.05899267  0.11103545  0.06153073  0.01066988
  0.08625427  0.17000255 -0.087744   -0.09923416  0.02406516  0.03626064
 -0.11727508 -0.07903838  0.16440879 -0.15375498  0.04173103 -0.1113775
  0.16629702  0.2219992   0.21676996 -0.05506164  0.14724115  0.13564854
  0.07269941 -0.03520474  0.16829406 -0.02983613 -0.21918349  0.13609547
 -0.04496841 -0.19007179]
[-0.20401595 -0.03848793 -0.08733216  0.04826469 -0.15755304 -0.1487331
 -0.25736075 -0.09126265 -0.0214638  -0.01354218  0.02533611  0.09717479
 -0.11997904  0.04387696 -0.07052139  0.16959632  0.06380886 -0.03279924
  0.11680668  0.26237711  0.14805916 -0.09451081  0.0693017   0.18527127
 -0.13534408 -0.03960762 -0.09932992 -0.22654025 -0.05810991 -0.21663718
 -0.02351455 -0.01037623 -0.00080062 -0.18759791 -0.05920246 -0.14510871
 -0.03607703  0.22962905  0.10142652  0.07018868 -0.03413713  0.18850179
  0.17254806 -0.03523724  0.07254357  0.05161316  0.23275148  0.01116303
  0.14385186 -0.10607801 -0.08787311 -0.01491547 -0.14694133 -0.01919357
  0.24323491 -0.11202187  0.04793948 -0.01849642 -0.01317702  0.24681144
 -0.06422305 -0.10015828  0.08925784 -0.0899167  -0.1290472   0.14091271
 -0.06131312  0.06923093  0.04064095 -0.08227754  0.0548237  -0.16353813
 -0.10752028 -0.02667531  0.13735823  0.18409013 -0.09947906  0.08548437
  0.04096542  0.21730358  0.08396082 -0.11882652  0.02894196 -0.22016851
 -0.12489312  0.16184866  0.1387783   0.05196542  0.09134566  0.04697894
 -0.19612141 -0.08436153 -0.08780921  0.04725786 -0.02850185  0.06413362
  0.07540748  0.23273826 -0.19968394  0.18747126 -0.20638511 -0.16308197
 -0.13093479 -0.05885597  0.1513849   0.02511365  0.05826236  0.20838305
 -0.02331209  0.16291064  0.07251177  0.04629933  0.22157872 -0.0854529
  0.11552829  0.04524592  0.02240478 -0.02834911 -0.14561965 -0.11434157
 -0.11476074 -0.28114036 -0.01313685 -0.17701966 -0.16555836  0.02541655
 -0.0719175   0.11372705]
[ 0.04820882  0.08114131  0.15765465  0.02372588 -0.11587559 -0.14752817
  0.06800181 -0.08828733 -0.11698692  0.22222058  0.00418263 -0.11085746
 -0.22366193 -0.27196901  0.1295879  -0.01409011  0.05674905 -0.18536026
 -0.03120797  0.04464422  0.16586835  0.03075917 -0.16220483  0.16115456
  0.11778811 -0.1484391  -0.0931781  -0.08498727 -0.10173123 -0.0924856
  0.10089219 -0.03632017 -0.08802519  0.07633937 -0.22493833  0.19972847
  0.00329099  0.0114184  -0.12453421  0.17543477 -0.00966675 -0.02537506
  0.06415254 -0.0741335   0.03772158 -0.02117776 -0.00597318 -0.06538297
 -0.28053602 -0.19938454  0.0917774   0.14297137  0.13622885 -0.03105585
  0.23547903 -0.16187345 -0.09405602  0.1285463   0.06793241 -0.01632856
  0.00618702 -0.17853368  0.12075026 -0.21558367 -0.23111657 -0.00529207
  0.14346494  0.08144564 -0.14174598 -0.0586448  -0.18178114  0.16025529
 -0.13568375  0.06964114 -0.12932199 -0.00773483 -0.00920745 -0.03985313
  0.06058872 -0.06163086  0.02868651  0.08258295 -0.08399436  0.16148121
 -0.07376822  0.12874252  0.1992686   0.23076873  0.0729413   0.02433416
  0.03269055  0.08498842  0.04422597  0.02579951 -0.10985779 -0.27621542
 -0.04135679  0.0119758   0.03806415  0.08050749  0.21922229 -0.05450564
 -0.19831783 -0.19477355 -0.24351483  0.22123202  0.17002724 -0.13954166
 -0.06287459  0.06932254  0.25019513  0.20708596 -0.05751764 -0.20409734
 -0.07059232 -0.08055535 -0.01333339 -0.08859037 -0.01561681 -0.17957548
  0.04792656 -0.11353989 -0.09455771 -0.1751316  -0.18818294  0.02674353
  0.03691224 -0.08129596]
[-0.07171434  0.05033914 -0.1429973   0.06238482 -0.11354645 -0.18613671
 -0.16319592  0.25990152  0.05536624 -0.13649751  0.09793313 -0.0225461
  0.01200248  0.08952225 -0.1963287   0.17957058  0.17177692  0.20177759
 -0.12865542  0.05654341 -0.22752076 -0.13830459 -0.12535254 -0.06909136
 -0.05938573 -0.28026167  0.00222967  0.07003724 -0.16121059  0.02498396
  0.1884962   0.02561654 -0.11277949  0.03164606 -0.06485318  0.25425177
 -0.03935984 -0.26268339  0.17359405 -0.05616333 -0.04510033  0.03974289
  0.19519641  0.20658024  0.21296075  0.12431603 -0.0636696   0.04284796
 -0.05475592  0.05828326  0.06712051  0.07311239 -0.26692343 -0.2275197
  0.17790558 -0.05330389  0.23426738 -0.15929378  0.1850728   0.01979642
 -0.0657816   0.12334426 -0.12768107  0.14439576  0.00683543 -0.27243608
 -0.12759087  0.09660223 -0.13105655  0.1136007  -0.09540252  0.15616778
  0.03598951  0.01350299  0.07007011 -0.04199152 -0.17029168  0.04439214
 -0.22601064 -0.13489981 -0.1499409   0.09389223  0.1336833  -0.05686104
 -0.0922047  -0.20354326  0.10701602 -0.14228024  0.1004676   0.11221603
 -0.01580703  0.1851353  -0.10678512  0.05804796 -0.1597488   0.05870424
 -0.0096315  -0.18573903  0.07330081  0.0886865  -0.27841958  0.17242627
  0.0882786  -0.06315329  0.10026398  0.20633769  0.20704351 -0.08758943
 -0.16541242 -0.14290773  0.08312112 -0.08380964  0.25122833 -0.02728796
 -0.04789146  0.00225788  0.06675302  0.08671932  0.21904547 -0.10622519
 -0.00028027  0.08641542 -0.12430336  0.0724203   0.13515852 -0.0372458
  0.14721851  0.09965953]
[ 0.11708896 -0.01540852 -0.06215349  0.16674241  0.08929051  0.20901729
  0.07395902 -0.03730643 -0.01767981 -0.13296208  0.11413723  0.04801653
 -0.06351209  0.03224893 -0.08546347 -0.09069367 -0.27042228  0.0773567
  0.25516931  0.10372918 -0.15907444 -0.08847122 -0.23356493  0.12575927
 -0.05596106  0.02521995  0.04327169  0.15185518 -0.02487356 -0.0927418
 -0.20799167 -0.23324425  0.05467043  0.06002416  0.07294632  0.16451727
 -0.06554077 -0.04230071 -0.08527149 -0.08749786  0.01368806  0.26771049
  0.03537878 -0.09730337 -0.07419061 -0.12763825  0.20411072 -0.15237706
 -0.11642763 -0.0312835   0.21134813 -0.03655864 -0.0950404  -0.14932974
  0.0361238  -0.08058861 -0.11787058 -0.09378846 -0.0144279   0.03359447
  0.08621235 -0.26513785 -0.04859714 -0.08348575  0.01787655 -0.02539369
  0.05862061  0.19251087 -0.02770375 -0.02599696  0.09391863  0.07302864
 -0.08907802 -0.14213509 -0.08055784  0.00879815 -0.02835194  0.27576811
  0.04217134 -0.22647536 -0.17254307  0.11208782 -0.02618303  0.05299006
  0.01269049 -0.01269247 -0.1974772  -0.12885652  0.12641272 -0.06463058
  0.02015472 -0.0908395   0.01996932 -0.22633505  0.15221183 -0.04400029
  0.11385937 -0.11166661 -0.05942113  0.08922088 -0.09682394 -0.09735041
  0.0361806   0.14232706  0.01118949 -0.06252717  0.15770288  0.06232562
 -0.07631623 -0.15515419 -0.18466105 -0.07280521  0.01990552 -0.24244143
  0.03715799 -0.07038104 -0.16566661  0.0345223  -0.18346216  0.09201415
 -0.01440436  0.25503788 -0.16239152  0.08252703 -0.15602324 -0.20666505
 -0.0130643   0.12931316]
[-1.46895641e-01 -7.97298393e-02 -2.43824936e-01 -2.06927737e-01
 -6.12566789e-02 -2.31076643e-01  2.43494635e-02 -1.04270389e-01
  1.04596398e-01 -3.54017864e-02 -4.08287821e-03  2.51832625e-02
 -1.47700551e-01  1.77371085e-01  2.10093267e-01 -5.72952494e-02
  5.02386013e-02 -6.22313845e-03  4.38320527e-03  4.23004399e-02
  9.75453101e-02  1.20327429e-01 -9.73226316e-03  2.69646563e-03
  1.55971031e-02 -1.03076720e-01  7.15457710e-02  5.74054624e-02
 -1.60464648e-01  1.96686175e-01  1.38358290e-01 -1.48847719e-01
  1.33542881e-04 -7.20601608e-02 -1.57741109e-01  9.30702959e-02
  1.06129615e-01  8.05383192e-02 -4.15015407e-02  3.08535233e-02
 -1.41381363e-01 -2.77438505e-02  1.16958383e-02  1.67721463e-01
 -9.75167008e-03  5.81996338e-02 -1.25069491e-01 -3.69603652e-02
  1.56613003e-01  1.20241371e-01  5.78662006e-02  5.74014336e-02
  1.84831588e-01  2.96555604e-02  5.84164928e-03  2.92621139e-02
  6.87452254e-03 -2.79536062e-02 -4.65627264e-02  1.46160625e-01
 -1.23771543e-01  4.16801022e-02  5.47678531e-02  1.17976355e-01
  1.58348066e-01  1.78083490e-01  1.47691401e-01 -1.03900140e-01
 -1.41471163e-02 -5.95263239e-02 -7.65019444e-02  1.31864027e-01
 -3.85742833e-02 -5.79413755e-02 -1.80994243e-01 -8.35448196e-02
  1.75357050e-02 -1.95317635e-01  6.97505275e-02  2.82355649e-01
  8.34779210e-02 -6.88120065e-02  1.33711213e-01  2.42825091e-01
  1.33191294e-01  1.49519234e-01 -7.18196403e-03 -1.46566881e-01
 -1.33983528e-01  2.45255061e-01  1.29341990e-01 -1.34918713e-02
 -5.32805910e-02 -4.43903772e-02  4.73562629e-02 -2.09911084e-01
  1.04376517e-01  1.53069118e-01  5.76184782e-02  7.45599832e-03
 -2.13544788e-01  2.37820569e-01  5.22474574e-02  1.13467682e-01
 -1.91198815e-01  1.37754050e-03 -3.13981372e-02 -5.31495295e-02
 -2.40406222e-01  3.50523854e-02 -1.07938656e-02  5.12526229e-02
 -2.52618934e-02  9.16653562e-02  1.47706922e-01  6.82281193e-02
 -1.63440592e-01 -2.56436053e-02  2.75632854e-02  1.05628006e-01
  1.03730590e-01  2.87959082e-02  4.95014881e-03  9.06609732e-02
 -2.41122929e-01 -1.30232471e-01 -8.88245929e-02  1.49999851e-01]
[ 0.11901124 -0.10502197 -0.08635634  0.02565769  0.24136658  0.19556691
  0.20718756  0.15746801 -0.03797569 -0.16574768 -0.0080475   0.02734477
  0.09101852 -0.15807045  0.18614145 -0.04316757  0.02964369  0.04309106
  0.08838196  0.2095999   0.16537545  0.12287833  0.03902516 -0.03103156
  0.09990474 -0.03468558 -0.18351872 -0.22399409  0.16988635 -0.11060351
  0.07473094  0.12411066  0.1063445   0.11562317 -0.07885942  0.06906162
 -0.05210386 -0.05240939 -0.1624731  -0.07914894  0.15902145 -0.13462786
 -0.15626715 -0.148272   -0.01224249  0.21847504 -0.12331117  0.04247327
  0.115417    0.02156987  0.09149209  0.08053585  0.10311712  0.09929662
  0.04398648  0.07790731 -0.10564425  0.17532492  0.05678318  0.24789013
 -0.05799976  0.09841072  0.05318627  0.03192084  0.16401807  0.09011603
  0.03424727 -0.09333156 -0.02872994  0.03904184 -0.07740554  0.02239964
 -0.0696905   0.13775428  0.0194802  -0.11350262 -0.08815956  0.10674405
 -0.06074678 -0.0176434  -0.06657638  0.01976548 -0.09663471  0.10829242
  0.13841875 -0.00095248 -0.04640091  0.07959062  0.09516496  0.0772689
 -0.15139845  0.19549192 -0.189915   -0.19310372 -0.04938682  0.00765318
  0.07852841  0.14732319 -0.05908631 -0.20435363  0.25923853 -0.06398228
  0.04919713 -0.08811183  0.00118823  0.18449136 -0.11580427 -0.02600745
 -0.17144462 -0.12369558 -0.12501422 -0.20027063  0.00370401  0.07379699
 -0.23935807 -0.08592398  0.02614768  0.09696284 -0.15508244  0.22919351
  0.05695103  0.11957048  0.26775417  0.27809146  0.07440484  0.00242567
  0.11390586 -0.16438446]
[ 0.08934585 -0.2068393  -0.05960364 -0.07826382 -0.08461516 -0.08938901
 -0.10418462 -0.02660745 -0.18189575 -0.11167425  0.17257385 -0.0069215
 -0.08780084 -0.06940962  0.14787206 -0.1863178   0.12760746  0.06458508
  0.01582501 -0.22556078 -0.01708318  0.14051277 -0.24551421  0.10853353
 -0.02367428  0.09344106  0.05149365  0.0838563   0.15100503  0.04320856
 -0.1818119  -0.09546508 -0.0019766   0.16580968 -0.23332342  0.02345063
 -0.0646212  -0.03963361  0.06604339 -0.01749261  0.15844004 -0.16821298
  0.0826265   0.20774061 -0.01003978 -0.21116754 -0.03573684  0.15854275
 -0.18512659  0.01233277 -0.16182    -0.07128717  0.11383236 -0.19467469
 -0.00744318 -0.02456363  0.00549834 -0.08805265  0.26243081  0.18901685
  0.15877253  0.17532069 -0.26874574 -0.06220478  0.00473514 -0.04448478
  0.12716937  0.09014228  0.26763204  0.0824746  -0.09679388 -0.04861504
 -0.17707931  0.00981387  0.22016687  0.21598626  0.05856521  0.01139906
  0.04581057  0.03937746 -0.17256166 -0.0798192  -0.10748986 -0.09578547
  0.07636727  0.15553114  0.05468487 -0.17284274  0.01257839 -0.05301938
 -0.26623899  0.04316852 -0.06820192 -0.19899849 -0.24705986 -0.04384074
  0.09633851 -0.11071843 -0.15341644  0.20070909  0.07351228  0.08610144
  0.03670119  0.12214272 -0.092125   -0.15494008 -0.0090239  -0.19409339
  0.09840215  0.25040934 -0.26379345 -0.05874958  0.04980722  0.0190221
 -0.17104053 -0.03508535  0.07158724 -0.03957347 -0.10067844 -0.18344447
  0.15879976  0.04928878  0.03506435  0.10186438  0.08976327 -0.09515444
  0.04607356  0.00560219]
[-0.04674042  0.0929495  -0.14668915  0.17447931 -0.20320453 -0.19152597
 -0.11400072  0.25017888  0.10624882  0.05345258 -0.11317946  0.20725007
 -0.19882402  0.11067496  0.05995614 -0.00669572  0.08078224  0.06858979
  0.10259949 -0.15608974 -0.15255981 -0.00970601  0.05536687 -0.03876785
  0.03619813  0.17634105 -0.07400658  0.08786751  0.01443901  0.09261334
 -0.1398097  -0.03932561  0.10128154  0.02832387 -0.05100928 -0.00454321
  0.0504584   0.11508344  0.07129237 -0.16679511  0.06979179 -0.10565829
 -0.20607058  0.10315919  0.08984975  0.24696754 -0.2488545   0.01398291
 -0.02005151  0.06187287 -0.08648553  0.02718235  0.01464096  0.11119321
 -0.01763369 -0.04356148  0.06981269  0.04646157  0.05523892 -0.11185502
 -0.08334546  0.12032104  0.11701272  0.04902504  0.20852572 -0.03874182
 -0.22870797 -0.06168644  0.10481087  0.03159616 -0.05944628 -0.12352592
  0.00881164  0.1383227   0.08928922  0.06513267 -0.0931165   0.21456865
  0.01487208 -0.05008404  0.12587754 -0.01713064  0.16728475 -0.03814435
 -0.02885952 -0.08897225  0.05163824  0.06833157  0.08510197  0.05671604
 -0.12852351 -0.07476721  0.19844026  0.02398463  0.17255933  0.01745933
  0.20170308 -0.03731654  0.00082816  0.15742262  0.1592682   0.03595637
 -0.00168777 -0.00729898 -0.09660739 -0.16787146 -0.07145587  0.09267646
  0.13698547 -0.05553972 -0.018958   -0.03943146  0.19794159  0.09049697
  0.08672232  0.05972239  0.00176851 -0.08445531 -0.13851336 -0.2393859
  0.0157723  -0.10884788  0.14213218  0.04684527  0.04619658  0.07255325
  0.03917688  0.09161105]
[ 0.00355877 -0.02953587 -0.25568292  0.04117952 -0.17109868  0.04383642
 -0.12876142 -0.01844634 -0.01195724  0.20200332  0.04042573  0.0011604
 -0.09397526 -0.01071904  0.19612679 -0.03184857 -0.00779833 -0.08563288
  0.09166323  0.07603172 -0.25024609 -0.20504497  0.04532481  0.00581926
  0.22661733 -0.08614937 -0.09964648 -0.25305302 -0.17581835  0.12711525
  0.05157515  0.02547939  0.05229925  0.0655704   0.26454902  0.1171531
 -0.04536173  0.10851251 -0.18105631  0.15366992  0.04777116  0.03985991
 -0.13464809  0.15491105 -0.10685546 -0.07240333  0.17614311  0.13439389
 -0.08183028  0.1010107  -0.23682452  0.12879041 -0.13035979  0.04531504
 -0.21963749  0.08482389 -0.03048014 -0.26894897  0.02696554  0.1310252
 -0.18307661 -0.15256761  0.0315731   0.07474674 -0.09314456  0.06293209
  0.13075086 -0.1095567  -0.07963307 -0.02865989  0.09478824 -0.09610591
  0.05875454 -0.10587109 -0.02929213 -0.04902381 -0.10226493 -0.00460328
 -0.06150287  0.05696867  0.01089816 -0.04957047 -0.08289015 -0.25838106
  0.12003376  0.00842622 -0.02540275 -0.02947548 -0.08767156 -0.03570018
 -0.08898324  0.20142533  0.0333343   0.18535821  0.13613963 -0.00557242
  0.01064307 -0.11100712 -0.04847288 -0.18719177 -0.13944297  0.07807074
  0.24746604  0.10500042  0.09515039 -0.06133533  0.21027506  0.05165888
 -0.01057689 -0.01229958  0.15420802  0.0332939   0.17460758 -0.06586517
  0.06804941 -0.03105107 -0.11879485 -0.21195957 -0.08231137  0.260741
 -0.17147562  0.09626963  0.1191998  -0.04923858 -0.12384343  0.10131135
 -0.26284834 -0.22894369]
[-3.00146483e-02 -1.10734002e-01 -2.69026095e-02  1.46633060e-04
 -4.57119486e-02  3.32382897e-02 -1.10081320e-02 -7.00654038e-02
  4.73864634e-03 -2.21306619e-01  6.22064438e-02  7.98905076e-02
 -1.51979754e-01  1.69437755e-01 -6.89706833e-02  1.47246319e-01
  1.00106254e-01 -9.39227946e-02 -1.21763180e-01  5.79086892e-02
 -1.78418772e-02  7.84321954e-02  1.60078321e-02 -1.45650960e-02
  1.26414959e-01  3.56108477e-02  2.00925732e-01 -1.55282924e-01
 -1.70324763e-01 -8.30402533e-02  5.20283151e-02 -1.09026382e-01
 -1.90504048e-02 -1.43591151e-01 -8.50052373e-03 -1.87525719e-01
  3.35250837e-02 -5.18782988e-02 -2.08074190e-01 -6.79660638e-02
 -1.97410989e-01  1.74838017e-01 -1.82634022e-01 -1.35771792e-01
  5.79304663e-02  2.28968024e-01 -1.96202067e-01 -1.98612342e-01
  6.76133669e-02  1.14582034e-01  1.78505969e-01 -8.34919826e-02
 -1.71284873e-01  3.52714184e-02 -8.20662871e-03  7.06012874e-02
  3.69274767e-03 -8.08952973e-02 -1.86311179e-01  2.25225142e-01
  1.55925585e-01 -1.91479661e-01 -2.45172096e-02 -1.30129263e-01
 -1.65548660e-02 -2.24929130e-01  8.29138252e-03  4.79804665e-02
  2.93954325e-02 -1.53016770e-01  9.66224590e-02 -7.91015446e-03
  8.15388149e-02 -5.62180623e-02 -1.91367064e-01  2.06308014e-02
  1.43580151e-01  2.55996586e-02  1.63070010e-01 -9.47711918e-02
 -3.23250038e-02  1.04973130e-01 -1.15041811e-01 -1.70070462e-01
 -1.02973441e-01  1.00022688e-01 -1.44056649e-01 -1.35754845e-01
 -2.19885881e-01  3.03977592e-02 -2.95755638e-02 -7.55655085e-02
 -3.11628442e-02 -5.29055018e-02  1.15222894e-01 -1.02966594e-01
 -2.31665813e-01  4.06570842e-02 -7.76043071e-02 -1.14302622e-01
 -2.01736602e-01 -8.88477720e-02  1.62033116e-01  6.56170224e-03
 -1.99633297e-01  9.25789013e-02  2.09713757e-01  7.44460254e-03
 -6.34451620e-02  9.60214377e-02 -5.70670304e-02  1.54534433e-01
  1.81372849e-02 -3.20644169e-02 -8.13621007e-02 -1.21440292e-01
 -1.01178451e-01 -5.73314913e-02 -1.08396073e-01 -2.62146842e-01
 -1.23270227e-01 -1.27054204e-01  1.28555905e-01  3.09608267e-02
 -2.68584588e-01 -1.60351153e-01  1.99642447e-01  4.54160299e-02]
[ 0.09265643 -0.09239228 -0.07470973  0.2101795  -0.11361702 -0.0494745
  0.16305394 -0.11454608  0.1617742   0.09183874  0.20303029  0.09348008
  0.14236276  0.11446242  0.13227828  0.23111589  0.06254654 -0.1478968
 -0.08749321  0.005332    0.15078345 -0.01336887 -0.22167161  0.19790074
 -0.2233202  -0.12787853 -0.04677504  0.24012623  0.03630399 -0.14375252
 -0.16376526  0.0661239   0.0856103  -0.06954345  0.05738645 -0.00797399
  0.06088105  0.27127346 -0.0724094  -0.0876936  -0.03629886  0.09281743
 -0.12214855 -0.12047411 -0.05948421  0.01882134 -0.01518734 -0.19203558
  0.05066397  0.08739584  0.00639341 -0.11649054 -0.0768437   0.04159887
  0.1273613  -0.11150296  0.07721784 -0.11134322  0.2080999   0.11371855
 -0.07853363  0.1856815  -0.18208373  0.08919674 -0.14320701  0.16596276
  0.251994    0.07506222 -0.21058938  0.03943023  0.039505   -0.00364578
 -0.02417676 -0.25484425 -0.00617388  0.16140213  0.10493961  0.24863346
  0.02052797  0.23985572 -0.07845984  0.16750509  0.14268089  0.04878591
 -0.10346575 -0.15588166 -0.17339321  0.10694676  0.11944907 -0.08340024
  0.07479106  0.01973621 -0.12661051 -0.2300077   0.08337129  0.09572717
  0.09934707 -0.01023382 -0.12123203 -0.09911446 -0.13320509 -0.02316247
  0.02832735 -0.01097005 -0.23929286  0.10247198 -0.11051271 -0.15533382
  0.12471733  0.21150541 -0.13823772  0.22567286  0.18327889 -0.00287044
 -0.05564073  0.05419878 -0.18957001 -0.15758426 -0.12262357 -0.219736
 -0.08011633  0.14693305  0.07794661  0.02100601 -0.22473004  0.17680029
 -0.10145808  0.00923582]
[ 0.13242035 -0.23944854  0.16057483 -0.04705556 -0.049011   -0.08002468
  0.18615181 -0.11513599  0.09406746 -0.02453065 -0.02666249  0.18866495
 -0.07861927  0.09651385  0.23701498  0.19380987  0.12575673 -0.06661427
  0.21980077 -0.01613321 -0.08242828 -0.06952304  0.05292762 -0.08766549
 -0.10271194  0.01571065 -0.00431418  0.03435523 -0.01830933  0.0965894
 -0.09376136 -0.06454305  0.06279288  0.25135848  0.12240802 -0.06407568
  0.15220505 -0.01883709  0.15405155  0.04641592  0.19065879 -0.03626502
 -0.08864588  0.0294559   0.03852904  0.00204149  0.04787548 -0.09331812
 -0.11811705  0.16484542  0.04942648  0.0947565   0.03244797  0.14286331
  0.05880181  0.22770988 -0.18921579  0.19411981 -0.0424826   0.11560478
  0.07101455 -0.02304837 -0.09353282  0.16437481  0.22428325  0.14187981
 -0.22034812  0.02103668  0.26038519 -0.02124602  0.11482974  0.06095962
  0.07042179  0.03754356  0.02094417  0.14989784 -0.10509878 -0.1521748
  0.10885628 -0.17363786  0.037804   -0.11165001 -0.11801045  0.04866402
  0.04042166  0.1256321   0.06104181 -0.06467439  0.24337612 -0.01817945
 -0.00788297 -0.06107025 -0.10510484 -0.18211186  0.0816845  -0.02597244
 -0.15228758  0.06267288 -0.07049704  0.05675183 -0.03352547 -0.00880817
 -0.07806503 -0.08980618 -0.14209565  0.11708019  0.1063121  -0.1323863
 -0.17282901  0.00876782  0.12043168 -0.0103859   0.02124422  0.11338016
 -0.07723234  0.18805919  0.09755686 -0.11658632 -0.03896923 -0.26032924
 -0.01929945  0.01186801  0.02469552  0.03941924  0.12898732 -0.11617013
  0.20720705 -0.09414402]
[ 0.07497188 -0.2698646   0.06058431  0.18118071 -0.11882292  0.05318183
 -0.06940067 -0.01125944 -0.09511586  0.08769674 -0.00221781  0.22308415
  0.10743949  0.03546843  0.04884537 -0.07374698 -0.18164095 -0.07908429
  0.02709397  0.16051293  0.00851098 -0.05787264  0.18181111 -0.00342709
  0.27755126 -0.00196858  0.03545824 -0.04305697 -0.02729173  0.1983505
  0.2118346  -0.24573723 -0.1469357  -0.02842772  0.00271407 -0.24731882
  0.01396908  0.09361205  0.11500944 -0.1760985  -0.11367639 -0.00504334
 -0.20978645  0.13079191  0.15957092 -0.08543082  0.14019486 -0.09331933
  0.04963652 -0.21562784  0.19595561  0.03646592  0.07879508  0.1042668
 -0.18048714 -0.25358257  0.06537224  0.21880695 -0.04931147 -0.00716171
 -0.12698935 -0.0720809  -0.16574564 -0.09516728 -0.04876141 -0.04290047
 -0.00296235  0.04014603 -0.01411526  0.11146137 -0.11699371  0.15815727
 -0.2219931   0.0374385  -0.08337808  0.01881899 -0.14131385  0.00748925
 -0.11974729  0.05991836 -0.11346243  0.0905086  -0.06719799 -0.0942915
  0.09571687 -0.05661733 -0.05329004  0.06806443  0.22555588  0.1018311
  0.0668129   0.09520665  0.01884     0.23721792  0.04314902  0.00521749
 -0.13434025  0.08169279  0.1323487  -0.08273145 -0.04138676 -0.13453018
  0.11291281  0.00760725 -0.15276631 -0.10448895  0.26905153 -0.01401081
 -0.08562143 -0.10922363  0.28355652 -0.00689825  0.2243272  -0.08435389
  0.03975298  0.08342617  0.06151826  0.04186923  0.11898054  0.05376596
 -0.18527716 -0.1055214  -0.16568989  0.13488888 -0.07271331 -0.17060969
 -0.06259333  0.09044341]
[-0.17199055 -0.06197195  0.02228921 -0.04387517  0.05531338 -0.09516846
  0.04066489  0.07998392 -0.06539101  0.06711288  0.09442046  0.17680482
  0.02975234  0.01993497  0.11813016  0.07477917  0.04061004 -0.04090224
  0.07232276 -0.05346156  0.05718276  0.0119417  -0.03664627 -0.13465627
 -0.15821551 -0.00399992 -0.10406935  0.02031996 -0.2350662  -0.10080515
  0.00590048 -0.00676635  0.13955739 -0.26415613 -0.05846298 -0.1912267
 -0.01912763 -0.1888199  -0.10569464  0.05139106  0.03644289  0.14490124
  0.09498191 -0.01821617  0.14384781  0.13692357  0.20569406 -0.19448029
 -0.08833603 -0.05295065  0.07307389 -0.00867179 -0.05024921 -0.25049978
 -0.21065984 -0.11973588 -0.11385098  0.21645327 -0.11384541 -0.11141811
  0.26792831 -0.03566384  0.1852091  -0.17337938  0.07939981  0.06764514
  0.01022003  0.13614825  0.00525314  0.13000836 -0.00682854 -0.12408925
 -0.01560687  0.17429615 -0.08635553  0.1719285   0.19243568 -0.01906608
  0.12157076  0.07991204 -0.13629039 -0.06012786  0.07857745 -0.14042699
  0.07654494 -0.13396908 -0.05093033  0.08816059 -0.0590994   0.14835302
  0.02783687  0.08963949  0.01303986 -0.02095517 -0.04643745 -0.081465
  0.12498041  0.11771998  0.16024919  0.04461924 -0.058427   -0.0058197
  0.27814143 -0.19434718 -0.25325626 -0.02739763 -0.12414612  0.21625551
 -0.19353386  0.25610104  0.20174398  0.07504108  0.02313941  0.03431472
  0.23600966  0.0869912   0.0282238  -0.00672761  0.1199767   0.1350429
 -0.16599484  0.2232767   0.0759187  -0.17245009 -0.07672032 -0.04899188
  0.00764193  0.06289432]
[-0.00254641 -0.02467086  0.26199434  0.22654768 -0.12775394  0.05259319
  0.1888622   0.03281832 -0.08759699 -0.01404865 -0.10048968  0.0077383
 -0.03044282 -0.1479549   0.03257701  0.20565528 -0.08800716 -0.07256869
 -0.00839891  0.05684047 -0.03357048 -0.0836523   0.08582287  0.06935357
 -0.09801813  0.0717068  -0.18459328  0.02442336  0.00351969  0.06078937
 -0.05544153  0.21591878  0.08214012 -0.05270084 -0.02939238 -0.07010949
  0.25688448  0.11928047  0.00889209  0.10942598  0.09205172 -0.17671021
 -0.14519348 -0.13642622 -0.14631617  0.11584778  0.1885446   0.18836946
 -0.2309128  -0.06196808 -0.00906096 -0.05003908  0.05461036  0.00940072
 -0.01117847  0.16647527  0.08489529  0.1010881   0.00590706  0.12877911
  0.01414472  0.00249719  0.00303821 -0.03159029 -0.18457916  0.25443476
  0.01930369 -0.19686376 -0.06613929 -0.064168    0.12908334 -0.18520263
  0.03782418 -0.18523152 -0.2361902  -0.01042164 -0.16729077  0.06868832
 -0.17879997  0.06048887  0.15105706 -0.20089764 -0.02312405  0.01221318
 -0.22570965  0.06929543  0.08560565 -0.16001254 -0.07290572 -0.12300171
 -0.02474769  0.21092662  0.066437   -0.04992564  0.16519491 -0.13226445
  0.07561113 -0.14866748  0.21323904 -0.07201696  0.10555945  0.05268243
 -0.14694543 -0.12338263 -0.10569538  0.05074546 -0.07681825  0.06852215
 -0.04643221  0.07903917 -0.12048477  0.03945019  0.09965529  0.08533118
 -0.12254465  0.02404629  0.23489275 -0.0113615   0.16541917  0.08762983
 -0.165945    0.08844381 -0.15191433  0.25507087 -0.13212887  0.11471686
  0.10748181 -0.22959613]
[ 0.01929734  0.11000938 -0.06586973  0.08386937  0.1300329   0.06037944
  0.08862946 -0.00782824 -0.12209597  0.0876164   0.0060558  -0.07022084
  0.17145602 -0.13657734 -0.06849302  0.06344923  0.07246006  0.10059146
 -0.24274591  0.25373841  0.02781067 -0.01692528 -0.25029724 -0.02710292
 -0.07906249  0.086097   -0.14578402  0.26786938 -0.10697797 -0.00542602
 -0.15198714 -0.12893455 -0.09665403  0.09346936 -0.05777237 -0.24374852
 -0.19169368  0.07534421  0.01172637  0.1265899   0.13733776 -0.03372842
 -0.03429135  0.06616219  0.09255776  0.25137134  0.07027436  0.07859383
 -0.04770777  0.00875735  0.17554359 -0.03434217  0.13259842  0.09840878
  0.11075461  0.00410157  0.02638433 -0.27351426 -0.04070025  0.06296908
  0.01246047 -0.16771011 -0.15572159 -0.00215252  0.01372158  0.11715447
  0.08994933  0.1035803   0.18698002 -0.27485066  0.03088487 -0.10946025
  0.05149492 -0.26986355  0.02046254  0.09353313 -0.00927746 -0.05152682
 -0.03953474  0.00463236 -0.14349993 -0.24502343  0.04308754 -0.21819082
 -0.07482968  0.08331743 -0.17442657 -0.15525288 -0.10826956 -0.21426145
 -0.02320546  0.16388121  0.06309783  0.22273606  0.13013917 -0.01272829
  0.10352423 -0.00107226 -0.08952057  0.02444426 -0.1259409  -0.06103878
  0.08723946 -0.09851294 -0.11131187 -0.14204566 -0.07565422 -0.00782444
  0.08005797 -0.04636018 -0.23814847 -0.08836523 -0.0629323   0.25477178
 -0.10694808 -0.07939473 -0.22574285 -0.02311603  0.00223291 -0.12364026
 -0.11014208  0.16527054  0.01295124  0.16995731 -0.03673279  0.2372879
  0.15405346  0.01381271]
[-0.2556966   0.0739818  -0.07041379 -0.0284963   0.09695211 -0.02932313
  0.01029988  0.26203544  0.15659741 -0.01403959 -0.02732464 -0.15448192
 -0.05391416  0.16004375 -0.00390172 -0.12086006  0.13044229  0.07389858
  0.02374331  0.07631806  0.11151558  0.10223035  0.05255089  0.17972765
 -0.02572667 -0.262536    0.14205092 -0.03421338  0.22782872  0.03949741
  0.01252372  0.02813937  0.0278828  -0.23056534  0.02555725  0.12680238
 -0.08109273  0.11771155  0.03150944 -0.01569743 -0.14334912 -0.08768191
  0.09202098 -0.16984107  0.08823142  0.04755855  0.04255011 -0.1204198
 -0.11334185  0.13492849 -0.25514002 -0.27286202  0.10488048  0.16105919
  0.09811601 -0.01056894 -0.05887614  0.12254012  0.04164772 -0.01313025
 -0.15396294  0.23592934  0.09129484 -0.21130117 -0.17274467  0.09315993
 -0.10916782  0.05222824  0.01003564 -0.12214093 -0.0238555   0.27249436
  0.05400386  0.07685717 -0.17676472  0.10060724 -0.18119113 -0.1151099
 -0.13174703 -0.04511489 -0.13045718 -0.05171419  0.00928257  0.0440364
  0.07238368  0.24588584  0.08233696  0.08976429 -0.05361232 -0.05224963
  0.0075796   0.18133013 -0.11090135  0.07650508 -0.01678044  0.02753724
 -0.00891097  0.06206207  0.08102288  0.1226299   0.05496986 -0.10275311
 -0.06956263 -0.1552386   0.23667055 -0.24024195  0.08649084  0.06449661
  0.05096528  0.06570292 -0.11328835 -0.10647887 -0.0308924   0.01638426
  0.19433698 -0.20671293  0.17517693 -0.03822151 -0.06194551  0.27849834
  0.16253168 -0.15309096  0.09995374 -0.07903114  0.16164255  0.13498493
  0.08167886 -0.03799817]
[ 0.13001593 -0.02116575 -0.22588723 -0.18592742  0.10219605  0.17912449
 -0.02769024  0.23881028 -0.15623541 -0.09971433 -0.05495109  0.01814825
  0.23873753 -0.09234814  0.15491382 -0.18608279 -0.01366073  0.11584667
  0.10243259  0.06260469  0.01800158 -0.01127029  0.01752437 -0.15198854
  0.01417759 -0.05458933  0.01178604  0.10097741 -0.01072504 -0.08508739
 -0.17233869 -0.07941898  0.17247873  0.01718398 -0.11633251  0.19968736
 -0.00742805  0.2458326   0.141283    0.24169826  0.0497982  -0.11497211
 -0.16886251 -0.18793471  0.07698305 -0.13848901  0.0115569   0.25915625
  0.07205282  0.00671075 -0.11038947  0.18481129  0.14761212  0.11128654
  0.03525963  0.05045731 -0.0412911  -0.06596383  0.06461913  0.07357971
  0.01665075 -0.14952443  0.17320419 -0.06384104  0.0852133   0.10412674
 -0.08522876 -0.25185521  0.25753857 -0.07799742  0.16980338  0.00641401
 -0.11581022  0.0834502  -0.02118807  0.03203927 -0.10888833 -0.04126099
 -0.2610853   0.04528533 -0.08822262  0.12291311  0.17074502 -0.12637807
 -0.0990336   0.06946294  0.13490061  0.0952725   0.00286391  0.13241327
  0.07359696 -0.05315814  0.12912719  0.07543165 -0.02249994 -0.09701264
 -0.11593071 -0.23512343  0.175517   -0.14118184  0.00084225 -0.13887325
  0.03634352 -0.01085014  0.20062569 -0.02561504  0.11071941 -0.08490657
 -0.02488061 -0.06177666 -0.25586357  0.11069962 -0.10018212  0.05708856
  0.19672793 -0.19001765  0.15887542 -0.16263968  0.07598168  0.00275699
 -0.10332745 -0.12420108 -0.08473815 -0.06595622 -0.15717394 -0.11589009
  0.02343583  0.15104255]
[-0.05480587 -0.16954216 -0.05431539  0.12807529 -0.16593685 -0.10312191
 -0.04729956  0.0275355  -0.1205827  -0.02452513  0.01853792  0.11308042
 -0.03636852 -0.03181101 -0.04663183  0.01583797  0.09455746  0.1987506
  0.16524991  0.03512212 -0.10552184  0.11170793  0.01649274 -0.06789972
 -0.06747515  0.020434    0.10410247 -0.19360795  0.03815813  0.01512452
  0.07712267 -0.06760286  0.10376551  0.07329636 -0.17987075  0.19936356
  0.14601432 -0.05265832  0.23979546 -0.1162234   0.04088404 -0.11041673
 -0.03457417 -0.16474917 -0.03269928 -0.04072443 -0.19482612 -0.08197622
 -0.14710482  0.26357274  0.19990241  0.11092215  0.09370317  0.27967844
 -0.18493029  0.10262696 -0.23982853  0.11617891 -0.01534459  0.03125931
  0.10440773 -0.01347932  0.13490478 -0.03033403 -0.03509382  0.00891365
  0.20004806  0.19196052 -0.05216026  0.01157103  0.24471162  0.08367715
 -0.28038535  0.10301232 -0.10479096 -0.09933036  0.06811401  0.15127011
 -0.03311404 -0.18460958  0.03806849  0.01236193 -0.16123065  0.01524975
  0.1336271   0.16763423  0.16724495 -0.09205232 -0.09546211 -0.01411328
  0.02005433  0.00758017 -0.06980164  0.15380083 -0.17216294 -0.09451141
  0.26036445 -0.17486791  0.0214621  -0.01594779  0.05072886  0.05829358
 -0.04448561 -0.1539525   0.12737504 -0.19812529  0.07772548 -0.19480086
  0.02638495 -0.25573366  0.14242204  0.00708357  0.08957998 -0.19141793
  0.0302124  -0.03437026  0.16419495  0.19949826  0.15362323  0.09414399
  0.15021893 -0.04976238  0.01318724  0.16983768  0.27973681  0.0282539
  0.1606034   0.24201676]
[ 0.25391998 -0.10908887 -0.02583599  0.10662448 -0.04533997  0.12923359
  0.05602765 -0.02243977 -0.06148877  0.00552212  0.12663298  0.21654596
 -0.08337291 -0.00690232  0.08400493 -0.01560228  0.13323314  0.22801142
 -0.25312289  0.15311199 -0.00745678 -0.19158159 -0.00365009 -0.05171218
 -0.17848651  0.01895431 -0.21610902 -0.13059457  0.0027267   0.01065692
  0.02796845 -0.04241054  0.08553461  0.11460578 -0.17534665 -0.07566674
  0.07033262  0.08411915 -0.09468852  0.05232592 -0.07125851 -0.11713066
 -0.11570086 -0.18439875  0.13242016 -0.07546428 -0.02383609 -0.06664444
 -0.16617287  0.08025881  0.09997979 -0.1107677  -0.02583619  0.148467
  0.09176573  0.11159762 -0.19124135 -0.1523013  -0.02017631  0.12028425
  0.24522963  0.0941055  -0.04118857 -0.13311656 -0.04861201  0.20325364
 -0.00767327 -0.04229735 -0.02128048  0.12601766 -0.11941269  0.1526984
 -0.11266884  0.05194958  0.24482984 -0.27981476  0.00511814  0.0353494
 -0.09671169  0.09003049  0.16417947  0.23035458  0.09730758 -0.15562854
 -0.14484197 -0.26337199  0.15325716  0.03362597 -0.28273628 -0.1124554
 -0.26075747 -0.12853761 -0.00923714 -0.13040415  0.03624504 -0.07320792
  0.1588474  -0.22210526  0.07839435  0.01889884 -0.00195787  0.0377427
 -0.06789823  0.11095562 -0.21220789  0.04700467 -0.15276142  0.02802871
  0.03807845 -0.18611619  0.08667468  0.07211229  0.09849307 -0.09328226
  0.00739426  0.17215515  0.19661507 -0.10058859 -0.18126654  0.15032071
 -0.17502581 -0.12875908 -0.03919926  0.21932461 -0.05984602  0.01173703
 -0.11066179 -0.03747782]
[ 0.24358458 -0.07994616  0.06074452 -0.07394124 -0.20101391  0.06080344
 -0.09538468 -0.06744164  0.01445927 -0.10653336 -0.10708275 -0.03642138
  0.10516512  0.19839135  0.15124746 -0.0529979  -0.15363152  0.09418038
 -0.22606351  0.19678573  0.15477756  0.24350907  0.03597932  0.22873544
  0.06397724 -0.1309855  -0.01883174 -0.07810056  0.00598974 -0.22384454
  0.03108806 -0.12464981  0.20777311 -0.20868935 -0.04727593 -0.08852247
  0.25381828  0.07396221  0.21592428 -0.11850244 -0.06762695  0.01159391
 -0.04055667  0.04131618 -0.01964186 -0.09489214 -0.18286202  0.11616229
 -0.17847552  0.01119177  0.02363834  0.08426416 -0.08120099 -0.05936721
  0.13707405  0.05458592 -0.07030037  0.11426865 -0.18469779  0.19201695
 -0.01617464  0.2530635  -0.0672882   0.12685167  0.20629803  0.03918733
  0.09477145  0.18295481 -0.11114834 -0.02444209  0.09378553 -0.12221868
 -0.0222331  -0.01307399 -0.10685872 -0.07735172  0.24558807  0.1866764
  0.0181889   0.18716723  0.0550482   0.06138152 -0.15526663  0.16818009
 -0.00751605 -0.05285461 -0.00221914  0.19798871  0.18574276  0.27507758
 -0.12457062 -0.12657911  0.11898886 -0.06352145  0.12215366  0.13873448
 -0.08597895 -0.20935459  0.08256699  0.12764341  0.01236193  0.23363656
 -0.09473578 -0.10763682 -0.24300158  0.04182887 -0.01624263  0.13725378
  0.16835074 -0.10670378  0.05714742 -0.05755392  0.01510626 -0.08054956
  0.15708315 -0.09863649  0.03287011  0.02156823  0.01480766 -0.05889952
  0.2369422   0.2272714  -0.05858621  0.06833277  0.23940416 -0.15998106
 -0.04964981  0.1336342 ]
[ 0.05287591  0.10704221  0.15255798 -0.0515471   0.19696675  0.04171364
 -0.22255168  0.05751618 -0.20217136  0.18953472  0.17805755 -0.03000139
 -0.15992981  0.0045163   0.2068087  -0.23562926 -0.21942223 -0.0430643
  0.01941054 -0.04015805 -0.10812429 -0.19745747 -0.04654072 -0.26696917
 -0.11979935 -0.2529918  -0.00051375  0.09111593  0.11872334 -0.26780798
 -0.04964726  0.00204895 -0.10355087 -0.11257751  0.00419692  0.25306656
 -0.0687707   0.12451213  0.17299042  0.03219209  0.24053084 -0.01625442
 -0.18748019 -0.22544632 -0.11442358 -0.12552909  0.09462112 -0.12999352
  0.01435863  0.04672788  0.21028257 -0.07579993  0.19677666 -0.08487458
 -0.074534   -0.11220029 -0.23080293 -0.06246008 -0.10701103 -0.05349018
 -0.11098488 -0.09391654 -0.20747454 -0.07365695  0.23420344 -0.029167
 -0.10588183 -0.11479802  0.06844431  0.08125958  0.01123442  0.05205194
  0.22167713 -0.16063286  0.06068856  0.17014771  0.01351532 -0.18092798
 -0.02164915  0.08478027 -0.21212685 -0.12038848  0.23422318  0.05906495
  0.05118974 -0.01901228  0.12985623  0.06987895  0.06981433  0.03050165
 -0.11226149  0.04035735 -0.13847674 -0.26157371 -0.1863126  -0.00192235
 -0.20772117 -0.05996687  0.1255524  -0.0920336  -0.03365843 -0.09788144
  0.26513597 -0.05110202 -0.23709071 -0.10474787  0.06496772  0.108369
 -0.15578581  0.26738363 -0.23394223  0.01227256  0.1690598   0.12926768
  0.00807922  0.09721519 -0.23298974  0.10098042  0.09178446  0.00142774
 -0.14683899  0.10978625  0.11536583 -0.13005748  0.0533809   0.17444864
 -0.12788648  0.06987968]
[ 0.06207171  0.05346774  0.07157144  0.03677933 -0.08730409 -0.26312483
 -0.07656977  0.17929201  0.00799587  0.11179389  0.04322377 -0.13288976
 -0.02053615 -0.05228383  0.14584265  0.24903029 -0.0522879   0.08387217
  0.03155011  0.1018183  -0.04458855 -0.18302164  0.04188128  0.19442994
  0.01425352 -0.16721555  0.04475875  0.01529748 -0.03375463  0.00809951
 -0.10235248 -0.12006995  0.21016429 -0.04351387  0.07322643  0.25466889
 -0.02557772 -0.09905876  0.06981609 -0.09045826  0.15547544  0.01423451
  0.02777265  0.13746941  0.0225615   0.11287404  0.0094403  -0.00491753
  0.25020878 -0.2542365  -0.10767453  0.10718661 -0.15289516 -0.11732016
 -0.24171036  0.13449549 -0.06576178  0.01830647 -0.09467575 -0.02753106
 -0.081985    0.05130177 -0.03646183 -0.13961443  0.02323774 -0.11201443
  0.127382    0.24217749  0.11128859 -0.27100034 -0.0189007   0.02627145
 -0.08328856 -0.14407688  0.18745101 -0.06156496  0.13785406 -0.12071639
 -0.09060162 -0.0984246  -0.20444151 -0.10311615 -0.10374139  0.00618272
  0.02625258  0.1244311   0.13277898  0.24844685 -0.09206866 -0.23047842
 -0.1947922  -0.07247231 -0.07028053 -0.00983193 -0.11192985 -0.25065036
  0.07568772  0.1703572  -0.18605186 -0.17741611 -0.09479704 -0.19453337
  0.06968398 -0.08454413  0.15589177 -0.06036857  0.11741499 -0.15449464
  0.10316877 -0.11653205 -0.11843329 -0.08060693  0.09193247  0.14291855
 -0.09031618  0.1211352  -0.07611881 -0.0495902  -0.17946304  0.00522828
 -0.08102105  0.09584468 -0.02931399 -0.16664432 -0.10265206 -0.06663754
  0.02067855  0.18068467]
[-4.38078588e-02 -5.13651536e-02  8.34159566e-02 -8.98336513e-03
  1.18520381e-02  2.00244615e-01 -1.39154745e-01  9.97649290e-02
 -1.50886745e-02  1.86868801e-02 -1.50960584e-01  1.44971037e-01
  1.33538378e-01  1.74528354e-01  2.57507475e-01 -6.00303789e-02
  5.61614600e-02  1.48343139e-01  6.80705662e-02 -9.25680049e-02
  6.46667439e-02 -1.15920827e-02 -7.89438809e-02  2.60273325e-01
 -8.98004332e-02 -2.30516779e-01  1.13224287e-01  1.39997833e-02
 -2.14354903e-02  1.71520755e-01  1.88858340e-01  6.12391503e-02
  1.62216579e-01  2.85489920e-02  3.47774858e-02 -1.64961303e-01
  5.31078509e-02  4.70838935e-02 -9.22894623e-03 -1.20515660e-01
 -7.26933538e-02 -1.07779468e-01  4.69290284e-02 -1.25196341e-01
  2.21511188e-01 -3.31518011e-02  8.48495184e-02  1.79177564e-01
 -1.41061715e-01  4.50378735e-02 -2.19165532e-01  2.28917418e-01
  2.08011637e-01  4.17015766e-02  1.27502470e-01  7.76964671e-03
  6.96042477e-02  8.85531166e-02  2.87999714e-02  1.34868413e-01
 -9.19628441e-02 -1.71511386e-01 -1.43835648e-02  7.57538426e-02
  6.32020392e-02 -2.20814106e-01  2.39366719e-02  2.37241953e-01
  1.89148692e-01  1.21010481e-01  1.84396038e-01  1.02160315e-01
 -1.85879360e-01  1.88160545e-01  7.06605467e-02  1.15699733e-01
 -2.48551728e-01 -1.05111215e-01 -1.05216749e-01 -8.74299977e-02
 -1.09629384e-01 -3.55263519e-02 -5.81558810e-02 -1.82042609e-02
 -1.08777497e-01 -5.74742563e-02  2.01450952e-01  8.89256032e-02
 -6.49718699e-02 -4.51460761e-02 -1.36016784e-01  1.30269269e-01
  6.75376472e-02  2.01748936e-01 -3.79707423e-02 -1.28189233e-01
  7.28125170e-02 -1.38188341e-01  1.12498692e-02  4.62321123e-02
  2.23119136e-04  1.14405179e-01 -4.73590270e-04 -1.82033103e-01
 -1.35226295e-01  1.32885791e-01  1.07487346e-02 -1.89454638e-01
 -2.79268823e-02  6.64636936e-02  2.44410850e-01 -2.61206025e-02
  2.75338431e-01 -1.53987243e-01 -2.03275465e-01  9.23539710e-02
  6.83113039e-04  1.41210813e-01 -9.70237976e-02  1.44912843e-01
 -1.59634297e-01  2.46337552e-01 -1.16004728e-01  1.88908538e-01
  1.98458983e-01  5.93663713e-02 -3.54576609e-02  8.87279482e-02]
[ 0.16912444 -0.08741307 -0.15376643  0.18619979 -0.00786399  0.04960762
 -0.06717882 -0.04272696  0.07547417 -0.08281508  0.05777542 -0.0264384
 -0.02093527  0.05852086 -0.07386423 -0.11939653 -0.07099876 -0.00707605
 -0.14962247 -0.01446422 -0.14002557  0.16480337  0.17859054 -0.09455391
 -0.05286749 -0.23157534 -0.20845928  0.26127055  0.13721522 -0.14450427
  0.03484207 -0.09343361 -0.1684715   0.04019397  0.26228875  0.04689935
  0.00545779 -0.05962675 -0.05503694  0.18338076  0.07997404  0.0362157
 -0.00703858 -0.20321671 -0.01021786 -0.10482994  0.12118091  0.00140203
  0.01457292 -0.11650556  0.13629576  0.08061117  0.09670499 -0.11539601
 -0.07898248  0.05236294 -0.10307723  0.045301   -0.1856417   0.11105717
  0.27240285 -0.15990534 -0.23476244  0.12192435 -0.13062159  0.10165206
  0.00044897  0.04375802  0.03258988 -0.03534153 -0.05972833  0.07332693
 -0.16703523  0.21518088  0.03097441  0.07854588 -0.0422922   0.15103703
  0.02634253 -0.04321079  0.0074645  -0.15901265 -0.02363843 -0.00686002
 -0.16805363 -0.05472277 -0.09969133  0.02014051  0.06729049  0.10644361
 -0.13495644 -0.10072836 -0.18105646  0.03473187  0.03193981 -0.17905099
 -0.00199682 -0.08251435  0.01389262  0.1286901   0.0443531   0.0328383
 -0.2040654  -0.06793374 -0.12043619 -0.13736424 -0.1915979   0.0529162
  0.01969664  0.05303284 -0.0940615  -0.03288578 -0.03143171 -0.2014433
  0.03056997  0.18567545  0.14854361 -0.03985365 -0.08051746 -0.02401814
 -0.15374527 -0.04525879  0.12906558 -0.02697728 -0.18970032 -0.25379446
 -0.16850519  0.25141552]
[-0.08406165 -0.08226281  0.21279792  0.04992505 -0.13583084 -0.02323381
  0.09018369  0.03254394  0.15451153 -0.18042394 -0.04769937  0.22173993
  0.11971458 -0.13568624 -0.09595573 -0.18902547 -0.07432835  0.06476041
  0.14308791  0.02331704 -0.16875621  0.08511773  0.00440763 -0.00047141
 -0.17832436  0.1363287   0.16584161  0.02223587  0.07409677 -0.20930407
 -0.09998618 -0.01520501  0.06391142  0.21047065 -0.22060875  0.13511576
  0.09852016  0.01841    -0.08867411  0.01246982  0.10412775 -0.02216893
  0.07118369 -0.10146524  0.1696209  -0.07196977  0.19053022  0.05961665
  0.08661755  0.01786553 -0.04068677  0.07114009 -0.18772785  0.05860006
 -0.09921128 -0.11239863 -0.1031458   0.21671284 -0.00306459  0.08143905
 -0.18158616  0.10592588 -0.13566279  0.1587281   0.09703691  0.06612844
 -0.17450569 -0.0631121   0.18333245 -0.10901475 -0.01858603 -0.02903355
 -0.04311969  0.16305288  0.06106447  0.04151864 -0.12241029 -0.0712609
 -0.12608442 -0.0223943  -0.14343436  0.06174172 -0.19030914 -0.15322707
 -0.00138384  0.09096743 -0.07950214 -0.22119573  0.04408693 -0.08402218
  0.26548058 -0.20963461 -0.04346909  0.17351205  0.03698485 -0.03011189
 -0.09743602  0.10774361  0.13616834  0.24995672 -0.2081123   0.07171949
 -0.02369747 -0.07874437  0.09679903 -0.18587701 -0.03988301 -0.15439802
  0.04305852 -0.06639797  0.25932523  0.09080757 -0.01474859  0.11052309
 -0.20511478  0.01837025  0.18158409  0.06775362 -0.21234255 -0.09088968
 -0.24065181 -0.00418471 -0.25836393 -0.01073708 -0.12538217  0.03876954
  0.11875022 -0.06622244]
[-2.69560310e-01 -6.07652153e-02  7.64619291e-02  1.12194998e-01
 -1.76839062e-01  6.79906589e-02  2.47198752e-01  7.03283163e-02
 -9.51325478e-02  8.61345671e-03 -1.22260838e-01  1.20230071e-01
 -2.41069746e-01  1.21502546e-01 -8.60701682e-02 -1.73145644e-01
  1.77331417e-01 -1.00458925e-01  2.07181053e-02  2.02035624e-02
 -1.30995921e-01 -2.30740724e-03 -1.90685671e-02  2.42759332e-02
  8.17291883e-02  1.07872528e-01  1.06716120e-01 -1.09065361e-01
  3.92983002e-03  6.49731644e-02  5.40014190e-02  1.47971028e-02
  1.61977261e-02  4.15816263e-03 -1.29274954e-01  2.27115968e-01
  9.58305693e-02  1.31523580e-01  3.19148450e-03  3.28123033e-02
  4.95784344e-02 -1.01517923e-01  8.47651151e-02  4.28655479e-02
  1.82591311e-01  2.26803383e-01 -1.51287007e-01  2.32827598e-01
  1.59507773e-01 -2.88335563e-02  2.01484034e-02  1.01074216e-01
 -6.49480966e-02 -1.58442124e-02  1.54064606e-01 -1.40105011e-01
 -1.19974070e-01  6.70446815e-03  5.40281324e-02  9.20184686e-02
  1.31128602e-01  1.56792104e-01  1.41327497e-01  3.96119575e-02
  1.27941877e-01  8.83455977e-02  1.34762422e-02  3.01170583e-02
 -1.40877861e-02  1.58095565e-01 -2.62845792e-01  1.14490591e-02
 -3.86616428e-02 -1.34748119e-02 -1.17131711e-04 -4.09788008e-02
  2.57596961e-01  7.42034120e-02  2.02786019e-01  5.67883303e-02
 -1.37950388e-01 -1.18640640e-01 -6.05238130e-02  1.73161745e-01
  1.15414017e-01 -1.65318463e-01 -1.23574399e-01 -7.14068956e-03
 -1.03614998e-01 -8.83269688e-02  1.48882193e-01  2.35445919e-01
  1.88671455e-02  1.63344147e-01 -6.82635050e-02 -7.55212164e-02
 -1.07610330e-01 -5.03693342e-02  7.72371678e-02  1.17681303e-01
 -8.05548772e-02  7.15279016e-03  4.28268137e-03  5.34200949e-02
  5.15086399e-04 -5.57646821e-02  2.89701903e-02 -3.91124859e-02
 -1.90360041e-01  1.08873967e-01  1.55931941e-02 -2.11047022e-01
 -7.14143073e-02 -1.67593129e-02  1.08169305e-01  5.92885189e-02
  1.28809846e-01  1.21148578e-02 -6.21807358e-02  4.72129589e-02
  2.00368187e-01  3.57666659e-02  9.13511010e-02  1.80001393e-01
  2.59177724e-01  5.06510207e-02  2.37591635e-02  1.52203339e-01]
[-0.09033238 -0.06171279 -0.18341571 -0.25640179 -0.20833671  0.19313949
 -0.06545798  0.17657715 -0.06051162 -0.04698161  0.0595117   0.10116044
  0.04389781 -0.02561557 -0.0037694   0.04200725  0.09938599  0.01023747
 -0.20249429  0.00671594 -0.26564134 -0.25314091 -0.00094809  0.23271073
  0.0460387   0.07582713  0.10540069 -0.04232818  0.08454413  0.18397703
 -0.10274556  0.27156094  0.05598346  0.2275089  -0.16666529  0.03567669
  0.27252541  0.09166137 -0.10698647 -0.0396794   0.08845173 -0.04457153
  0.14346548  0.03480152 -0.05440857 -0.10056069  0.0365532  -0.01722896
 -0.15613907 -0.01797957 -0.12780879  0.04836332  0.02160569 -0.02449547
  0.12546501 -0.11539633 -0.01104399 -0.06020432  0.02476941 -0.02436919
 -0.12050804 -0.12010012  0.08711382 -0.01243648  0.21819241  0.03403606
 -0.06041476 -0.13188694 -0.14900011 -0.26910896  0.25729113 -0.15130595
  0.18361823  0.21195843 -0.00579876  0.0027771  -0.15591127 -0.07332747
  0.23173414  0.00224617 -0.11839948 -0.14296481  0.27423499 -0.07908713
  0.11245978 -0.24493685  0.11639637 -0.26687547 -0.06290256  0.04046667
  0.19426453 -0.20730049 -0.09485765  0.23503334  0.12282712  0.08925529
  0.194793   -0.03305957 -0.06395597  0.00656612 -0.0344071  -0.1924408
  0.11486209 -0.16689644 -0.05389074 -0.06171002 -0.07479868 -0.00962303
 -0.15032037  0.10009647  0.1056874  -0.13236235  0.21263321 -0.15310827
 -0.05800654 -0.00608727  0.21152009 -0.16230968 -0.00344174  0.06154347
 -0.07917656  0.01148891 -0.02797479 -0.00340319  0.07158133  0.20529259
  0.14580248  0.22862245]
[-5.69442632e-02 -1.77908114e-01 -2.33232130e-02 -8.56767392e-02
 -4.56894223e-02 -2.14726139e-02  1.92407269e-01 -1.90390121e-01
 -8.18016721e-02 -1.57861771e-01  4.88895562e-02 -1.57307608e-01
 -6.77528460e-02 -7.67804965e-02  8.18713330e-02 -1.94385160e-01
  2.79333134e-01  5.36206303e-02  1.16777861e-01 -9.17496412e-03
 -1.91407504e-01  7.53083721e-03  5.57810484e-02  6.09158090e-02
 -7.89295682e-03 -3.13715680e-02 -9.25726915e-02 -2.14963106e-01
 -1.87123592e-01 -1.39514764e-01  1.53852199e-02 -4.33942617e-02
  7.31599887e-02 -1.36129283e-02  1.12738888e-01 -4.67816739e-02
  7.41292004e-03  5.02502337e-02  2.08226104e-01 -8.40356285e-02
 -7.92746137e-02  6.72747734e-02  1.38203877e-01 -3.08911499e-02
 -2.40137934e-02 -1.79243725e-01  7.71481353e-02  5.81970862e-02
  3.50262274e-02 -1.20127676e-01  1.73137775e-01 -2.51003421e-02
  9.30539331e-02 -1.32793319e-01 -6.01824916e-02  2.99745726e-02
 -8.43044103e-02  7.85830387e-02 -1.48720776e-01  1.53372707e-01
  2.88956660e-02 -1.94424006e-01  1.65735248e-01 -1.01569105e-01
  1.50001786e-01 -8.81144863e-02  2.27603249e-01 -1.87036685e-01
 -2.27767720e-01 -5.71189247e-02 -5.57405881e-03  3.66122730e-02
  1.93278270e-01 -6.25745268e-02 -2.98205051e-02  1.38136884e-02
  7.44154455e-02  2.34031533e-01  2.37900029e-02 -1.94865477e-01
 -1.37824985e-01 -9.60267516e-02 -6.03167939e-02  8.15361266e-02
  2.46793995e-01  1.05782422e-02  2.19703387e-01 -1.38710992e-02
  6.02524129e-02  5.75561660e-02  1.64694190e-01 -1.82186427e-01
  7.44683305e-02  2.34482930e-02  1.13860855e-01 -1.42067319e-01
  1.47139193e-01  4.58510870e-04 -2.00361729e-01  7.47543998e-02
  6.68317001e-02 -6.94620210e-02  2.59146303e-02 -1.16814859e-01
 -1.03227332e-01  2.41641305e-01 -2.48749851e-01 -1.49371700e-04
 -1.56062602e-01  6.94679456e-03 -1.16517686e-01  6.62327351e-02
 -1.52102894e-01  6.96360738e-02  1.22618189e-01  4.72874680e-02
 -1.79126978e-01 -2.17722602e-02  6.15520270e-02  1.10795144e-02
  1.90511182e-01 -1.37302152e-02  5.63617288e-02 -9.39491468e-03
 -2.18823769e-02 -2.84839720e-02 -4.56989556e-02  1.02052347e-01]
[-0.05024625 -0.02886637 -0.19714496  0.15630863  0.16346538  0.1617748
 -0.092269   -0.06428666 -0.1253997  -0.19629933 -0.06851676 -0.22015968
  0.09542098  0.11185794 -0.01896501  0.03842411  0.1701434   0.13436959
  0.16341008  0.15971536 -0.09654227 -0.10749356 -0.04557043 -0.13955929
 -0.24799534  0.19996649 -0.01854608  0.07163568 -0.03732386  0.08804329
 -0.01283869  0.14359183  0.03946353 -0.08475745  0.10891039  0.26531622
  0.08731839  0.05720299  0.085969    0.08042162  0.04194131  0.23468367
 -0.00553566  0.17105937 -0.0969588   0.08669907  0.12106737 -0.01243465
 -0.07621483  0.09549017  0.25442085  0.10241192 -0.04889094  0.00300208
 -0.01191508 -0.09889085  0.0590497  -0.09110535 -0.12102275  0.19200806
 -0.10543473 -0.0148594  -0.19306607 -0.18938658  0.09062084 -0.07886555
 -0.05471681  0.15616971 -0.01720114 -0.14812727  0.03769084  0.01362362
  0.03022048  0.13270624 -0.19948341  0.02474183 -0.07318318  0.00611786
  0.14400045  0.09407213  0.00362903 -0.10409757  0.04167748  0.1018304
 -0.21059551 -0.27298187 -0.09993194 -0.17005697 -0.25172629 -0.20324546
  0.15077746  0.1763339  -0.02524203 -0.12563725  0.03201462 -0.23886378
 -0.22822999  0.02384812  0.20202686  0.11523487  0.01994835  0.20731915
  0.10376783 -0.0004853  -0.24217601 -0.03034863 -0.07041523  0.08576922
 -0.15182655  0.13286198  0.01155635 -0.14320397 -0.03305636 -0.11297354
 -0.18840341 -0.24340725  0.11706186 -0.15879228  0.13352199  0.23534644
  0.04213947 -0.01161965  0.17748026  0.08395889  0.05488534 -0.03866218
  0.01965792 -0.23076479]
[ 3.04537077e-02 -2.10447436e-01 -3.31472441e-02 -3.34371820e-02
 -8.26455256e-02  3.15691596e-02  9.72550254e-02  8.03622868e-03
  9.71556048e-02  6.96490586e-03 -1.02825184e-01  1.02693130e-01
  2.05280667e-01  1.35088294e-01  7.53994583e-02  5.25416245e-02
 -2.02006359e-01  2.04931783e-01  1.23401036e-01  2.19695006e-02
  5.30216192e-02 -5.92882761e-02  1.02520398e-01 -2.12704732e-01
 -2.44825847e-01  1.98600290e-01  2.27641206e-02  2.59650298e-03
 -2.24366701e-01  6.94152959e-02  1.08491872e-01  6.37414564e-02
  1.56383824e-01  7.66525291e-02 -6.23172405e-02  1.55592032e-01
  1.67602710e-01  4.68911941e-03 -5.26620305e-02  1.40034939e-01
 -2.39440423e-01  2.38131973e-01  1.32556102e-02 -6.75588602e-02
 -4.79963951e-02 -3.85760615e-02 -1.26286688e-01 -6.80284081e-02
  1.23820362e-01 -1.76230342e-01 -1.69946795e-02 -6.10241497e-02
  1.23671632e-01  7.26230201e-02  2.44121410e-02  7.16390526e-02
 -5.28061737e-02  9.83860650e-02 -6.19934935e-02  1.86417923e-02
  2.10424432e-01  1.63220280e-01  7.43577553e-02  1.38000236e-01
 -1.23267402e-01  4.07787386e-02 -1.23328210e-01 -2.62170934e-01
  2.25615294e-02 -5.55381648e-02  1.00169324e-01  1.55963654e-01
  5.80785542e-02 -2.04991722e-01  4.17465351e-03 -1.65245063e-01
 -5.11632320e-02  8.61516875e-02  2.58640077e-01  1.18252447e-03
 -8.36817440e-02 -8.95546692e-02  5.92225454e-02 -1.07973056e-01
 -3.23773958e-02 -9.22696395e-02  5.77957512e-02  3.06620890e-02
  6.06815709e-02 -1.38185921e-01  4.72135221e-02  6.06709542e-02
  5.58114091e-02 -1.55987570e-01 -1.13692724e-01 -1.85827063e-02
  1.60121478e-03 -5.59499624e-02 -2.11525110e-04 -1.19477195e-01
  3.84184354e-02  4.47939636e-02 -1.13268085e-01  1.38643780e-01
  5.33180341e-03  7.56647215e-02 -7.01271699e-02  1.01392124e-01
  1.92047965e-01 -2.34930987e-02 -2.01938305e-01 -1.60512956e-01
 -1.06361096e-01 -1.41660868e-01  1.03128823e-01  5.22886060e-02
  5.27464952e-02 -1.62460906e-01  7.39799032e-02 -7.72680764e-02
  1.66394036e-01 -7.36121886e-03  1.83398082e-01 -7.27057767e-02
  1.41916155e-01  1.03140776e-01 -3.65206266e-02  6.26644467e-02]
[-0.06306534 -0.14960231  0.02974032 -0.27208727  0.16163909 -0.19528259
 -0.01765253 -0.00397494 -0.18542637  0.16305056 -0.02386266 -0.03346166
  0.01939296  0.10537662 -0.00706951  0.06312657  0.04002969  0.14649125
 -0.15493465 -0.01565695  0.24187039 -0.11504888  0.01662987  0.20334747
  0.12984536 -0.0375958   0.02368847  0.17245922 -0.04128064 -0.08326847
  0.01475359 -0.07354739 -0.02677137 -0.12692548  0.15087157 -0.16629549
  0.04357156 -0.01769829 -0.01349275  0.16697686 -0.03419928  0.18764671
 -0.10509177  0.06035017 -0.11533857  0.13551795 -0.0297983  -0.15073942
 -0.05086109  0.06253197  0.10868112  0.09339699 -0.12797794  0.0596786
  0.22650518  0.09398978  0.10426323 -0.07530761 -0.27064618 -0.02173915
